digraph Tree {
node [shape=box, style="rounded", color="black", fontname=helvetica] ;
edge [fontname=helvetica] ;
0 [label="sqft <= 0.3\nmse = 151056.5\nsamples = 3529\nvalue = 1482.1"] ;
1 [label="ld_1.0 <= -0.1\nmse = 93716.4\nsamples = 2417\nvalue = 1324.5"] ;
0 -> 1 [labeldistance=2.5, labelangle=45, headlabel="True"] ;
2 [label="number bedrooms <= -0.1\nmse = 44579.1\nsamples = 1251\nvalue = 1140.0"] ;
1 -> 2 ;
3 [label="sqft <= -0.7\nmse = 25115.7\nsamples = 761\nvalue = 1043.2"] ;
2 -> 3 ;
4 [label="sqft <= -1.1\nmse = 15078.1\nsamples = 485\nvalue = 996.8"] ;
3 -> 4 ;
5 [label="pTwenties <= -0.5\nmse = 14087.4\nsamples = 161\nvalue = 951.2"] ;
4 -> 5 ;
6 [label="pTwenties <= -0.9\nmse = 9134.1\nsamples = 32\nvalue = 863.7"] ;
5 -> 6 ;
7 [label="pSixtyPlus <= 0.7\nmse = 3167.8\nsamples = 10\nvalue = 962.8"] ;
6 -> 7 ;
8 [label="pThirties <= -0.5\nmse = 896.5\nsamples = 6\nvalue = 1009.4"] ;
7 -> 8 ;
9 [label="mse = 0.0\nsamples = 2\nvalue = 1045.0"] ;
8 -> 9 ;
10 [label="pThirties <= -0.0\nmse = 631.2\nsamples = 4\nvalue = 997.5"] ;
8 -> 10 ;
11 [label="sqft <= -1.3\nmse = 567.2\nsamples = 3\nvalue = 1008.8"] ;
10 -> 11 ;
12 [label="mse = 0.0\nsamples = 1\nvalue = 1050.0"] ;
11 -> 12 ;
13 [label="mse = 0.0\nsamples = 2\nvalue = 995.0"] ;
11 -> 13 ;
14 [label="mse = 0.0\nsamples = 1\nvalue = 975.0"] ;
10 -> 14 ;
15 [label="medianIncome <= 0.2\nmse = 1091.4\nsamples = 4\nvalue = 916.1"] ;
7 -> 15 ;
16 [label="pThirties <= -0.9\nmse = 90.2\nsamples = 2\nvalue = 859.5"] ;
15 -> 16 ;
17 [label="mse = 0.0\nsamples = 1\nvalue = 869.0"] ;
16 -> 17 ;
18 [label="mse = 0.0\nsamples = 1\nvalue = 850.0"] ;
16 -> 18 ;
19 [label="mse = 0.0\nsamples = 2\nvalue = 935.0"] ;
15 -> 19 ;
20 [label="pk_2.0 <= 0.0\nmse = 5778.6\nsamples = 22\nvalue = 822.0"] ;
6 -> 20 ;
21 [label="sqft <= -1.4\nmse = 4653.7\nsamples = 17\nvalue = 849.2"] ;
20 -> 21 ;
22 [label="pYouths <= 0.3\nmse = 3313.3\nsamples = 8\nvalue = 807.0"] ;
21 -> 22 ;
23 [label="mse = 0.0\nsamples = 1\nvalue = 700.0"] ;
22 -> 23 ;
24 [label="ld_5.0 <= 5.8\nmse = 1639.3\nsamples = 7\nvalue = 824.8"] ;
22 -> 24 ;
25 [label="pYouths <= 1.3\nmse = 623.2\nsamples = 6\nvalue = 839.8"] ;
24 -> 25 ;
26 [label="postdateint <= -0.8\nmse = 123.6\nsamples = 3\nvalue = 874.3"] ;
25 -> 26 ;
27 [label="mse = 0.0\nsamples = 1\nvalue = 859.0"] ;
26 -> 27 ;
28 [label="pThirties <= -0.5\nmse = 9.0\nsamples = 2\nvalue = 882.0"] ;
26 -> 28 ;
29 [label="mse = 0.0\nsamples = 1\nvalue = 879.0"] ;
28 -> 29 ;
30 [label="mse = 0.0\nsamples = 1\nvalue = 885.0"] ;
28 -> 30 ;
31 [label="pForties <= -0.2\nmse = 107.1\nsamples = 3\nvalue = 825.0"] ;
25 -> 31 ;
32 [label="pYouths <= 2.6\nmse = 24.0\nsamples = 2\nvalue = 831.0"] ;
31 -> 32 ;
33 [label="mse = 0.0\nsamples = 1\nvalue = 825.0"] ;
32 -> 33 ;
34 [label="mse = 0.0\nsamples = 1\nvalue = 835.0"] ;
32 -> 34 ;
35 [label="mse = 0.0\nsamples = 1\nvalue = 810.0"] ;
31 -> 35 ;
36 [label="mse = 0.0\nsamples = 1\nvalue = 750.0"] ;
24 -> 36 ;
37 [label="postdateint <= -0.1\nmse = 2436.1\nsamples = 9\nvalue = 891.4"] ;
21 -> 37 ;
38 [label="postdateint <= -0.8\nmse = 5172.2\nsamples = 3\nvalue = 951.7"] ;
37 -> 38 ;
39 [label="pSixtyPlus <= -0.5\nmse = 1225.0\nsamples = 2\nvalue = 905.0"] ;
38 -> 39 ;
40 [label="mse = 0.0\nsamples = 1\nvalue = 940.0"] ;
39 -> 40 ;
41 [label="mse = 0.0\nsamples = 1\nvalue = 870.0"] ;
39 -> 41 ;
42 [label="mse = 0.0\nsamples = 1\nvalue = 1045.0"] ;
38 -> 42 ;
43 [label="postdateint <= 1.2\nmse = 427.4\nsamples = 6\nvalue = 874.9"] ;
37 -> 43 ;
44 [label="pForties <= 0.0\nmse = 165.2\nsamples = 4\nvalue = 885.6"] ;
43 -> 44 ;
45 [label="pTwenties <= -0.9\nmse = 50.0\nsamples = 2\nvalue = 870.0"] ;
44 -> 45 ;
46 [label="mse = 0.0\nsamples = 1\nvalue = 875.0"] ;
45 -> 46 ;
47 [label="mse = 0.0\nsamples = 1\nvalue = 860.0"] ;
45 -> 47 ;
48 [label="mse = 0.0\nsamples = 2\nvalue = 895.0"] ;
44 -> 48 ;
49 [label="pk_4.0 <= 0.4\nmse = 3.6\nsamples = 2\nvalue = 846.3"] ;
43 -> 49 ;
50 [label="mse = 0.0\nsamples = 1\nvalue = 845.0"] ;
49 -> 50 ;
51 [label="mse = 0.0\nsamples = 1\nvalue = 849.0"] ;
49 -> 51 ;
52 [label="pForties <= 0.3\nmse = 1084.0\nsamples = 5\nvalue = 746.0"] ;
20 -> 52 ;
53 [label="sqft <= -1.4\nmse = 750.0\nsamples = 4\nvalue = 735.0"] ;
52 -> 53 ;
54 [label="mse = 0.0\nsamples = 2\nvalue = 700.0"] ;
53 -> 54 ;
55 [label="postdateint <= -0.0\nmse = 24.0\nsamples = 2\nvalue = 756.0"] ;
53 -> 55 ;
56 [label="mse = 0.0\nsamples = 1\nvalue = 760.0"] ;
55 -> 56 ;
57 [label="mse = 0.0\nsamples = 1\nvalue = 750.0"] ;
55 -> 57 ;
58 [label="mse = 0.0\nsamples = 1\nvalue = 790.0"] ;
52 -> 58 ;
59 [label="medianIncome <= -1.5\nmse = 12709.6\nsamples = 129\nvalue = 976.0"] ;
5 -> 59 ;
60 [label="sqft <= -1.3\nmse = 7906.4\nsamples = 18\nvalue = 1070.1"] ;
59 -> 60 ;
61 [label="postdateint <= -0.5\nmse = 5644.5\nsamples = 12\nvalue = 1106.9"] ;
60 -> 61 ;
62 [label="ty_2.0 <= 2.0\nmse = 509.0\nsamples = 3\nvalue = 1177.0"] ;
61 -> 62 ;
63 [label="mse = 0.0\nsamples = 1\nvalue = 1199.0"] ;
62 -> 63 ;
64 [label="ld_3.0 <= 0.3\nmse = 50.0\nsamples = 2\nvalue = 1155.0"] ;
62 -> 64 ;
65 [label="mse = 0.0\nsamples = 1\nvalue = 1165.0"] ;
64 -> 65 ;
66 [label="mse = 0.0\nsamples = 1\nvalue = 1150.0"] ;
64 -> 66 ;
67 [label="postdateint <= -0.1\nmse = 4525.6\nsamples = 9\nvalue = 1071.8"] ;
61 -> 67 ;
68 [label="postdateint <= -0.5\nmse = 4925.3\nsamples = 5\nvalue = 1100.3"] ;
67 -> 68 ;
69 [label="mse = 0.0\nsamples = 1\nvalue = 1035.0"] ;
68 -> 69 ;
70 [label="ty_2.0 <= 2.0\nmse = 4917.5\nsamples = 4\nvalue = 1111.2"] ;
68 -> 70 ;
71 [label="mse = 5871.0\nsamples = 3\nvalue = 1113.4"] ;
70 -> 71 ;
72 [label="mse = 0.0\nsamples = 1\nvalue = 1100.0"] ;
70 -> 72 ;
73 [label="postdateint <= 1.1\nmse = 1246.0\nsamples = 4\nvalue = 1032.0"] ;
67 -> 73 ;
74 [label="postdateint <= 0.3\nmse = 979.7\nsamples = 3\nvalue = 1021.2"] ;
73 -> 74 ;
75 [label="mse = 0.0\nsamples = 1\nvalue = 1050.0"] ;
74 -> 75 ;
76 [label="ld_3.0 <= 0.3\nmse = 306.2\nsamples = 2\nvalue = 992.5"] ;
74 -> 76 ;
77 [label="mse = 0.0\nsamples = 1\nvalue = 1010.0"] ;
76 -> 77 ;
78 [label="mse = 0.0\nsamples = 1\nvalue = 975.0"] ;
76 -> 78 ;
79 [label="mse = 0.0\nsamples = 1\nvalue = 1075.0"] ;
73 -> 79 ;
80 [label="postdateint <= -0.0\nmse = 3107.0\nsamples = 6\nvalue = 987.4"] ;
60 -> 80 ;
81 [label="sqft <= -1.2\nmse = 43.6\nsamples = 3\nvalue = 916.3"] ;
80 -> 81 ;
82 [label="postdateint <= -0.8\nmse = 9.0\nsamples = 2\nvalue = 912.0"] ;
81 -> 82 ;
83 [label="mse = 0.0\nsamples = 1\nvalue = 915.0"] ;
82 -> 83 ;
84 [label="mse = 0.0\nsamples = 1\nvalue = 909.0"] ;
82 -> 84 ;
85 [label="mse = 0.0\nsamples = 1\nvalue = 925.0"] ;
81 -> 85 ;
86 [label="postdateint <= 0.3\nmse = 100.0\nsamples = 3\nvalue = 1030.0"] ;
80 -> 86 ;
87 [label="mse = 0.0\nsamples = 1\nvalue = 1050.0"] ;
86 -> 87 ;
88 [label="mse = 0.0\nsamples = 2\nvalue = 1025.0"] ;
86 -> 88 ;
89 [label="sqft <= -1.4\nmse = 11850.6\nsamples = 111\nvalue = 961.2"] ;
59 -> 89 ;
90 [label="pForties <= 0.2\nmse = 7142.4\nsamples = 45\nvalue = 917.3"] ;
89 -> 90 ;
91 [label="ty_2.0 <= 2.0\nmse = 6197.7\nsamples = 43\nvalue = 924.8"] ;
90 -> 91 ;
92 [label="postdateint <= 0.8\nmse = 5903.4\nsamples = 36\nvalue = 938.5"] ;
91 -> 92 ;
93 [label="sqft <= -1.4\nmse = 5314.0\nsamples = 24\nvalue = 916.9"] ;
92 -> 93 ;
94 [label="sqft <= -1.5\nmse = 4735.2\nsamples = 12\nvalue = 867.1"] ;
93 -> 94 ;
95 [label="pForties <= -0.6\nmse = 3163.6\nsamples = 11\nvalue = 880.0"] ;
94 -> 95 ;
96 [label="mse = 0.0\nsamples = 1\nvalue = 995.0"] ;
95 -> 96 ;
97 [label="postdateint <= -0.5\nmse = 2025.2\nsamples = 10\nvalue = 868.5"] ;
95 -> 97 ;
98 [label="mse = 0.0\nsamples = 1\nvalue = 925.0"] ;
97 -> 98 ;
99 [label="sqft <= -1.6\nmse = 1856.2\nsamples = 9\nvalue = 862.2"] ;
97 -> 99 ;
100 [label="sqft <= -1.6\nmse = 1629.7\nsamples = 4\nvalue = 888.8"] ;
99 -> 100 ;
101 [label="pForties <= -0.4\nmse = 100.0\nsamples = 2\nvalue = 850.0"] ;
100 -> 101 ;
102 [label="mse = 0.0\nsamples = 1\nvalue = 860.0"] ;
101 -> 102 ;
103 [label="mse = 0.0\nsamples = 1\nvalue = 840.0"] ;
101 -> 103 ;
104 [label="postdateint <= -0.1\nmse = 156.2\nsamples = 2\nvalue = 927.5"] ;
100 -> 104 ;
105 [label="mse = 0.0\nsamples = 1\nvalue = 940.0"] ;
104 -> 105 ;
106 [label="mse = 0.0\nsamples = 1\nvalue = 915.0"] ;
104 -> 106 ;
107 [label="postdateint <= 0.4\nmse = 1024.0\nsamples = 5\nvalue = 841.0"] ;
99 -> 107 ;
108 [label="mse = 0.0\nsamples = 4\nvalue = 825.0"] ;
107 -> 108 ;
109 [label="mse = 0.0\nsamples = 1\nvalue = 905.0"] ;
107 -> 109 ;
110 [label="mse = 0.0\nsamples = 1\nvalue = 725.0"] ;
94 -> 110 ;
111 [label="pForties <= -0.0\nmse = 3412.7\nsamples = 12\nvalue = 945.4"] ;
93 -> 111 ;
112 [label="pk_5.0 <= 1.5\nmse = 2760.8\nsamples = 8\nvalue = 976.1"] ;
111 -> 112 ;
113 [label="pSixtyPlus <= -0.6\nmse = 1995.2\nsamples = 4\nvalue = 1037.2"] ;
112 -> 113 ;
114 [label="mse = 0.0\nsamples = 2\nvalue = 995.0"] ;
113 -> 114 ;
115 [label="pForties <= -0.2\nmse = 420.2\nsamples = 2\nvalue = 1079.5"] ;
113 -> 115 ;
116 [label="mse = 0.0\nsamples = 1\nvalue = 1059.0"] ;
115 -> 116 ;
117 [label="mse = 0.0\nsamples = 1\nvalue = 1100.0"] ;
115 -> 117 ;
118 [label="pTwenties <= 0.3\nmse = 698.8\nsamples = 4\nvalue = 948.9"] ;
112 -> 118 ;
119 [label="mse = 0.0\nsamples = 1\nvalue = 975.0"] ;
118 -> 119 ;
120 [label="postdateint <= -0.4\nmse = 276.0\nsamples = 3\nvalue = 928.0"] ;
118 -> 120 ;
121 [label="mse = 0.0\nsamples = 1\nvalue = 900.0"] ;
120 -> 121 ;
122 [label="pForties <= -0.4\nmse = 100.0\nsamples = 2\nvalue = 935.0"] ;
120 -> 122 ;
123 [label="mse = 0.0\nsamples = 1\nvalue = 945.0"] ;
122 -> 123 ;
124 [label="mse = 0.0\nsamples = 1\nvalue = 925.0"] ;
122 -> 124 ;
125 [label="pk_5.0 <= 1.5\nmse = 465.2\nsamples = 4\nvalue = 895.6"] ;
111 -> 125 ;
126 [label="postdateint <= -0.1\nmse = 49.0\nsamples = 3\nvalue = 887.9"] ;
125 -> 126 ;
127 [label="mse = 0.0\nsamples = 1\nvalue = 880.0"] ;
126 -> 127 ;
128 [label="ld_4.0 <= 1.5\nmse = 4.7\nsamples = 2\nvalue = 893.8"] ;
126 -> 128 ;
129 [label="mse = 0.0\nsamples = 1\nvalue = 890.0"] ;
128 -> 129 ;
130 [label="mse = 0.0\nsamples = 1\nvalue = 895.0"] ;
128 -> 130 ;
131 [label="mse = 0.0\nsamples = 1\nvalue = 950.0"] ;
125 -> 131 ;
132 [label="postdateint <= 2.0\nmse = 3927.5\nsamples = 12\nvalue = 985.9"] ;
92 -> 132 ;
133 [label="postdateint <= 1.9\nmse = 1528.1\nsamples = 10\nvalue = 1005.3"] ;
132 -> 133 ;
134 [label="pThirties <= 0.6\nmse = 406.2\nsamples = 4\nvalue = 1037.5"] ;
133 -> 134 ;
135 [label="pForties <= -0.1\nmse = 200.0\nsamples = 3\nvalue = 1055.0"] ;
134 -> 135 ;
136 [label="mse = 0.0\nsamples = 1\nvalue = 1075.0"] ;
135 -> 136 ;
137 [label="mse = 0.0\nsamples = 2\nvalue = 1045.0"] ;
135 -> 137 ;
138 [label="mse = 0.0\nsamples = 1\nvalue = 1020.0"] ;
134 -> 138 ;
139 [label="pk_4.0 <= 0.4\nmse = 839.9\nsamples = 6\nvalue = 977.7"] ;
133 -> 139 ;
140 [label="mse = 0.0\nsamples = 1\nvalue = 945.0"] ;
139 -> 140 ;
141 [label="postdateint <= 1.9\nmse = 771.8\nsamples = 5\nvalue = 983.2"] ;
139 -> 141 ;
142 [label="postdateint <= 1.9\nmse = 1344.7\nsamples = 3\nvalue = 993.0"] ;
141 -> 142 ;
143 [label="sqft <= -1.5\nmse = 756.2\nsamples = 2\nvalue = 972.5"] ;
142 -> 143 ;
144 [label="mse = 0.0\nsamples = 1\nvalue = 1000.0"] ;
143 -> 144 ;
145 [label="mse = 0.0\nsamples = 1\nvalue = 945.0"] ;
143 -> 145 ;
146 [label="mse = 0.0\nsamples = 1\nvalue = 1034.0"] ;
142 -> 146 ;
147 [label="sqft <= -1.5\nmse = 5.6\nsamples = 2\nvalue = 973.3"] ;
141 -> 147 ;
148 [label="mse = 0.0\nsamples = 1\nvalue = 975.0"] ;
147 -> 148 ;
149 [label="mse = 0.0\nsamples = 1\nvalue = 970.0"] ;
147 -> 149 ;
150 [label="pForties <= -0.4\nmse = 1225.0\nsamples = 2\nvalue = 860.0"] ;
132 -> 150 ;
151 [label="mse = 0.0\nsamples = 1\nvalue = 895.0"] ;
150 -> 151 ;
152 [label="mse = 0.0\nsamples = 1\nvalue = 825.0"] ;
150 -> 152 ;
153 [label="postdateint <= -1.3\nmse = 3620.8\nsamples = 7\nvalue = 870.0"] ;
91 -> 153 ;
154 [label="mse = 0.0\nsamples = 1\nvalue = 950.0"] ;
153 -> 154 ;
155 [label="sqft <= -1.5\nmse = 1983.3\nsamples = 6\nvalue = 843.3"] ;
153 -> 155 ;
156 [label="mse = 0.0\nsamples = 1\nvalue = 735.0"] ;
155 -> 156 ;
157 [label="pFifties <= -0.7\nmse = 580.9\nsamples = 5\nvalue = 856.9"] ;
155 -> 157 ;
158 [label="mse = 0.0\nsamples = 1\nvalue = 920.0"] ;
157 -> 158 ;
159 [label="sqft <= -1.4\nmse = 13.3\nsamples = 4\nvalue = 847.9"] ;
157 -> 159 ;
160 [label="pYouths <= -0.8\nmse = 6.2\nsamples = 2\nvalue = 842.5"] ;
159 -> 160 ;
161 [label="mse = 0.0\nsamples = 1\nvalue = 840.0"] ;
160 -> 161 ;
162 [label="mse = 0.0\nsamples = 1\nvalue = 845.0"] ;
160 -> 162 ;
163 [label="mse = 0.0\nsamples = 2\nvalue = 850.0"] ;
159 -> 163 ;
164 [label="pk_4.0 <= 0.4\nmse = 2222.2\nsamples = 2\nvalue = 766.7"] ;
90 -> 164 ;
165 [label="mse = 0.0\nsamples = 1\nvalue = 700.0"] ;
164 -> 165 ;
166 [label="mse = 0.0\nsamples = 1\nvalue = 800.0"] ;
164 -> 166 ;
167 [label="pk_2.0 <= 0.0\nmse = 12833.5\nsamples = 66\nvalue = 988.3"] ;
89 -> 167 ;
168 [label="sqft <= -1.3\nmse = 5174.0\nsamples = 57\nvalue = 968.6"] ;
167 -> 168 ;
169 [label="pForties <= -0.3\nmse = 3288.8\nsamples = 11\nvalue = 1042.9"] ;
168 -> 169 ;
170 [label="mse = 0.0\nsamples = 2\nvalue = 1150.0"] ;
169 -> 170 ;
171 [label="postdateint <= -0.4\nmse = 1757.3\nsamples = 9\nvalue = 1026.4"] ;
169 -> 171 ;
172 [label="postdateint <= -0.4\nmse = 2183.2\nsamples = 4\nvalue = 993.2"] ;
171 -> 172 ;
173 [label="mse = 0.0\nsamples = 1\nvalue = 1057.0"] ;
172 -> 173 ;
174 [label="postdateint <= -0.4\nmse = 1104.7\nsamples = 3\nvalue = 972.0"] ;
172 -> 174 ;
175 [label="mse = 0.0\nsamples = 1\nvalue = 925.0"] ;
174 -> 175 ;
176 [label="pTwenties <= 0.2\nmse = 0.2\nsamples = 2\nvalue = 995.5"] ;
174 -> 176 ;
177 [label="mse = 0.0\nsamples = 1\nvalue = 996.0"] ;
176 -> 177 ;
178 [label="mse = 0.0\nsamples = 1\nvalue = 995.0"] ;
176 -> 178 ;
179 [label="pSixtyPlus <= 0.6\nmse = 863.2\nsamples = 5\nvalue = 1041.1"] ;
171 -> 179 ;
180 [label="postdateint <= 1.3\nmse = 744.9\nsamples = 4\nvalue = 1046.1"] ;
179 -> 180 ;
181 [label="postdateint <= 0.5\nmse = 866.6\nsamples = 3\nvalue = 1040.5"] ;
180 -> 181 ;
182 [label="postdateint <= -0.4\nmse = 10.2\nsamples = 2\nvalue = 1053.6"] ;
181 -> 182 ;
183 [label="mse = 0.0\nsamples = 1\nvalue = 1060.0"] ;
182 -> 183 ;
184 [label="mse = 0.0\nsamples = 1\nvalue = 1052.0"] ;
182 -> 184 ;
185 [label="mse = 0.0\nsamples = 1\nvalue = 975.0"] ;
181 -> 185 ;
186 [label="mse = 0.0\nsamples = 1\nvalue = 1063.0"] ;
180 -> 186 ;
187 [label="mse = 0.0\nsamples = 1\nvalue = 1001.0"] ;
179 -> 187 ;
188 [label="postdateint <= -0.4\nmse = 4227.3\nsamples = 46\nvalue = 953.7"] ;
168 -> 188 ;
189 [label="pk_4.0 <= 0.4\nmse = 4679.8\nsamples = 14\nvalue = 995.7"] ;
188 -> 189 ;
190 [label="pSixtyPlus <= -0.2\nmse = 4353.5\nsamples = 3\nvalue = 1064.2"] ;
189 -> 190 ;
191 [label="pk_5.0 <= 1.5\nmse = 567.2\nsamples = 2\nvalue = 1108.8"] ;
190 -> 191 ;
192 [label="mse = 0.0\nsamples = 1\nvalue = 1150.0"] ;
191 -> 192 ;
193 [label="mse = 0.0\nsamples = 1\nvalue = 1095.0"] ;
191 -> 193 ;
194 [label="mse = 0.0\nsamples = 1\nvalue = 975.0"] ;
190 -> 194 ;
195 [label="pYouths <= 1.1\nmse = 2182.7\nsamples = 11\nvalue = 968.3"] ;
189 -> 195 ;
196 [label="postdateint <= -0.6\nmse = 1927.8\nsamples = 10\nvalue = 973.5"] ;
195 -> 196 ;
197 [label="sqft <= -1.2\nmse = 2500.7\nsamples = 6\nvalue = 992.4"] ;
196 -> 197 ;
198 [label="postdateint <= -1.4\nmse = 1138.5\nsamples = 5\nvalue = 977.7"] ;
197 -> 198 ;
199 [label="mse = 0.0\nsamples = 1\nvalue = 915.0"] ;
198 -> 199 ;
200 [label="postdateint <= -1.0\nmse = 563.5\nsamples = 4\nvalue = 988.2"] ;
198 -> 200 ;
201 [label="pSixtyPlus <= -0.8\nmse = 36.8\nsamples = 2\nvalue = 978.5"] ;
200 -> 201 ;
202 [label="mse = 0.0\nsamples = 1\nvalue = 975.0"] ;
201 -> 202 ;
203 [label="mse = 0.0\nsamples = 1\nvalue = 989.0"] ;
201 -> 203 ;
204 [label="pForties <= -0.1\nmse = 1056.2\nsamples = 2\nvalue = 1007.5"] ;
200 -> 204 ;
205 [label="mse = 0.0\nsamples = 1\nvalue = 1040.0"] ;
204 -> 205 ;
206 [label="mse = 0.0\nsamples = 1\nvalue = 975.0"] ;
204 -> 206 ;
207 [label="mse = 0.0\nsamples = 1\nvalue = 1095.0"] ;
197 -> 207 ;
208 [label="medianIncome <= 0.3\nmse = 55.6\nsamples = 4\nvalue = 948.3"] ;
196 -> 208 ;
209 [label="pTwenties <= 0.6\nmse = 22.2\nsamples = 3\nvalue = 941.7"] ;
208 -> 209 ;
210 [label="mse = 0.0\nsamples = 2\nvalue = 945.0"] ;
209 -> 210 ;
211 [label="mse = 0.0\nsamples = 1\nvalue = 935.0"] ;
209 -> 211 ;
212 [label="mse = 0.0\nsamples = 1\nvalue = 955.0"] ;
208 -> 212 ;
213 [label="mse = 0.0\nsamples = 1\nvalue = 895.0"] ;
195 -> 213 ;
214 [label="ld_4.0 <= 1.5\nmse = 3102.1\nsamples = 32\nvalue = 937.4"] ;
188 -> 214 ;
215 [label="pThirties <= 0.3\nmse = 2213.5\nsamples = 30\nvalue = 942.4"] ;
214 -> 215 ;
216 [label="postdateint <= 1.7\nmse = 1951.9\nsamples = 19\nvalue = 932.7"] ;
215 -> 216 ;
217 [label="pk_5.0 <= 1.5\nmse = 1856.1\nsamples = 18\nvalue = 936.2"] ;
216 -> 217 ;
218 [label="postdateint <= -0.4\nmse = 833.9\nsamples = 13\nvalue = 923.3"] ;
217 -> 218 ;
219 [label="pYouths <= -0.7\nmse = 45.9\nsamples = 3\nvalue = 945.7"] ;
218 -> 219 ;
220 [label="mse = 0.0\nsamples = 1\nvalue = 935.0"] ;
219 -> 220 ;
221 [label="mse = 0.0\nsamples = 2\nvalue = 950.0"] ;
219 -> 221 ;
222 [label="postdateint <= -0.0\nmse = 861.6\nsamples = 10\nvalue = 913.4"] ;
218 -> 222 ;
223 [label="postdateint <= -0.3\nmse = 223.4\nsamples = 4\nvalue = 896.2"] ;
222 -> 223 ;
224 [label="mse = 0.0\nsamples = 1\nvalue = 925.0"] ;
223 -> 224 ;
225 [label="pForties <= -0.1\nmse = 120.4\nsamples = 3\nvalue = 892.1"] ;
223 -> 225 ;
226 [label="pYouths <= -0.7\nmse = 4.0\nsamples = 2\nvalue = 899.0"] ;
225 -> 226 ;
227 [label="mse = 0.0\nsamples = 1\nvalue = 900.0"] ;
226 -> 227 ;
228 [label="mse = 0.0\nsamples = 1\nvalue = 895.0"] ;
226 -> 228 ;
229 [label="mse = 0.0\nsamples = 1\nvalue = 875.0"] ;
225 -> 229 ;
230 [label="pYouths <= -0.0\nmse = 909.0\nsamples = 6\nvalue = 930.6"] ;
222 -> 230 ;
231 [label="postdateint <= 0.8\nmse = 742.2\nsamples = 3\nvalue = 951.2"] ;
230 -> 231 ;
232 [label="pSixtyPlus <= 0.6\nmse = 555.6\nsamples = 2\nvalue = 961.7"] ;
231 -> 232 ;
233 [label="mse = 0.0\nsamples = 1\nvalue = 995.0"] ;
232 -> 233 ;
234 [label="mse = 0.0\nsamples = 1\nvalue = 945.0"] ;
232 -> 234 ;
235 [label="mse = 0.0\nsamples = 1\nvalue = 920.0"] ;
231 -> 235 ;
236 [label="postdateint <= 0.3\nmse = 225.0\nsamples = 3\nvalue = 910.0"] ;
230 -> 236 ;
237 [label="mse = 0.0\nsamples = 1\nvalue = 895.0"] ;
236 -> 237 ;
238 [label="mse = 0.0\nsamples = 2\nvalue = 925.0"] ;
236 -> 238 ;
239 [label="pSixtyPlus <= -0.2\nmse = 2934.0\nsamples = 5\nvalue = 966.0"] ;
217 -> 239 ;
240 [label="mse = 0.0\nsamples = 1\nvalue = 1095.0"] ;
239 -> 240 ;
241 [label="postdateint <= 1.2\nmse = 1205.6\nsamples = 4\nvalue = 951.7"] ;
239 -> 241 ;
242 [label="sqft <= -1.2\nmse = 56.2\nsamples = 3\nvalue = 927.5"] ;
241 -> 242 ;
243 [label="mse = 0.0\nsamples = 1\nvalue = 935.0"] ;
242 -> 243 ;
244 [label="mse = 0.0\nsamples = 2\nvalue = 920.0"] ;
242 -> 244 ;
245 [label="mse = 0.0\nsamples = 1\nvalue = 1000.0"] ;
241 -> 245 ;
246 [label="mse = 0.0\nsamples = 1\nvalue = 875.0"] ;
216 -> 246 ;
247 [label="postdateint <= 1.1\nmse = 2130.1\nsamples = 11\nvalue = 963.6"] ;
215 -> 247 ;
248 [label="postdateint <= 0.3\nmse = 2374.4\nsamples = 8\nvalue = 982.8"] ;
247 -> 248 ;
249 [label="sqft <= -1.2\nmse = 1845.6\nsamples = 6\nvalue = 962.7"] ;
248 -> 249 ;
250 [label="postdateint <= -0.4\nmse = 671.8\nsamples = 5\nvalue = 948.2"] ;
249 -> 250 ;
251 [label="pk_4.0 <= 0.4\nmse = 129.7\nsamples = 3\nvalue = 961.2"] ;
250 -> 251 ;
252 [label="mse = 0.0\nsamples = 1\nvalue = 950.0"] ;
251 -> 252 ;
253 [label="postdateint <= -0.4\nmse = 6.2\nsamples = 2\nvalue = 972.5"] ;
251 -> 253 ;
254 [label="mse = 0.0\nsamples = 1\nvalue = 975.0"] ;
253 -> 254 ;
255 [label="mse = 0.0\nsamples = 1\nvalue = 970.0"] ;
253 -> 255 ;
256 [label="pThirties <= 0.6\nmse = 729.0\nsamples = 2\nvalue = 922.0"] ;
250 -> 256 ;
257 [label="mse = 0.0\nsamples = 1\nvalue = 949.0"] ;
256 -> 257 ;
258 [label="mse = 0.0\nsamples = 1\nvalue = 895.0"] ;
256 -> 258 ;
259 [label="mse = 0.0\nsamples = 1\nvalue = 1050.0"] ;
249 -> 259 ;
260 [label="postdateint <= 0.4\nmse = 470.2\nsamples = 2\nvalue = 1029.7"] ;
248 -> 260 ;
261 [label="mse = 0.0\nsamples = 1\nvalue = 1045.0"] ;
260 -> 261 ;
262 [label="mse = 0.0\nsamples = 1\nvalue = 999.0"] ;
260 -> 262 ;
263 [label="pk_4.0 <= 0.4\nmse = 88.9\nsamples = 3\nvalue = 931.7"] ;
247 -> 263 ;
264 [label="mse = 0.0\nsamples = 1\nvalue = 945.0"] ;
263 -> 264 ;
265 [label="mse = 0.0\nsamples = 2\nvalue = 925.0"] ;
263 -> 265 ;
266 [label="pYouths <= 0.4\nmse = 10658.0\nsamples = 2\nvalue = 853.0"] ;
214 -> 266 ;
267 [label="mse = 0.0\nsamples = 1\nvalue = 780.0"] ;
266 -> 267 ;
268 [label="mse = 0.0\nsamples = 1\nvalue = 999.0"] ;
266 -> 268 ;
269 [label="postdateint <= 0.4\nmse = 45603.5\nsamples = 9\nvalue = 1135.8"] ;
167 -> 269 ;
270 [label="pForties <= 0.0\nmse = 14804.3\nsamples = 7\nvalue = 1241.1"] ;
269 -> 270 ;
271 [label="postdateint <= -0.8\nmse = 1879.7\nsamples = 3\nvalue = 1361.2"] ;
270 -> 271 ;
272 [label="mse = 0.0\nsamples = 1\nvalue = 1400.0"] ;
271 -> 272 ;
273 [label="ty_2.0 <= 2.0\nmse = 756.2\nsamples = 2\nvalue = 1322.5"] ;
271 -> 273 ;
274 [label="mse = 0.0\nsamples = 1\nvalue = 1350.0"] ;
273 -> 274 ;
275 [label="mse = 0.0\nsamples = 1\nvalue = 1295.0"] ;
273 -> 275 ;
276 [label="postdateint <= -0.4\nmse = 4360.0\nsamples = 4\nvalue = 1145.0"] ;
270 -> 276 ;
277 [label="mse = 2756.2\nsamples = 2\nvalue = 1207.5"] ;
276 -> 277 ;
278 [label="mse = 1088.9\nsamples = 2\nvalue = 1103.3"] ;
276 -> 278 ;
279 [label="sqft <= -1.3\nmse = 5000.0\nsamples = 2\nvalue = 820.0"] ;
269 -> 279 ;
280 [label="mse = 0.0\nsamples = 1\nvalue = 920.0"] ;
279 -> 280 ;
281 [label="mse = 0.0\nsamples = 1\nvalue = 770.0"] ;
279 -> 281 ;
282 [label="pTwenties <= -1.4\nmse = 14048.0\nsamples = 324\nvalue = 1019.1"] ;
4 -> 282 ;
283 [label="postdateint <= -1.2\nmse = 12008.4\nsamples = 10\nvalue = 1189.9"] ;
282 -> 283 ;
284 [label="sqft <= -0.9\nmse = 6213.3\nsamples = 4\nvalue = 1105.3"] ;
283 -> 284 ;
285 [label="pSixtyPlus <= -0.3\nmse = 841.0\nsamples = 2\nvalue = 1221.0"] ;
284 -> 285 ;
286 [label="mse = 0.0\nsamples = 1\nvalue = 1192.0"] ;
285 -> 286 ;
287 [label="mse = 0.0\nsamples = 1\nvalue = 1250.0"] ;
285 -> 287 ;
288 [label="pYouths <= 1.0\nmse = 864.0\nsamples = 2\nvalue = 1059.0"] ;
284 -> 288 ;
289 [label="mse = 0.0\nsamples = 1\nvalue = 1095.0"] ;
288 -> 289 ;
290 [label="mse = 0.0\nsamples = 1\nvalue = 1035.0"] ;
288 -> 290 ;
291 [label="pk_4.0 <= 0.4\nmse = 5342.1\nsamples = 6\nvalue = 1263.9"] ;
283 -> 291 ;
292 [label="postdateint <= -0.5\nmse = 449.3\nsamples = 5\nvalue = 1237.3"] ;
291 -> 292 ;
293 [label="postdateint <= -0.9\nmse = 247.7\nsamples = 4\nvalue = 1231.0"] ;
292 -> 293 ;
294 [label="mse = 0.0\nsamples = 1\nvalue = 1222.0"] ;
293 -> 294 ;
295 [label="postdateint <= -0.6\nmse = 310.8\nsamples = 3\nvalue = 1235.5"] ;
293 -> 295 ;
296 [label="mse = 0.0\nsamples = 1\nvalue = 1247.0"] ;
295 -> 296 ;
297 [label="mse = 355.6\nsamples = 2\nvalue = 1231.7"] ;
295 -> 297 ;
298 [label="mse = 0.0\nsamples = 1\nvalue = 1275.0"] ;
292 -> 298 ;
299 [label="mse = 0.0\nsamples = 1\nvalue = 1450.0"] ;
291 -> 299 ;
300 [label="ty_4.0 <= 1.7\nmse = 13179.6\nsamples = 314\nvalue = 1013.8"] ;
282 -> 300 ;
301 [label="pSixtyPlus <= 3.2\nmse = 11396.4\nsamples = 307\nvalue = 1010.0"] ;
300 -> 301 ;
302 [label="pTwenties <= 0.6\nmse = 10749.3\nsamples = 304\nvalue = 1007.5"] ;
301 -> 302 ;
303 [label="pSixtyPlus <= 0.3\nmse = 8845.6\nsamples = 214\nvalue = 991.4"] ;
302 -> 303 ;
304 [label="pTwenties <= -0.6\nmse = 7726.7\nsamples = 111\nvalue = 971.5"] ;
303 -> 304 ;
305 [label="pFifties <= -0.8\nmse = 4866.4\nsamples = 45\nvalue = 940.4"] ;
304 -> 305 ;
306 [label="postdateint <= -0.6\nmse = 4.7\nsamples = 2\nvalue = 1046.2"] ;
305 -> 306 ;
307 [label="mse = 0.0\nsamples = 1\nvalue = 1045.0"] ;
306 -> 307 ;
308 [label="mse = 0.0\nsamples = 1\nvalue = 1050.0"] ;
306 -> 308 ;
309 [label="pTwenties <= -1.0\nmse = 4454.4\nsamples = 43\nvalue = 934.2"] ;
305 -> 309 ;
310 [label="sqft <= -1.0\nmse = 3412.5\nsamples = 17\nvalue = 902.7"] ;
309 -> 310 ;
311 [label="mse = 0.0\nsamples = 1\nvalue = 750.0"] ;
310 -> 311 ;
312 [label="sqft <= -0.9\nmse = 2502.8\nsamples = 16\nvalue = 909.3"] ;
310 -> 312 ;
313 [label="sqft <= -1.0\nmse = 1824.0\nsamples = 3\nvalue = 984.0"] ;
312 -> 313 ;
314 [label="mse = 0.0\nsamples = 1\nvalue = 950.0"] ;
313 -> 314 ;
315 [label="ld_4.0 <= 1.5\nmse = 225.0\nsamples = 2\nvalue = 1035.0"] ;
313 -> 315 ;
316 [label="mse = 0.0\nsamples = 1\nvalue = 1020.0"] ;
315 -> 316 ;
317 [label="mse = 0.0\nsamples = 1\nvalue = 1050.0"] ;
315 -> 317 ;
318 [label="medianIncome <= -0.6\nmse = 713.3\nsamples = 13\nvalue = 888.6"] ;
312 -> 318 ;
319 [label="mse = 0.0\nsamples = 1\nvalue = 815.0"] ;
318 -> 319 ;
320 [label="pThirties <= -0.5\nmse = 417.8\nsamples = 12\nvalue = 892.9"] ;
318 -> 320 ;
321 [label="mse = 0.0\nsamples = 1\nvalue = 945.0"] ;
320 -> 321 ;
322 [label="postdateint <= -0.5\nmse = 264.0\nsamples = 11\nvalue = 889.7"] ;
320 -> 322 ;
323 [label="pForties <= 1.2\nmse = 144.0\nsamples = 4\nvalue = 901.0"] ;
322 -> 323 ;
324 [label="mse = 0.0\nsamples = 3\nvalue = 895.0"] ;
323 -> 324 ;
325 [label="mse = 0.0\nsamples = 1\nvalue = 925.0"] ;
323 -> 325 ;
326 [label="postdateint <= -0.4\nmse = 233.9\nsamples = 7\nvalue = 884.5"] ;
322 -> 326 ;
327 [label="sqft <= -0.9\nmse = 196.0\nsamples = 3\nvalue = 872.0"] ;
326 -> 327 ;
328 [label="mse = 0.0\nsamples = 2\nvalue = 865.0"] ;
327 -> 328 ;
329 [label="mse = 0.0\nsamples = 1\nvalue = 900.0"] ;
327 -> 329 ;
330 [label="pk_3.0 <= 1.3\nmse = 25.0\nsamples = 4\nvalue = 895.0"] ;
326 -> 330 ;
331 [label="mse = 6.0\nsamples = 3\nvalue = 897.0"] ;
330 -> 331 ;
332 [label="mse = 0.0\nsamples = 1\nvalue = 885.0"] ;
330 -> 332 ;
333 [label="pYouths <= 1.7\nmse = 4188.8\nsamples = 26\nvalue = 951.3"] ;
309 -> 333 ;
334 [label="sqft <= -0.7\nmse = 2288.5\nsamples = 20\nvalue = 961.7"] ;
333 -> 334 ;
335 [label="ld_3.0 <= 0.3\nmse = 1815.0\nsamples = 18\nvalue = 953.0"] ;
334 -> 335 ;
336 [label="pk_5.0 <= 1.5\nmse = 1024.0\nsamples = 4\nvalue = 1011.0"] ;
335 -> 336 ;
337 [label="sqft <= -0.8\nmse = 422.2\nsamples = 3\nvalue = 988.3"] ;
336 -> 337 ;
338 [label="postdateint <= 0.4\nmse = 100.0\nsamples = 2\nvalue = 975.0"] ;
337 -> 338 ;
339 [label="mse = 0.0\nsamples = 1\nvalue = 985.0"] ;
338 -> 339 ;
340 [label="mse = 0.0\nsamples = 1\nvalue = 965.0"] ;
338 -> 340 ;
341 [label="mse = 0.0\nsamples = 1\nvalue = 1015.0"] ;
337 -> 341 ;
342 [label="mse = 0.0\nsamples = 1\nvalue = 1045.0"] ;
336 -> 342 ;
343 [label="postdateint <= 1.1\nmse = 1248.2\nsamples = 14\nvalue = 942.6"] ;
335 -> 343 ;
344 [label="pk_2.0 <= 0.0\nmse = 1663.3\nsamples = 10\nvalue = 931.2"] ;
343 -> 344 ;
345 [label="postdateint <= -1.3\nmse = 1319.6\nsamples = 9\nvalue = 939.3"] ;
344 -> 345 ;
346 [label="mse = 0.0\nsamples = 1\nvalue = 985.0"] ;
345 -> 346 ;
347 [label="pk_3.0 <= 1.3\nmse = 1152.4\nsamples = 8\nvalue = 932.3"] ;
345 -> 347 ;
348 [label="mse = 787.2\nsamples = 7\nvalue = 919.5"] ;
347 -> 348 ;
349 [label="mse = 0.0\nsamples = 1\nvalue = 975.0"] ;
347 -> 349 ;
350 [label="mse = 0.0\nsamples = 1\nvalue = 870.0"] ;
344 -> 350 ;
351 [label="pThirties <= 0.3\nmse = 89.5\nsamples = 4\nvalue = 960.4"] ;
343 -> 351 ;
352 [label="mse = 0.0\nsamples = 2\nvalue = 969.0"] ;
351 -> 352 ;
353 [label="mse = 0.0\nsamples = 2\nvalue = 950.0"] ;
351 -> 353 ;
354 [label="postdateint <= -0.9\nmse = 379.7\nsamples = 2\nvalue = 1033.8"] ;
334 -> 354 ;
355 [label="mse = 0.0\nsamples = 1\nvalue = 1000.0"] ;
354 -> 355 ;
356 [label="mse = 0.0\nsamples = 1\nvalue = 1045.0"] ;
354 -> 356 ;
357 [label="pk_2.0 <= 0.0\nmse = 10631.3\nsamples = 6\nvalue = 896.3"] ;
333 -> 357 ;
358 [label="ld_3.0 <= 0.3\nmse = 4013.9\nsamples = 5\nvalue = 861.7"] ;
357 -> 358 ;
359 [label="pk_4.0 <= 0.4\nmse = 334.0\nsamples = 4\nvalue = 889.0"] ;
358 -> 359 ;
360 [label="mse = 0.0\nsamples = 2\nvalue = 875.0"] ;
359 -> 360 ;
361 [label="pFifties <= -0.5\nmse = 100.0\nsamples = 2\nvalue = 910.0"] ;
359 -> 361 ;
362 [label="mse = 0.0\nsamples = 1\nvalue = 920.0"] ;
361 -> 362 ;
363 [label="mse = 0.0\nsamples = 1\nvalue = 900.0"] ;
361 -> 363 ;
364 [label="mse = 0.0\nsamples = 1\nvalue = 725.0"] ;
358 -> 364 ;
365 [label="mse = 0.0\nsamples = 1\nvalue = 1104.0"] ;
357 -> 365 ;
366 [label="pk_2.0 <= 0.0\nmse = 8554.1\nsamples = 66\nvalue = 991.8"] ;
304 -> 366 ;
367 [label="ty_2.0 <= 2.0\nmse = 7047.9\nsamples = 54\nvalue = 1011.5"] ;
366 -> 367 ;
368 [label="postdateint <= 1.9\nmse = 6028.5\nsamples = 52\nvalue = 1004.8"] ;
367 -> 368 ;
369 [label="postdateint <= 1.6\nmse = 4851.9\nsamples = 44\nvalue = 1016.4"] ;
368 -> 369 ;
370 [label="pSixtyPlus <= 0.1\nmse = 4436.0\nsamples = 41\nvalue = 1009.8"] ;
369 -> 370 ;
371 [label="sqft <= -0.7\nmse = 3917.3\nsamples = 40\nvalue = 1006.9"] ;
370 -> 371 ;
372 [label="postdateint <= 0.8\nmse = 3673.9\nsamples = 38\nvalue = 1010.9"] ;
371 -> 372 ;
373 [label="postdateint <= -0.4\nmse = 3416.9\nsamples = 33\nvalue = 1019.3"] ;
372 -> 373 ;
374 [label="ld_4.0 <= 1.5\nmse = 3072.9\nsamples = 20\nvalue = 1000.8"] ;
373 -> 374 ;
375 [label="mse = 2136.6\nsamples = 16\nvalue = 987.3"] ;
374 -> 375 ;
376 [label="mse = 1644.0\nsamples = 4\nvalue = 1076.0"] ;
374 -> 376 ;
377 [label="pForties <= 0.1\nmse = 2378.8\nsamples = 13\nvalue = 1051.5"] ;
373 -> 377 ;
378 [label="mse = 2374.7\nsamples = 10\nvalue = 1039.9"] ;
377 -> 378 ;
379 [label="mse = 0.0\nsamples = 3\nvalue = 1095.0"] ;
377 -> 379 ;
380 [label="pThirties <= -0.4\nmse = 2991.3\nsamples = 5\nvalue = 971.4"] ;
372 -> 380 ;
381 [label="pYouths <= 1.1\nmse = 5688.9\nsamples = 2\nvalue = 1031.7"] ;
380 -> 381 ;
382 [label="mse = 0.0\nsamples = 1\nvalue = 1085.0"] ;
381 -> 382 ;
383 [label="mse = 0.0\nsamples = 1\nvalue = 925.0"] ;
381 -> 383 ;
384 [label="pFifties <= -0.5\nmse = 104.7\nsamples = 3\nvalue = 948.8"] ;
380 -> 384 ;
385 [label="mse = 0.0\nsamples = 1\nvalue = 925.0"] ;
384 -> 385 ;
386 [label="mse = 27.6\nsamples = 2\nvalue = 952.1"] ;
384 -> 386 ;
387 [label="postdateint <= -0.4\nmse = 1422.2\nsamples = 2\nvalue = 921.7"] ;
371 -> 387 ;
388 [label="mse = 0.0\nsamples = 1\nvalue = 975.0"] ;
387 -> 388 ;
389 [label="mse = 0.0\nsamples = 1\nvalue = 895.0"] ;
387 -> 389 ;
390 [label="mse = 0.0\nsamples = 1\nvalue = 1205.0"] ;
370 -> 390 ;
391 [label="pYouths <= 0.6\nmse = 2174.0\nsamples = 3\nvalue = 1104.0"] ;
369 -> 391 ;
392 [label="mse = 1806.2\nsamples = 2\nvalue = 1117.5"] ;
391 -> 392 ;
393 [label="mse = 0.0\nsamples = 1\nvalue = 1050.0"] ;
391 -> 393 ;
394 [label="medianIncome <= -0.6\nmse = 6546.6\nsamples = 8\nvalue = 921.2"] ;
368 -> 394 ;
395 [label="sqft <= -1.0\nmse = 2209.0\nsamples = 2\nvalue = 1052.0"] ;
394 -> 395 ;
396 [label="mse = 0.0\nsamples = 1\nvalue = 1005.0"] ;
395 -> 396 ;
397 [label="mse = 0.0\nsamples = 1\nvalue = 1099.0"] ;
395 -> 397 ;
398 [label="pSixtyPlus <= -0.0\nmse = 2284.5\nsamples = 6\nvalue = 888.5"] ;
394 -> 398 ;
399 [label="postdateint <= 1.9\nmse = 2387.2\nsamples = 5\nvalue = 901.3"] ;
398 -> 399 ;
400 [label="sqft <= -0.8\nmse = 900.8\nsamples = 3\nvalue = 879.5"] ;
399 -> 400 ;
401 [label="pSixtyPlus <= -0.5\nmse = 22.2\nsamples = 2\nvalue = 896.7"] ;
400 -> 401 ;
402 [label="mse = 0.0\nsamples = 1\nvalue = 900.0"] ;
401 -> 402 ;
403 [label="mse = 0.0\nsamples = 1\nvalue = 890.0"] ;
401 -> 403 ;
404 [label="mse = 0.0\nsamples = 1\nvalue = 828.0"] ;
400 -> 404 ;
405 [label="pk_4.0 <= 0.4\nmse = 2500.0\nsamples = 2\nvalue = 945.0"] ;
399 -> 405 ;
406 [label="mse = 0.0\nsamples = 1\nvalue = 895.0"] ;
405 -> 406 ;
407 [label="mse = 0.0\nsamples = 1\nvalue = 995.0"] ;
405 -> 407 ;
408 [label="mse = 0.0\nsamples = 1\nvalue = 850.0"] ;
398 -> 408 ;
409 [label="mse = 0.0\nsamples = 2\nvalue = 1195.0"] ;
367 -> 409 ;
410 [label="pFifties <= 0.1\nmse = 7869.0\nsamples = 12\nvalue = 924.8"] ;
366 -> 410 ;
411 [label="postdateint <= -0.5\nmse = 4937.8\nsamples = 11\nvalue = 893.5"] ;
410 -> 411 ;
412 [label="pThirties <= 0.1\nmse = 1176.0\nsamples = 2\nvalue = 958.0"] ;
411 -> 412 ;
413 [label="mse = 0.0\nsamples = 1\nvalue = 1000.0"] ;
412 -> 413 ;
414 [label="mse = 0.0\nsamples = 1\nvalue = 930.0"] ;
412 -> 414 ;
415 [label="pTwenties <= 0.4\nmse = 4342.7\nsamples = 9\nvalue = 872.0"] ;
411 -> 415 ;
416 [label="sqft <= -0.8\nmse = 2783.3\nsamples = 8\nvalue = 895.0"] ;
415 -> 416 ;
417 [label="postdateint <= -0.1\nmse = 1287.5\nsamples = 4\nvalue = 960.0"] ;
416 -> 417 ;
418 [label="mse = 0.0\nsamples = 1\nvalue = 900.0"] ;
417 -> 418 ;
419 [label="postdateint <= 0.4\nmse = 116.7\nsamples = 3\nvalue = 980.0"] ;
417 -> 419 ;
420 [label="postdateint <= 0.3\nmse = 6.2\nsamples = 2\nvalue = 972.5"] ;
419 -> 420 ;
421 [label="mse = 0.0\nsamples = 1\nvalue = 975.0"] ;
420 -> 421 ;
422 [label="mse = 0.0\nsamples = 1\nvalue = 970.0"] ;
420 -> 422 ;
423 [label="mse = 0.0\nsamples = 1\nvalue = 995.0"] ;
419 -> 423 ;
424 [label="postdateint <= 0.3\nmse = 362.5\nsamples = 4\nvalue = 862.5"] ;
416 -> 424 ;
425 [label="mse = 0.0\nsamples = 2\nvalue = 850.0"] ;
424 -> 425 ;
426 [label="postdateint <= 0.8\nmse = 272.2\nsamples = 2\nvalue = 883.3"] ;
424 -> 426 ;
427 [label="mse = 0.0\nsamples = 1\nvalue = 895.0"] ;
426 -> 427 ;
428 [label="mse = 0.0\nsamples = 1\nvalue = 860.0"] ;
426 -> 428 ;
429 [label="mse = 0.0\nsamples = 1\nvalue = 780.0"] ;
415 -> 429 ;
430 [label="mse = 0.0\nsamples = 1\nvalue = 1050.0"] ;
410 -> 430 ;
431 [label="pk_4.0 <= 0.4\nmse = 9130.2\nsamples = 103\nvalue = 1016.1"] ;
303 -> 431 ;
432 [label="sqft <= -0.8\nmse = 7524.1\nsamples = 47\nvalue = 1069.8"] ;
431 -> 432 ;
433 [label="postdateint <= 1.6\nmse = 2328.1\nsamples = 26\nvalue = 1018.1"] ;
432 -> 433 ;
434 [label="sqft <= -0.8\nmse = 1028.8\nsamples = 19\nvalue = 1038.5"] ;
433 -> 434 ;
435 [label="pk_3.0 <= 1.3\nmse = 910.8\nsamples = 16\nvalue = 1044.6"] ;
434 -> 435 ;
436 [label="sqft <= -0.9\nmse = 883.2\nsamples = 9\nvalue = 1035.7"] ;
435 -> 436 ;
437 [label="pThirties <= -0.6\nmse = 688.4\nsamples = 8\nvalue = 1040.5"] ;
436 -> 437 ;
438 [label="mse = 0.0\nsamples = 1\nvalue = 1060.0"] ;
437 -> 438 ;
439 [label="pThirties <= -0.2\nmse = 737.7\nsamples = 7\nvalue = 1036.1"] ;
437 -> 439 ;
440 [label="postdateint <= 0.8\nmse = 64.0\nsamples = 4\nvalue = 1041.0"] ;
439 -> 440 ;
441 [label="mse = 0.0\nsamples = 3\nvalue = 1045.0"] ;
440 -> 441 ;
442 [label="mse = 0.0\nsamples = 1\nvalue = 1025.0"] ;
440 -> 442 ;
443 [label="pk_2.0 <= 0.0\nmse = 1512.5\nsamples = 3\nvalue = 1030.0"] ;
439 -> 443 ;
444 [label="mse = 0.0\nsamples = 1\nvalue = 1025.0"] ;
443 -> 444 ;
445 [label="mse = 2005.6\nsamples = 2\nvalue = 1031.7"] ;
443 -> 445 ;
446 [label="mse = 0.0\nsamples = 1\nvalue = 983.0"] ;
436 -> 446 ;
447 [label="postdateint <= -1.3\nmse = 649.6\nsamples = 7\nvalue = 1058.1"] ;
435 -> 447 ;
448 [label="mse = 0.0\nsamples = 1\nvalue = 1010.0"] ;
447 -> 448 ;
449 [label="postdateint <= -0.5\nmse = 364.3\nsamples = 6\nvalue = 1065.0"] ;
447 -> 449 ;
450 [label="pSixtyPlus <= 1.0\nmse = 288.9\nsamples = 3\nvalue = 1081.7"] ;
449 -> 450 ;
451 [label="mse = 400.0\nsamples = 2\nvalue = 1085.0"] ;
450 -> 451 ;
452 [label="mse = 0.0\nsamples = 1\nvalue = 1075.0"] ;
450 -> 452 ;
453 [label="pTwenties <= -0.6\nmse = 56.2\nsamples = 3\nvalue = 1052.5"] ;
449 -> 453 ;
454 [label="pThirties <= -0.5\nmse = 5.6\nsamples = 2\nvalue = 1048.3"] ;
453 -> 454 ;
455 [label="mse = 0.0\nsamples = 1\nvalue = 1050.0"] ;
454 -> 455 ;
456 [label="mse = 0.0\nsamples = 1\nvalue = 1045.0"] ;
454 -> 456 ;
457 [label="mse = 0.0\nsamples = 1\nvalue = 1065.0"] ;
453 -> 457 ;
458 [label="postdateint <= 0.4\nmse = 468.8\nsamples = 3\nvalue = 1007.5"] ;
434 -> 458 ;
459 [label="mse = 0.0\nsamples = 2\nvalue = 1020.0"] ;
458 -> 459 ;
460 [label="mse = 0.0\nsamples = 1\nvalue = 970.0"] ;
458 -> 460 ;
461 [label="sqft <= -1.0\nmse = 1748.8\nsamples = 7\nvalue = 963.9"] ;
433 -> 461 ;
462 [label="mse = 0.0\nsamples = 1\nvalue = 895.0"] ;
461 -> 462 ;
463 [label="postdateint <= 2.0\nmse = 1300.0\nsamples = 6\nvalue = 972.5"] ;
461 -> 463 ;
464 [label="postdateint <= 1.9\nmse = 627.6\nsamples = 5\nvalue = 982.9"] ;
463 -> 464 ;
465 [label="mse = 0.0\nsamples = 1\nvalue = 950.0"] ;
464 -> 465 ;
466 [label="postdateint <= 2.0\nmse = 274.0\nsamples = 4\nvalue = 996.0"] ;
464 -> 466 ;
467 [label="pYouths <= 0.4\nmse = 172.2\nsamples = 3\nvalue = 1006.7"] ;
466 -> 467 ;
468 [label="pSixtyPlus <= 0.9\nmse = 6.2\nsamples = 2\nvalue = 997.5"] ;
467 -> 468 ;
469 [label="mse = 0.0\nsamples = 1\nvalue = 1000.0"] ;
468 -> 469 ;
470 [label="mse = 0.0\nsamples = 1\nvalue = 995.0"] ;
468 -> 470 ;
471 [label="mse = 0.0\nsamples = 1\nvalue = 1025.0"] ;
467 -> 471 ;
472 [label="mse = 0.0\nsamples = 1\nvalue = 980.0"] ;
466 -> 472 ;
473 [label="mse = 0.0\nsamples = 1\nvalue = 900.0"] ;
463 -> 473 ;
474 [label="postdateint <= -1.3\nmse = 7288.0\nsamples = 21\nvalue = 1123.1"] ;
432 -> 474 ;
475 [label="pTwenties <= -0.9\nmse = 3942.2\nsamples = 2\nvalue = 1031.2"] ;
474 -> 475 ;
476 [label="mse = 0.0\nsamples = 1\nvalue = 1140.0"] ;
475 -> 476 ;
477 [label="mse = 0.0\nsamples = 1\nvalue = 995.0"] ;
475 -> 477 ;
478 [label="pForties <= -0.0\nmse = 6388.8\nsamples = 19\nvalue = 1136.2"] ;
474 -> 478 ;
479 [label="sqft <= -0.7\nmse = 3698.0\nsamples = 2\nvalue = 1022.0"] ;
478 -> 479 ;
480 [label="mse = 0.0\nsamples = 1\nvalue = 979.0"] ;
479 -> 480 ;
481 [label="mse = 0.0\nsamples = 1\nvalue = 1108.0"] ;
479 -> 481 ;
482 [label="postdateint <= 0.8\nmse = 4958.5\nsamples = 17\nvalue = 1149.9"] ;
478 -> 482 ;
483 [label="pThirties <= -0.6\nmse = 1685.6\nsamples = 12\nvalue = 1173.7"] ;
482 -> 483 ;
484 [label="pFifties <= 1.0\nmse = 1123.2\nsamples = 8\nvalue = 1155.6"] ;
483 -> 484 ;
485 [label="postdateint <= 0.4\nmse = 841.7\nsamples = 7\nvalue = 1160.8"] ;
484 -> 485 ;
486 [label="postdateint <= -0.0\nmse = 835.2\nsamples = 6\nvalue = 1168.5"] ;
485 -> 486 ;
487 [label="postdateint <= -0.9\nmse = 205.6\nsamples = 5\nvalue = 1160.0"] ;
486 -> 487 ;
488 [label="mse = 0.0\nsamples = 1\nvalue = 1180.0"] ;
487 -> 488 ;
489 [label="mse = 117.3\nsamples = 4\nvalue = 1154.3"] ;
487 -> 489 ;
490 [label="mse = 0.0\nsamples = 1\nvalue = 1245.0"] ;
486 -> 490 ;
491 [label="mse = 0.0\nsamples = 1\nvalue = 1135.0"] ;
485 -> 491 ;
492 [label="mse = 0.0\nsamples = 1\nvalue = 1089.0"] ;
484 -> 492 ;
493 [label="pYouths <= 0.2\nmse = 461.8\nsamples = 4\nvalue = 1215.8"] ;
483 -> 493 ;
494 [label="postdateint <= -0.2\nmse = 25.0\nsamples = 2\nvalue = 1245.0"] ;
493 -> 494 ;
495 [label="mse = 0.0\nsamples = 1\nvalue = 1240.0"] ;
494 -> 495 ;
496 [label="mse = 0.0\nsamples = 1\nvalue = 1250.0"] ;
494 -> 496 ;
497 [label="postdateint <= -1.3\nmse = 42.2\nsamples = 2\nvalue = 1201.2"] ;
493 -> 497 ;
498 [label="mse = 0.0\nsamples = 1\nvalue = 1190.0"] ;
497 -> 498 ;
499 [label="mse = 0.0\nsamples = 1\nvalue = 1205.0"] ;
497 -> 499 ;
500 [label="postdateint <= 1.6\nmse = 6740.2\nsamples = 5\nvalue = 1054.8"] ;
482 -> 500 ;
501 [label="pTwenties <= -0.6\nmse = 1089.0\nsamples = 2\nvalue = 962.0"] ;
500 -> 501 ;
502 [label="mse = 0.0\nsamples = 1\nvalue = 929.0"] ;
501 -> 502 ;
503 [label="mse = 0.0\nsamples = 1\nvalue = 995.0"] ;
501 -> 503 ;
504 [label="pTwenties <= -0.9\nmse = 938.9\nsamples = 3\nvalue = 1116.7"] ;
500 -> 504 ;
505 [label="mse = 0.0\nsamples = 2\nvalue = 1095.0"] ;
504 -> 505 ;
506 [label="mse = 0.0\nsamples = 1\nvalue = 1160.0"] ;
504 -> 506 ;
507 [label="pThirties <= -0.7\nmse = 6298.6\nsamples = 56\nvalue = 973.5"] ;
431 -> 507 ;
508 [label="pFifties <= 0.5\nmse = 3483.5\nsamples = 16\nvalue = 925.4"] ;
507 -> 508 ;
509 [label="mse = 0.0\nsamples = 1\nvalue = 795.0"] ;
508 -> 509 ;
510 [label="postdateint <= 1.9\nmse = 2571.9\nsamples = 15\nvalue = 933.6"] ;
508 -> 510 ;
511 [label="medianIncome <= -0.2\nmse = 2131.3\nsamples = 12\nvalue = 945.9"] ;
510 -> 511 ;
512 [label="postdateint <= -0.4\nmse = 555.6\nsamples = 2\nvalue = 891.7"] ;
511 -> 512 ;
513 [label="mse = 0.0\nsamples = 1\nvalue = 925.0"] ;
512 -> 513 ;
514 [label="mse = 0.0\nsamples = 1\nvalue = 875.0"] ;
512 -> 514 ;
515 [label="pTwenties <= -1.4\nmse = 1456.0\nsamples = 10\nvalue = 962.2"] ;
511 -> 515 ;
516 [label="mse = 0.0\nsamples = 1\nvalue = 895.0"] ;
515 -> 516 ;
517 [label="postdateint <= -0.5\nmse = 1060.2\nsamples = 9\nvalue = 969.7"] ;
515 -> 517 ;
518 [label="pTwenties <= -1.2\nmse = 1565.2\nsamples = 4\nvalue = 954.8"] ;
517 -> 518 ;
519 [label="sqft <= -0.8\nmse = 90.2\nsamples = 2\nvalue = 989.5"] ;
518 -> 519 ;
520 [label="mse = 0.0\nsamples = 1\nvalue = 999.0"] ;
519 -> 520 ;
521 [label="mse = 0.0\nsamples = 1\nvalue = 980.0"] ;
519 -> 521 ;
522 [label="pYouths <= 0.4\nmse = 625.0\nsamples = 2\nvalue = 920.0"] ;
518 -> 522 ;
523 [label="mse = 0.0\nsamples = 1\nvalue = 895.0"] ;
522 -> 523 ;
524 [label="mse = 0.0\nsamples = 1\nvalue = 945.0"] ;
522 -> 524 ;
525 [label="sqft <= -1.1\nmse = 335.8\nsamples = 5\nvalue = 981.6"] ;
517 -> 525 ;
526 [label="mse = 0.0\nsamples = 1\nvalue = 949.0"] ;
525 -> 526 ;
527 [label="sqft <= -0.7\nmse = 87.7\nsamples = 4\nvalue = 989.8"] ;
525 -> 527 ;
528 [label="ld_3.0 <= 0.3\nmse = 20.2\nsamples = 3\nvalue = 994.7"] ;
527 -> 528 ;
529 [label="mse = 0.0\nsamples = 1\nvalue = 989.0"] ;
528 -> 529 ;
530 [label="mse = 6.2\nsamples = 2\nvalue = 997.5"] ;
528 -> 530 ;
531 [label="mse = 0.0\nsamples = 1\nvalue = 975.0"] ;
527 -> 531 ;
532 [label="pYouths <= 0.3\nmse = 950.0\nsamples = 3\nvalue = 880.0"] ;
510 -> 532 ;
533 [label="pTwenties <= -1.0\nmse = 225.0\nsamples = 2\nvalue = 900.0"] ;
532 -> 533 ;
534 [label="mse = 0.0\nsamples = 1\nvalue = 915.0"] ;
533 -> 534 ;
535 [label="mse = 0.0\nsamples = 1\nvalue = 885.0"] ;
533 -> 535 ;
536 [label="mse = 0.0\nsamples = 1\nvalue = 840.0"] ;
532 -> 536 ;
537 [label="postdateint <= 2.0\nmse = 6273.4\nsamples = 40\nvalue = 986.0"] ;
507 -> 537 ;
538 [label="postdateint <= 0.9\nmse = 6094.8\nsamples = 37\nvalue = 993.3"] ;
537 -> 538 ;
539 [label="postdateint <= -1.3\nmse = 3272.2\nsamples = 31\nvalue = 982.2"] ;
538 -> 539 ;
540 [label="pSixtyPlus <= 1.0\nmse = 1189.6\nsamples = 5\nvalue = 940.8"] ;
539 -> 540 ;
541 [label="sqft <= -1.0\nmse = 188.7\nsamples = 4\nvalue = 951.4"] ;
540 -> 541 ;
542 [label="mse = 0.0\nsamples = 1\nvalue = 975.0"] ;
541 -> 542 ;
543 [label="postdateint <= -1.4\nmse = 38.8\nsamples = 3\nvalue = 944.7"] ;
541 -> 543 ;
544 [label="pTwenties <= -0.6\nmse = 3.6\nsamples = 2\nvalue = 937.7"] ;
543 -> 544 ;
545 [label="mse = 0.0\nsamples = 1\nvalue = 935.0"] ;
544 -> 545 ;
546 [label="mse = 0.0\nsamples = 1\nvalue = 939.0"] ;
544 -> 546 ;
547 [label="mse = 0.0\nsamples = 1\nvalue = 950.0"] ;
543 -> 547 ;
548 [label="mse = 0.0\nsamples = 1\nvalue = 845.0"] ;
540 -> 548 ;
549 [label="sqft <= -0.8\nmse = 3263.5\nsamples = 26\nvalue = 992.0"] ;
539 -> 549 ;
550 [label="postdateint <= 0.4\nmse = 1666.1\nsamples = 19\nvalue = 1003.6"] ;
549 -> 550 ;
551 [label="postdateint <= -0.5\nmse = 1365.0\nsamples = 17\nvalue = 1009.6"] ;
550 -> 551 ;
552 [label="postdateint <= -0.6\nmse = 479.2\nsamples = 10\nvalue = 992.1"] ;
551 -> 552 ;
553 [label="pYouths <= 0.2\nmse = 115.0\nsamples = 7\nvalue = 1006.4"] ;
552 -> 553 ;
554 [label="mse = 0.0\nsamples = 2\nvalue = 995.0"] ;
553 -> 554 ;
555 [label="mse = 84.8\nsamples = 5\nvalue = 1011.3"] ;
553 -> 555 ;
556 [label="pForties <= 0.2\nmse = 180.6\nsamples = 3\nvalue = 968.3"] ;
552 -> 556 ;
557 [label="mse = 18.8\nsamples = 2\nvalue = 977.5"] ;
556 -> 557 ;
558 [label="mse = 0.0\nsamples = 1\nvalue = 950.0"] ;
556 -> 558 ;
559 [label="sqft <= -1.0\nmse = 1599.1\nsamples = 7\nvalue = 1032.8"] ;
551 -> 559 ;
560 [label="pThirties <= -0.4\nmse = 1891.4\nsamples = 3\nvalue = 1062.8"] ;
559 -> 560 ;
561 [label="mse = 0.0\nsamples = 1\nvalue = 1149.0"] ;
560 -> 561 ;
562 [label="mse = 42.2\nsamples = 2\nvalue = 1041.2"] ;
560 -> 562 ;
563 [label="pSixtyPlus <= 0.8\nmse = 290.8\nsamples = 4\nvalue = 1011.4"] ;
559 -> 563 ;
564 [label="mse = 0.0\nsamples = 1\nvalue = 1045.0"] ;
563 -> 564 ;
565 [label="mse = 120.1\nsamples = 3\nvalue = 1005.8"] ;
563 -> 565 ;
566 [label="ld_4.0 <= 1.5\nmse = 1088.9\nsamples = 2\nvalue = 948.3"] ;
550 -> 566 ;
567 [label="mse = 0.0\nsamples = 1\nvalue = 925.0"] ;
566 -> 567 ;
568 [label="mse = 0.0\nsamples = 1\nvalue = 995.0"] ;
566 -> 568 ;
569 [label="postdateint <= -0.9\nmse = 6312.0\nsamples = 7\nvalue = 959.3"] ;
549 -> 569 ;
570 [label="postdateint <= -1.2\nmse = 826.9\nsamples = 2\nvalue = 1069.3"] ;
569 -> 570 ;
571 [label="mse = 0.0\nsamples = 1\nvalue = 1110.0"] ;
570 -> 571 ;
572 [label="mse = 0.0\nsamples = 1\nvalue = 1049.0"] ;
570 -> 572 ;
573 [label="pFifties <= 0.3\nmse = 2123.0\nsamples = 5\nvalue = 918.0"] ;
569 -> 573 ;
574 [label="postdateint <= -0.5\nmse = 277.8\nsamples = 4\nvalue = 883.8"] ;
573 -> 574 ;
575 [label="postdateint <= -0.5\nmse = 9.0\nsamples = 2\nvalue = 902.0"] ;
574 -> 575 ;
576 [label="mse = 0.0\nsamples = 1\nvalue = 899.0"] ;
575 -> 576 ;
577 [label="mse = 0.0\nsamples = 1\nvalue = 905.0"] ;
575 -> 577 ;
578 [label="postdateint <= -0.4\nmse = 88.9\nsamples = 2\nvalue = 871.7"] ;
574 -> 578 ;
579 [label="mse = 0.0\nsamples = 1\nvalue = 865.0"] ;
578 -> 579 ;
580 [label="mse = 0.0\nsamples = 1\nvalue = 885.0"] ;
578 -> 580 ;
581 [label="mse = 0.0\nsamples = 1\nvalue = 975.0"] ;
573 -> 581 ;
582 [label="postdateint <= 1.3\nmse = 18442.0\nsamples = 6\nvalue = 1065.4"] ;
538 -> 582 ;
583 [label="mse = 0.0\nsamples = 1\nvalue = 1255.0"] ;
582 -> 583 ;
584 [label="medianIncome <= -0.5\nmse = 8608.1\nsamples = 5\nvalue = 1002.2"] ;
582 -> 584 ;
585 [label="mse = 0.0\nsamples = 1\nvalue = 1200.0"] ;
584 -> 585 ;
586 [label="medianIncome <= 0.1\nmse = 936.6\nsamples = 4\nvalue = 962.6"] ;
584 -> 586 ;
587 [label="pYouths <= 0.6\nmse = 400.0\nsamples = 2\nvalue = 995.0"] ;
586 -> 587 ;
588 [label="mse = 0.0\nsamples = 1\nvalue = 975.0"] ;
587 -> 588 ;
589 [label="mse = 0.0\nsamples = 1\nvalue = 1015.0"] ;
587 -> 589 ;
590 [label="pForties <= 0.6\nmse = 128.0\nsamples = 2\nvalue = 941.0"] ;
586 -> 590 ;
591 [label="mse = 0.0\nsamples = 1\nvalue = 925.0"] ;
590 -> 591 ;
592 [label="mse = 0.0\nsamples = 1\nvalue = 949.0"] ;
590 -> 592 ;
593 [label="sqft <= -0.9\nmse = 214.0\nsamples = 3\nvalue = 899.0"] ;
537 -> 593 ;
594 [label="pYouths <= 0.2\nmse = 56.2\nsamples = 2\nvalue = 892.5"] ;
593 -> 594 ;
595 [label="mse = 0.0\nsamples = 1\nvalue = 900.0"] ;
594 -> 595 ;
596 [label="mse = 0.0\nsamples = 1\nvalue = 885.0"] ;
594 -> 596 ;
597 [label="mse = 0.0\nsamples = 1\nvalue = 925.0"] ;
593 -> 597 ;
598 [label="pk_3.0 <= 1.3\nmse = 13162.2\nsamples = 90\nvalue = 1044.9"] ;
302 -> 598 ;
599 [label="pk_2.0 <= 0.0\nmse = 12083.2\nsamples = 89\nvalue = 1042.0"] ;
598 -> 599 ;
600 [label="ty_2.0 <= 2.0\nmse = 10689.5\nsamples = 78\nvalue = 1029.6"] ;
599 -> 600 ;
601 [label="sqft <= -0.9\nmse = 10239.8\nsamples = 67\nvalue = 1018.9"] ;
600 -> 601 ;
602 [label="sqft <= -1.0\nmse = 10760.0\nsamples = 31\nvalue = 1055.2"] ;
601 -> 602 ;
603 [label="sqft <= -1.1\nmse = 9295.9\nsamples = 24\nvalue = 1026.9"] ;
602 -> 603 ;
604 [label="mse = 0.0\nsamples = 1\nvalue = 1175.0"] ;
603 -> 604 ;
605 [label="pSixtyPlus <= -1.4\nmse = 7866.0\nsamples = 23\nvalue = 1012.5"] ;
603 -> 605 ;
606 [label="sqft <= -1.0\nmse = 6400.0\nsamples = 2\nvalue = 1085.0"] ;
605 -> 606 ;
607 [label="mse = 0.0\nsamples = 1\nvalue = 925.0"] ;
606 -> 607 ;
608 [label="mse = 0.0\nsamples = 1\nvalue = 1125.0"] ;
606 -> 608 ;
609 [label="sqft <= -1.0\nmse = 6943.2\nsamples = 21\nvalue = 998.6"] ;
605 -> 609 ;
610 [label="postdateint <= -0.5\nmse = 8130.4\nsamples = 14\nvalue = 976.3"] ;
609 -> 610 ;
611 [label="postdateint <= -0.5\nmse = 13684.5\nsamples = 4\nvalue = 1013.3"] ;
610 -> 611 ;
612 [label="pk_5.0 <= 1.5\nmse = 533.6\nsamples = 3\nvalue = 966.3"] ;
611 -> 612 ;
613 [label="mse = 600.2\nsamples = 2\nvalue = 974.5"] ;
612 -> 613 ;
614 [label="mse = 0.0\nsamples = 1\nvalue = 950.0"] ;
612 -> 614 ;
615 [label="mse = 0.0\nsamples = 1\nvalue = 1295.0"] ;
611 -> 615 ;
616 [label="pk_4.0 <= 0.4\nmse = 3169.8\nsamples = 10\nvalue = 952.7"] ;
610 -> 616 ;
617 [label="sqft <= -1.1\nmse = 1968.4\nsamples = 8\nvalue = 976.9"] ;
616 -> 617 ;
618 [label="mse = 454.7\nsamples = 4\nvalue = 958.8"] ;
617 -> 618 ;
619 [label="mse = 2825.0\nsamples = 4\nvalue = 995.0"] ;
617 -> 619 ;
620 [label="sqft <= -1.0\nmse = 672.2\nsamples = 2\nvalue = 888.3"] ;
616 -> 620 ;
621 [label="mse = 0.0\nsamples = 1\nvalue = 925.0"] ;
620 -> 621 ;
622 [label="mse = 0.0\nsamples = 1\nvalue = 870.0"] ;
620 -> 622 ;
623 [label="postdateint <= -0.1\nmse = 635.9\nsamples = 7\nvalue = 1048.8"] ;
609 -> 623 ;
624 [label="postdateint <= -0.5\nmse = 408.3\nsamples = 5\nvalue = 1040.0"] ;
623 -> 624 ;
625 [label="postdateint <= -0.9\nmse = 5.6\nsamples = 2\nvalue = 1048.3"] ;
624 -> 625 ;
626 [label="mse = 0.0\nsamples = 1\nvalue = 1045.0"] ;
625 -> 626 ;
627 [label="mse = 0.0\nsamples = 1\nvalue = 1050.0"] ;
625 -> 627 ;
628 [label="postdateint <= -0.5\nmse = 672.2\nsamples = 3\nvalue = 1031.7"] ;
624 -> 628 ;
629 [label="mse = 756.2\nsamples = 2\nvalue = 1022.5"] ;
628 -> 629 ;
630 [label="mse = 0.0\nsamples = 1\nvalue = 1050.0"] ;
628 -> 630 ;
631 [label="postdateint <= 0.4\nmse = 400.0\nsamples = 2\nvalue = 1075.0"] ;
623 -> 631 ;
632 [label="mse = 0.0\nsamples = 1\nvalue = 1095.0"] ;
631 -> 632 ;
633 [label="mse = 0.0\nsamples = 1\nvalue = 1055.0"] ;
631 -> 633 ;
634 [label="sqft <= -1.0\nmse = 7620.8\nsamples = 7\nvalue = 1124.1"] ;
602 -> 634 ;
635 [label="mse = 0.0\nsamples = 1\nvalue = 1250.0"] ;
634 -> 635 ;
636 [label="ld_3.0 <= 0.3\nmse = 4194.7\nsamples = 6\nvalue = 1089.7"] ;
634 -> 636 ;
637 [label="mse = 0.0\nsamples = 1\nvalue = 900.0"] ;
636 -> 637 ;
638 [label="postdateint <= 0.4\nmse = 654.6\nsamples = 5\nvalue = 1108.7"] ;
636 -> 638 ;
639 [label="postdateint <= 0.0\nmse = 118.8\nsamples = 3\nvalue = 1137.5"] ;
638 -> 639 ;
640 [label="pFifties <= -0.7\nmse = 22.2\nsamples = 2\nvalue = 1143.3"] ;
639 -> 640 ;
641 [label="mse = 0.0\nsamples = 1\nvalue = 1140.0"] ;
640 -> 641 ;
642 [label="mse = 0.0\nsamples = 1\nvalue = 1150.0"] ;
640 -> 642 ;
643 [label="mse = 0.0\nsamples = 1\nvalue = 1120.0"] ;
639 -> 643 ;
644 [label="postdateint <= 1.2\nmse = 90.2\nsamples = 2\nvalue = 1089.5"] ;
638 -> 644 ;
645 [label="mse = 0.0\nsamples = 1\nvalue = 1099.0"] ;
644 -> 645 ;
646 [label="mse = 0.0\nsamples = 1\nvalue = 1080.0"] ;
644 -> 646 ;
647 [label="postdateint <= -0.4\nmse = 8122.2\nsamples = 36\nvalue = 991.7"] ;
601 -> 647 ;
648 [label="sqft <= -0.9\nmse = 1349.4\nsamples = 6\nvalue = 1056.8"] ;
647 -> 648 ;
649 [label="postdateint <= -0.8\nmse = 1094.5\nsamples = 4\nvalue = 1077.4"] ;
648 -> 649 ;
650 [label="postdateint <= -1.3\nmse = 650.2\nsamples = 2\nvalue = 1024.5"] ;
649 -> 650 ;
651 [label="mse = 0.0\nsamples = 1\nvalue = 999.0"] ;
650 -> 651 ;
652 [label="mse = 0.0\nsamples = 1\nvalue = 1050.0"] ;
650 -> 652 ;
653 [label="mse = 0.0\nsamples = 2\nvalue = 1095.0"] ;
649 -> 653 ;
654 [label="sqft <= -0.8\nmse = 4.0\nsamples = 2\nvalue = 1024.0"] ;
648 -> 654 ;
655 [label="mse = 0.0\nsamples = 1\nvalue = 1025.0"] ;
654 -> 655 ;
656 [label="mse = 0.0\nsamples = 1\nvalue = 1020.0"] ;
654 -> 656 ;
657 [label="postdateint <= -0.4\nmse = 8491.8\nsamples = 30\nvalue = 975.1"] ;
647 -> 657 ;
658 [label="sqft <= -0.9\nmse = 136.0\nsamples = 3\nvalue = 847.0"] ;
657 -> 658 ;
659 [label="pForties <= -0.4\nmse = 117.2\nsamples = 2\nvalue = 843.8"] ;
658 -> 659 ;
660 [label="mse = 0.0\nsamples = 1\nvalue = 825.0"] ;
659 -> 660 ;
661 [label="mse = 0.0\nsamples = 1\nvalue = 850.0"] ;
659 -> 661 ;
662 [label="mse = 0.0\nsamples = 1\nvalue = 860.0"] ;
658 -> 662 ;
663 [label="postdateint <= -0.1\nmse = 7422.0\nsamples = 27\nvalue = 989.0"] ;
657 -> 663 ;
664 [label="mse = 0.0\nsamples = 1\nvalue = 1265.0"] ;
663 -> 664 ;
665 [label="postdateint <= 0.3\nmse = 5857.1\nsamples = 26\nvalue = 982.9"] ;
663 -> 665 ;
666 [label="sqft <= -0.9\nmse = 183.7\nsamples = 2\nvalue = 891.4"] ;
665 -> 666 ;
667 [label="mse = 0.0\nsamples = 1\nvalue = 900.0"] ;
666 -> 667 ;
668 [label="mse = 0.0\nsamples = 1\nvalue = 870.0"] ;
666 -> 668 ;
669 [label="postdateint <= 0.3\nmse = 5076.5\nsamples = 24\nvalue = 999.8"] ;
665 -> 669 ;
670 [label="ld_3.0 <= 0.3\nmse = 3728.1\nsamples = 9\nvalue = 1044.6"] ;
669 -> 670 ;
671 [label="medianIncome <= -0.9\nmse = 184.0\nsamples = 4\nvalue = 1006.0"] ;
670 -> 671 ;
672 [label="mse = 6.2\nsamples = 2\nvalue = 1022.5"] ;
671 -> 672 ;
673 [label="mse = 0.0\nsamples = 2\nvalue = 995.0"] ;
671 -> 673 ;
674 [label="pFifties <= -0.7\nmse = 4411.3\nsamples = 5\nvalue = 1066.0"] ;
670 -> 674 ;
675 [label="mse = 4393.0\nsamples = 4\nvalue = 1049.1"] ;
674 -> 675 ;
676 [label="mse = 0.0\nsamples = 1\nvalue = 1125.0"] ;
674 -> 676 ;
677 [label="pThirties <= -1.1\nmse = 4008.7\nsamples = 15\nvalue = 973.6"] ;
669 -> 677 ;
678 [label="mse = 0.0\nsamples = 1\nvalue = 825.0"] ;
677 -> 678 ;
679 [label="postdateint <= 1.1\nmse = 3180.8\nsamples = 14\nvalue = 980.1"] ;
677 -> 679 ;
680 [label="mse = 1558.2\nsamples = 5\nvalue = 1005.3"] ;
679 -> 680 ;
681 [label="mse = 3491.3\nsamples = 9\nvalue = 969.1"] ;
679 -> 681 ;
682 [label="pForties <= -0.4\nmse = 5200.6\nsamples = 11\nvalue = 1121.2"] ;
600 -> 682 ;
683 [label="sqft <= -0.8\nmse = 297.2\nsamples = 4\nvalue = 1181.7"] ;
682 -> 683 ;
684 [label="postdateint <= -0.1\nmse = 5.6\nsamples = 2\nvalue = 1196.7"] ;
683 -> 684 ;
685 [label="mse = 0.0\nsamples = 1\nvalue = 1195.0"] ;
684 -> 685 ;
686 [label="mse = 0.0\nsamples = 1\nvalue = 1200.0"] ;
684 -> 686 ;
687 [label="postdateint <= 0.3\nmse = 138.9\nsamples = 2\nvalue = 1166.7"] ;
683 -> 687 ;
688 [label="mse = 0.0\nsamples = 1\nvalue = 1150.0"] ;
687 -> 688 ;
689 [label="mse = 0.0\nsamples = 1\nvalue = 1175.0"] ;
687 -> 689 ;
690 [label="pk_7.0 <= 7.2\nmse = 3574.5\nsamples = 7\nvalue = 1069.3"] ;
682 -> 690 ;
691 [label="postdateint <= 0.4\nmse = 1997.2\nsamples = 6\nvalue = 1051.7"] ;
690 -> 691 ;
692 [label="postdateint <= -0.1\nmse = 1875.0\nsamples = 4\nvalue = 1070.0"] ;
691 -> 692 ;
693 [label="mse = 2500.0\nsamples = 2\nvalue = 1045.0"] ;
692 -> 693 ;
694 [label="mse = 0.0\nsamples = 2\nvalue = 1095.0"] ;
692 -> 694 ;
695 [label="pForties <= 0.3\nmse = 225.0\nsamples = 2\nvalue = 1015.0"] ;
691 -> 695 ;
696 [label="mse = 0.0\nsamples = 1\nvalue = 1030.0"] ;
695 -> 696 ;
697 [label="mse = 0.0\nsamples = 1\nvalue = 1000.0"] ;
695 -> 697 ;
698 [label="mse = 0.0\nsamples = 1\nvalue = 1175.0"] ;
690 -> 698 ;
699 [label="ty_1.0 <= -0.8\nmse = 12341.3\nsamples = 11\nvalue = 1139.1"] ;
599 -> 699 ;
700 [label="pForties <= 0.1\nmse = 15848.4\nsamples = 5\nvalue = 1073.8"] ;
699 -> 700 ;
701 [label="postdateint <= -0.1\nmse = 5653.1\nsamples = 4\nvalue = 1034.3"] ;
700 -> 701 ;
702 [label="sqft <= -0.9\nmse = 600.0\nsamples = 3\nvalue = 1080.0"] ;
701 -> 702 ;
703 [label="mse = 0.0\nsamples = 2\nvalue = 1100.0"] ;
702 -> 703 ;
704 [label="mse = 0.0\nsamples = 1\nvalue = 1050.0"] ;
702 -> 704 ;
705 [label="mse = 0.0\nsamples = 1\nvalue = 920.0"] ;
701 -> 705 ;
706 [label="mse = 0.0\nsamples = 1\nvalue = 1350.0"] ;
700 -> 706 ;
707 [label="sqft <= -0.8\nmse = 302.7\nsamples = 6\nvalue = 1204.4"] ;
699 -> 707 ;
708 [label="postdateint <= 0.0\nmse = 6.2\nsamples = 4\nvalue = 1197.5"] ;
707 -> 708 ;
709 [label="mse = 0.0\nsamples = 2\nvalue = 1200.0"] ;
708 -> 709 ;
710 [label="mse = 0.0\nsamples = 2\nvalue = 1195.0"] ;
708 -> 710 ;
711 [label="postdateint <= -0.4\nmse = 625.0\nsamples = 2\nvalue = 1225.0"] ;
707 -> 711 ;
712 [label="mse = 0.0\nsamples = 1\nvalue = 1250.0"] ;
711 -> 712 ;
713 [label="mse = 0.0\nsamples = 1\nvalue = 1200.0"] ;
711 -> 713 ;
714 [label="mse = 0.0\nsamples = 1\nvalue = 1450.0"] ;
598 -> 714 ;
715 [label="sqft <= -0.8\nmse = 567.2\nsamples = 3\nvalue = 1303.8"] ;
301 -> 715 ;
716 [label="mse = 0.0\nsamples = 2\nvalue = 1290.0"] ;
715 -> 716 ;
717 [label="mse = 0.0\nsamples = 1\nvalue = 1345.0"] ;
715 -> 717 ;
718 [label="sqft <= -0.8\nmse = 65824.7\nsamples = 7\nvalue = 1215.6"] ;
300 -> 718 ;
719 [label="mse = 0.0\nsamples = 2\nvalue = 1550.0"] ;
718 -> 719 ;
720 [label="pTwenties <= -0.9\nmse = 14847.2\nsamples = 5\nvalue = 1048.3"] ;
718 -> 720 ;
721 [label="ld_3.0 <= 0.3\nmse = 625.0\nsamples = 3\nvalue = 975.0"] ;
720 -> 721 ;
722 [label="mse = 0.0\nsamples = 2\nvalue = 1000.0"] ;
721 -> 722 ;
723 [label="mse = 0.0\nsamples = 1\nvalue = 950.0"] ;
721 -> 723 ;
724 [label="postdateint <= 1.6\nmse = 11025.0\nsamples = 2\nvalue = 1195.0"] ;
720 -> 724 ;
725 [label="mse = 0.0\nsamples = 1\nvalue = 1300.0"] ;
724 -> 725 ;
726 [label="mse = 0.0\nsamples = 1\nvalue = 1090.0"] ;
724 -> 726 ;
727 [label="sqft <= 0.2\nmse = 32288.9\nsamples = 276\nvalue = 1125.2"] ;
3 -> 727 ;
728 [label="pYouths <= -0.2\nmse = 26580.6\nsamples = 264\nvalue = 1109.9"] ;
727 -> 728 ;
729 [label="pk_2.0 <= 0.0\nmse = 28607.7\nsamples = 20\nvalue = 1308.5"] ;
728 -> 729 ;
730 [label="sqft <= -0.1\nmse = 22937.2\nsamples = 8\nvalue = 1185.5"] ;
729 -> 730 ;
731 [label="pTwenties <= -0.8\nmse = 13659.9\nsamples = 7\nvalue = 1151.1"] ;
730 -> 731 ;
732 [label="mse = 0.0\nsamples = 2\nvalue = 1285.0"] ;
731 -> 732 ;
733 [label="pk_3.0 <= 1.3\nmse = 7045.1\nsamples = 5\nvalue = 1084.2"] ;
731 -> 733 ;
734 [label="pFifties <= -0.2\nmse = 1854.0\nsamples = 4\nvalue = 1051.0"] ;
733 -> 734 ;
735 [label="mse = 0.0\nsamples = 1\nvalue = 980.0"] ;
734 -> 735 ;
736 [label="postdateint <= 0.3\nmse = 742.2\nsamples = 3\nvalue = 1068.8"] ;
734 -> 736 ;
737 [label="mse = 0.0\nsamples = 1\nvalue = 1025.0"] ;
736 -> 737 ;
738 [label="ld_4.0 <= 1.5\nmse = 138.9\nsamples = 2\nvalue = 1083.3"] ;
736 -> 738 ;
739 [label="mse = 0.0\nsamples = 1\nvalue = 1100.0"] ;
738 -> 739 ;
740 [label="mse = 0.0\nsamples = 1\nvalue = 1075.0"] ;
738 -> 740 ;
741 [label="mse = 0.0\nsamples = 1\nvalue = 1250.0"] ;
733 -> 741 ;
742 [label="mse = 0.0\nsamples = 1\nvalue = 1495.0"] ;
730 -> 742 ;
743 [label="postdateint <= -0.9\nmse = 17813.2\nsamples = 12\nvalue = 1380.8"] ;
729 -> 743 ;
744 [label="ld_3.0 <= 0.3\nmse = 4835.8\nsamples = 5\nvalue = 1228.8"] ;
743 -> 744 ;
745 [label="mse = 0.0\nsamples = 1\nvalue = 1095.0"] ;
744 -> 745 ;
746 [label="ty_1.0 <= -0.8\nmse = 450.2\nsamples = 4\nvalue = 1262.2"] ;
744 -> 746 ;
747 [label="mse = 0.0\nsamples = 1\nvalue = 1299.0"] ;
746 -> 747 ;
748 [label="mse = 0.0\nsamples = 3\nvalue = 1250.0"] ;
746 -> 748 ;
749 [label="sqft <= -0.5\nmse = 9578.5\nsamples = 7\nvalue = 1444.2"] ;
743 -> 749 ;
750 [label="sqft <= -0.6\nmse = 1475.0\nsamples = 3\nvalue = 1335.0"] ;
749 -> 750 ;
751 [label="postdateint <= 0.0\nmse = 88.9\nsamples = 2\nvalue = 1313.3"] ;
750 -> 751 ;
752 [label="mse = 0.0\nsamples = 1\nvalue = 1320.0"] ;
751 -> 752 ;
753 [label="mse = 0.0\nsamples = 1\nvalue = 1300.0"] ;
751 -> 753 ;
754 [label="mse = 0.0\nsamples = 1\nvalue = 1400.0"] ;
750 -> 754 ;
755 [label="pThirties <= 1.2\nmse = 4692.2\nsamples = 4\nvalue = 1498.8"] ;
749 -> 755 ;
756 [label="postdateint <= -0.5\nmse = 1176.0\nsamples = 2\nvalue = 1453.0"] ;
755 -> 756 ;
757 [label="mse = 0.0\nsamples = 1\nvalue = 1495.0"] ;
756 -> 757 ;
758 [label="mse = 0.0\nsamples = 1\nvalue = 1425.0"] ;
756 -> 758 ;
759 [label="postdateint <= 0.4\nmse = 1250.0\nsamples = 2\nvalue = 1575.0"] ;
755 -> 759 ;
760 [label="mse = 0.0\nsamples = 1\nvalue = 1550.0"] ;
759 -> 760 ;
761 [label="mse = 0.0\nsamples = 1\nvalue = 1625.0"] ;
759 -> 761 ;
762 [label="pTwenties <= -1.4\nmse = 23391.0\nsamples = 244\nvalue = 1095.6"] ;
728 -> 762 ;
763 [label="sqft <= -0.5\nmse = 49770.2\nsamples = 10\nvalue = 1294.2"] ;
762 -> 763 ;
764 [label="postdateint <= -1.2\nmse = 53026.8\nsamples = 4\nvalue = 1418.5"] ;
763 -> 764 ;
765 [label="postdateint <= -1.3\nmse = 75625.0\nsamples = 2\nvalue = 1525.0"] ;
764 -> 765 ;
766 [label="mse = 0.0\nsamples = 1\nvalue = 1250.0"] ;
765 -> 766 ;
767 [label="mse = 0.0\nsamples = 1\nvalue = 1800.0"] ;
765 -> 767 ;
768 [label="sqft <= -0.6\nmse = 7744.0\nsamples = 2\nvalue = 1312.0"] ;
764 -> 768 ;
769 [label="mse = 0.0\nsamples = 1\nvalue = 1400.0"] ;
768 -> 769 ;
770 [label="mse = 0.0\nsamples = 1\nvalue = 1224.0"] ;
768 -> 770 ;
771 [label="pTwenties <= -1.7\nmse = 15637.5\nsamples = 6\nvalue = 1170.0"] ;
763 -> 771 ;
772 [label="mse = 0.0\nsamples = 1\nvalue = 1340.0"] ;
771 -> 772 ;
773 [label="postdateint <= -1.3\nmse = 8005.6\nsamples = 5\nvalue = 1113.3"] ;
771 -> 773 ;
774 [label="mse = 0.0\nsamples = 1\nvalue = 1275.0"] ;
773 -> 774 ;
775 [label="medianIncome <= 2.2\nmse = 3334.0\nsamples = 4\nvalue = 1081.0"] ;
773 -> 775 ;
776 [label="pForties <= 1.4\nmse = 756.2\nsamples = 2\nvalue = 1022.5"] ;
775 -> 776 ;
777 [label="mse = 0.0\nsamples = 1\nvalue = 995.0"] ;
776 -> 777 ;
778 [label="mse = 0.0\nsamples = 1\nvalue = 1050.0"] ;
776 -> 778 ;
779 [label="pThirties <= -1.3\nmse = 1250.0\nsamples = 2\nvalue = 1120.0"] ;
775 -> 779 ;
780 [label="mse = 0.0\nsamples = 1\nvalue = 1095.0"] ;
779 -> 780 ;
781 [label="mse = 0.0\nsamples = 1\nvalue = 1170.0"] ;
779 -> 781 ;
782 [label="pYouths <= 1.0\nmse = 20378.2\nsamples = 234\nvalue = 1086.7"] ;
762 -> 782 ;
783 [label="sqft <= -0.1\nmse = 19996.7\nsamples = 201\nvalue = 1101.2"] ;
782 -> 783 ;
784 [label="postdateint <= 2.0\nmse = 17671.4\nsamples = 181\nvalue = 1091.3"] ;
783 -> 784 ;
785 [label="ld_5.0 <= 5.8\nmse = 17176.0\nsamples = 176\nvalue = 1095.5"] ;
784 -> 785 ;
786 [label="pForties <= -0.8\nmse = 16799.1\nsamples = 174\nvalue = 1097.4"] ;
785 -> 786 ;
787 [label="pk_4.0 <= 0.4\nmse = 16868.3\nsamples = 10\nvalue = 1175.4"] ;
786 -> 787 ;
788 [label="pSixtyPlus <= -0.6\nmse = 2126.0\nsamples = 3\nvalue = 987.0"] ;
787 -> 788 ;
789 [label="mse = 0.0\nsamples = 1\nvalue = 940.0"] ;
788 -> 789 ;
790 [label="mse = 1088.9\nsamples = 2\nvalue = 1018.3"] ;
788 -> 790 ;
791 [label="postdateint <= -0.5\nmse = 5998.7\nsamples = 7\nvalue = 1238.3"] ;
787 -> 791 ;
792 [label="postdateint <= -1.2\nmse = 1064.6\nsamples = 5\nvalue = 1202.5"] ;
791 -> 792 ;
793 [label="ld_3.0 <= 0.3\nmse = 522.8\nsamples = 3\nvalue = 1217.2"] ;
792 -> 793 ;
794 [label="mse = 0.0\nsamples = 1\nvalue = 1185.0"] ;
793 -> 794 ;
795 [label="postdateint <= -1.3\nmse = 5.6\nsamples = 2\nvalue = 1233.3"] ;
793 -> 795 ;
796 [label="mse = 0.0\nsamples = 1\nvalue = 1230.0"] ;
795 -> 796 ;
797 [label="mse = 0.0\nsamples = 1\nvalue = 1235.0"] ;
795 -> 797 ;
798 [label="ld_4.0 <= 1.5\nmse = 88.9\nsamples = 2\nvalue = 1158.3"] ;
792 -> 798 ;
799 [label="mse = 0.0\nsamples = 1\nvalue = 1165.0"] ;
798 -> 799 ;
800 [label="mse = 0.0\nsamples = 1\nvalue = 1145.0"] ;
798 -> 800 ;
801 [label="sqft <= -0.4\nmse = 150.2\nsamples = 2\nvalue = 1381.3"] ;
791 -> 801 ;
802 [label="mse = 0.0\nsamples = 1\nvalue = 1364.0"] ;
801 -> 802 ;
803 [label="mse = 0.0\nsamples = 1\nvalue = 1390.0"] ;
801 -> 803 ;
804 [label="sqft <= -0.5\nmse = 16271.2\nsamples = 164\nvalue = 1091.2"] ;
786 -> 804 ;
805 [label="sqft <= -0.6\nmse = 17905.8\nsamples = 104\nvalue = 1108.3"] ;
804 -> 805 ;
806 [label="medianIncome <= 0.4\nmse = 9047.9\nsamples = 17\nvalue = 1045.5"] ;
805 -> 806 ;
807 [label="pTwenties <= -0.8\nmse = 5901.1\nsamples = 12\nvalue = 1016.5"] ;
806 -> 807 ;
808 [label="medianIncome <= -0.1\nmse = 4738.1\nsamples = 4\nvalue = 1072.2"] ;
807 -> 808 ;
809 [label="mse = 0.0\nsamples = 1\nvalue = 1205.0"] ;
808 -> 809 ;
810 [label="pFifties <= 0.9\nmse = 1451.0\nsamples = 3\nvalue = 1045.6"] ;
808 -> 810 ;
811 [label="medianIncome <= 0.1\nmse = 5.6\nsamples = 2\nvalue = 1076.7"] ;
810 -> 811 ;
812 [label="mse = 0.0\nsamples = 1\nvalue = 1075.0"] ;
811 -> 812 ;
813 [label="mse = 0.0\nsamples = 1\nvalue = 1080.0"] ;
811 -> 813 ;
814 [label="mse = 0.0\nsamples = 1\nvalue = 999.0"] ;
810 -> 814 ;
815 [label="postdateint <= 0.3\nmse = 4345.6\nsamples = 8\nvalue = 990.8"] ;
807 -> 815 ;
816 [label="pSixtyPlus <= -1.0\nmse = 2770.2\nsamples = 5\nvalue = 966.5"] ;
815 -> 816 ;
817 [label="mse = 0.0\nsamples = 1\nvalue = 825.0"] ;
816 -> 817 ;
818 [label="medianIncome <= -0.2\nmse = 606.2\nsamples = 4\nvalue = 982.2"] ;
816 -> 818 ;
819 [label="pk_4.0 <= 0.4\nmse = 156.2\nsamples = 2\nvalue = 937.5"] ;
818 -> 819 ;
820 [label="mse = 0.0\nsamples = 1\nvalue = 950.0"] ;
819 -> 820 ;
821 [label="mse = 0.0\nsamples = 1\nvalue = 925.0"] ;
819 -> 821 ;
822 [label="mse = 0.0\nsamples = 2\nvalue = 995.0"] ;
818 -> 822 ;
823 [label="postdateint <= 1.5\nmse = 1088.9\nsamples = 3\nvalue = 1071.7"] ;
815 -> 823 ;
824 [label="mse = 0.0\nsamples = 2\nvalue = 1095.0"] ;
823 -> 824 ;
825 [label="mse = 0.0\nsamples = 1\nvalue = 1025.0"] ;
823 -> 825 ;
826 [label="pFifties <= 0.9\nmse = 5594.0\nsamples = 5\nvalue = 1156.0"] ;
806 -> 826 ;
827 [label="pk_4.0 <= 0.4\nmse = 3279.7\nsamples = 4\nvalue = 1128.8"] ;
826 -> 827 ;
828 [label="medianIncome <= 0.8\nmse = 6.2\nsamples = 2\nvalue = 1072.5"] ;
827 -> 828 ;
829 [label="mse = 0.0\nsamples = 1\nvalue = 1075.0"] ;
828 -> 829 ;
830 [label="mse = 0.0\nsamples = 1\nvalue = 1070.0"] ;
828 -> 830 ;
831 [label="postdateint <= -0.1\nmse = 225.0\nsamples = 2\nvalue = 1185.0"] ;
827 -> 831 ;
832 [label="mse = 0.0\nsamples = 1\nvalue = 1170.0"] ;
831 -> 832 ;
833 [label="mse = 0.0\nsamples = 1\nvalue = 1200.0"] ;
831 -> 833 ;
834 [label="mse = 0.0\nsamples = 1\nvalue = 1265.0"] ;
826 -> 834 ;
835 [label="pYouths <= 0.3\nmse = 18646.1\nsamples = 87\nvalue = 1119.3"] ;
805 -> 835 ;
836 [label="ty_1.0 <= -0.8\nmse = 20890.1\nsamples = 46\nvalue = 1145.2"] ;
835 -> 836 ;
837 [label="pThirties <= 0.1\nmse = 2584.0\nsamples = 2\nvalue = 989.4"] ;
836 -> 837 ;
838 [label="mse = 0.0\nsamples = 1\nvalue = 1055.0"] ;
837 -> 838 ;
839 [label="mse = 0.0\nsamples = 1\nvalue = 950.0"] ;
837 -> 839 ;
840 [label="pFifties <= 0.7\nmse = 19889.9\nsamples = 44\nvalue = 1163.0"] ;
836 -> 840 ;
841 [label="pYouths <= -0.0\nmse = 18092.7\nsamples = 37\nvalue = 1136.6"] ;
840 -> 841 ;
842 [label="pk_3.0 <= 1.3\nmse = 18616.2\nsamples = 23\nvalue = 1163.9"] ;
841 -> 842 ;
843 [label="ld_4.0 <= 1.5\nmse = 12543.4\nsamples = 22\nvalue = 1150.0"] ;
842 -> 843 ;
844 [label="mse = 11908.1\nsamples = 21\nvalue = 1140.6"] ;
843 -> 844 ;
845 [label="mse = 0.0\nsamples = 1\nvalue = 1295.0"] ;
843 -> 845 ;
846 [label="mse = 0.0\nsamples = 1\nvalue = 1625.0"] ;
842 -> 846 ;
847 [label="postdateint <= 0.4\nmse = 14579.5\nsamples = 14\nvalue = 1096.2"] ;
841 -> 847 ;
848 [label="ld_4.0 <= 1.5\nmse = 3710.7\nsamples = 9\nvalue = 1064.0"] ;
847 -> 848 ;
849 [label="mse = 1077.1\nsamples = 7\nvalue = 1042.5"] ;
848 -> 849 ;
850 [label="mse = 5000.0\nsamples = 2\nvalue = 1150.0"] ;
848 -> 850 ;
851 [label="pFifties <= 0.0\nmse = 29378.5\nsamples = 5\nvalue = 1156.5"] ;
847 -> 851 ;
852 [label="mse = 0.0\nsamples = 1\nvalue = 1600.0"] ;
851 -> 852 ;
853 [label="mse = 1462.4\nsamples = 4\nvalue = 1093.1"] ;
851 -> 853 ;
854 [label="postdateint <= 2.0\nmse = 11292.9\nsamples = 7\nvalue = 1278.8"] ;
840 -> 854 ;
855 [label="postdateint <= 0.8\nmse = 2471.4\nsamples = 6\nvalue = 1306.2"] ;
854 -> 855 ;
856 [label="pForties <= 0.7\nmse = 237.7\nsamples = 4\nvalue = 1333.9"] ;
855 -> 856 ;
857 [label="mse = 54.0\nsamples = 2\nvalue = 1321.0"] ;
856 -> 857 ;
858 [label="mse = 0.0\nsamples = 2\nvalue = 1350.0"] ;
856 -> 858 ;
859 [label="pFifties <= 1.1\nmse = 5.6\nsamples = 2\nvalue = 1223.3"] ;
855 -> 859 ;
860 [label="mse = 0.0\nsamples = 1\nvalue = 1220.0"] ;
859 -> 860 ;
861 [label="mse = 0.0\nsamples = 1\nvalue = 1225.0"] ;
859 -> 861 ;
862 [label="mse = 0.0\nsamples = 1\nvalue = 950.0"] ;
854 -> 862 ;
863 [label="sqft <= -0.5\nmse = 13622.6\nsamples = 41\nvalue = 1085.1"] ;
835 -> 863 ;
864 [label="ld_3.0 <= 0.3\nmse = 11985.9\nsamples = 38\nvalue = 1095.7"] ;
863 -> 864 ;
865 [label="mse = 0.0\nsamples = 1\nvalue = 850.0"] ;
864 -> 865 ;
866 [label="pForties <= -0.0\nmse = 10110.5\nsamples = 37\nvalue = 1104.8"] ;
864 -> 866 ;
867 [label="postdateint <= 0.7\nmse = 10232.6\nsamples = 10\nvalue = 1197.3"] ;
866 -> 867 ;
868 [label="postdateint <= -0.1\nmse = 3817.9\nsamples = 5\nvalue = 1275.5"] ;
867 -> 868 ;
869 [label="mse = 938.9\nsamples = 2\nvalue = 1316.7"] ;
868 -> 869 ;
870 [label="mse = 3307.6\nsamples = 3\nvalue = 1234.3"] ;
868 -> 870 ;
871 [label="pForties <= -0.6\nmse = 4427.1\nsamples = 5\nvalue = 1119.2"] ;
867 -> 871 ;
872 [label="mse = 0.0\nsamples = 1\nvalue = 995.0"] ;
871 -> 872 ;
873 [label="mse = 1612.4\nsamples = 4\nvalue = 1144.0"] ;
871 -> 873 ;
874 [label="postdateint <= 0.0\nmse = 6932.5\nsamples = 27\nvalue = 1078.4"] ;
866 -> 874 ;
875 [label="sqft <= -0.6\nmse = 5345.9\nsamples = 22\nvalue = 1058.2"] ;
874 -> 875 ;
876 [label="mse = 3014.0\nsamples = 5\nvalue = 1137.0"] ;
875 -> 876 ;
877 [label="mse = 3261.8\nsamples = 17\nvalue = 1031.0"] ;
875 -> 877 ;
878 [label="postdateint <= 1.1\nmse = 2653.1\nsamples = 5\nvalue = 1179.3"] ;
874 -> 878 ;
879 [label="mse = 261.8\nsamples = 4\nvalue = 1159.2"] ;
878 -> 879 ;
880 [label="mse = 0.0\nsamples = 1\nvalue = 1300.0"] ;
878 -> 880 ;
881 [label="pYouths <= 0.8\nmse = 2688.9\nsamples = 3\nvalue = 886.7"] ;
863 -> 881 ;
882 [label="mse = 0.0\nsamples = 2\nvalue = 850.0"] ;
881 -> 882 ;
883 [label="mse = 0.0\nsamples = 1\nvalue = 960.0"] ;
881 -> 883 ;
884 [label="pk_1.0 <= 5.6\nmse = 11936.5\nsamples = 60\nvalue = 1060.8"] ;
804 -> 884 ;
885 [label="postdateint <= -1.3\nmse = 10982.6\nsamples = 56\nvalue = 1051.7"] ;
884 -> 885 ;
886 [label="postdateint <= -1.4\nmse = 18224.7\nsamples = 7\nvalue = 1169.4"] ;
885 -> 886 ;
887 [label="mse = 0.0\nsamples = 1\nvalue = 1075.0"] ;
886 -> 887 ;
888 [label="pk_7.0 <= 7.2\nmse = 20155.1\nsamples = 6\nvalue = 1196.4"] ;
886 -> 888 ;
889 [label="sqft <= -0.3\nmse = 21625.0\nsamples = 5\nvalue = 1180.0"] ;
888 -> 889 ;
890 [label="pThirties <= 0.0\nmse = 31406.2\nsamples = 3\nvalue = 1162.5"] ;
889 -> 890 ;
891 [label="mse = 0.0\nsamples = 1\nvalue = 1175.0"] ;
890 -> 891 ;
892 [label="mse = 62500.0\nsamples = 2\nvalue = 1150.0"] ;
890 -> 892 ;
893 [label="sqft <= -0.2\nmse = 225.0\nsamples = 2\nvalue = 1215.0"] ;
889 -> 893 ;
894 [label="mse = 0.0\nsamples = 1\nvalue = 1230.0"] ;
893 -> 894 ;
895 [label="mse = 0.0\nsamples = 1\nvalue = 1200.0"] ;
893 -> 895 ;
896 [label="mse = 0.0\nsamples = 1\nvalue = 1295.0"] ;
888 -> 896 ;
897 [label="postdateint <= 1.9\nmse = 8325.1\nsamples = 49\nvalue = 1037.9"] ;
885 -> 897 ;
898 [label="pThirties <= -1.4\nmse = 7963.2\nsamples = 45\nvalue = 1026.2"] ;
897 -> 898 ;
899 [label="pYouths <= 0.5\nmse = 1225.0\nsamples = 2\nvalue = 1260.0"] ;
898 -> 899 ;
900 [label="mse = 0.0\nsamples = 1\nvalue = 1225.0"] ;
899 -> 900 ;
901 [label="mse = 0.0\nsamples = 1\nvalue = 1295.0"] ;
899 -> 901 ;
902 [label="postdateint <= 1.9\nmse = 6437.5\nsamples = 43\nvalue = 1019.0"] ;
898 -> 902 ;
903 [label="ld_3.0 <= 0.3\nmse = 6177.6\nsamples = 41\nvalue = 1022.8"] ;
902 -> 903 ;
904 [label="postdateint <= 1.1\nmse = 11008.8\nsamples = 14\nvalue = 986.1"] ;
903 -> 904 ;
905 [label="mse = 5519.8\nsamples = 13\nvalue = 967.6"] ;
904 -> 905 ;
906 [label="mse = 0.0\nsamples = 1\nvalue = 1300.0"] ;
904 -> 906 ;
907 [label="ty_1.0 <= -0.8\nmse = 3490.3\nsamples = 27\nvalue = 1037.5"] ;
903 -> 907 ;
908 [label="mse = 3503.5\nsamples = 4\nvalue = 954.2"] ;
907 -> 908 ;
909 [label="mse = 2255.2\nsamples = 23\nvalue = 1050.3"] ;
907 -> 909 ;
910 [label="mse = 0.0\nsamples = 2\nvalue = 900.0"] ;
902 -> 910 ;
911 [label="pThirties <= -0.8\nmse = 3739.0\nsamples = 4\nvalue = 1116.0"] ;
897 -> 911 ;
912 [label="mse = 0.0\nsamples = 1\nvalue = 995.0"] ;
911 -> 912 ;
913 [label="pTwenties <= -0.0\nmse = 98.4\nsamples = 3\nvalue = 1146.2"] ;
911 -> 913 ;
914 [label="mse = 0.0\nsamples = 1\nvalue = 1135.0"] ;
913 -> 914 ;
915 [label="pTwenties <= 0.7\nmse = 36.0\nsamples = 2\nvalue = 1153.0"] ;
913 -> 915 ;
916 [label="mse = 0.0\nsamples = 1\nvalue = 1150.0"] ;
915 -> 916 ;
917 [label="mse = 0.0\nsamples = 1\nvalue = 1165.0"] ;
915 -> 917 ;
918 [label="postdateint <= 1.6\nmse = 2196.0\nsamples = 4\nvalue = 1218.0"] ;
884 -> 918 ;
919 [label="postdateint <= 0.8\nmse = 50.0\nsamples = 3\nvalue = 1180.0"] ;
918 -> 919 ;
920 [label="mse = 0.0\nsamples = 1\nvalue = 1190.0"] ;
919 -> 920 ;
921 [label="mse = 0.0\nsamples = 2\nvalue = 1175.0"] ;
919 -> 921 ;
922 [label="mse = 0.0\nsamples = 1\nvalue = 1275.0"] ;
918 -> 922 ;
923 [label="ty_4.0 <= 1.7\nmse = 1406.2\nsamples = 2\nvalue = 837.5"] ;
785 -> 923 ;
924 [label="mse = 0.0\nsamples = 1\nvalue = 800.0"] ;
923 -> 924 ;
925 [label="mse = 0.0\nsamples = 1\nvalue = 875.0"] ;
923 -> 925 ;
926 [label="pSixtyPlus <= -0.9\nmse = 3733.1\nsamples = 5\nvalue = 902.2"] ;
784 -> 926 ;
927 [label="sqft <= -0.4\nmse = 1636.5\nsamples = 3\nvalue = 867.0"] ;
926 -> 927 ;
928 [label="ty_2.0 <= 2.0\nmse = 186.9\nsamples = 2\nvalue = 889.3"] ;
927 -> 928 ;
929 [label="mse = 0.0\nsamples = 1\nvalue = 899.0"] ;
928 -> 929 ;
930 [label="mse = 0.0\nsamples = 1\nvalue = 870.0"] ;
928 -> 930 ;
931 [label="mse = 0.0\nsamples = 1\nvalue = 800.0"] ;
927 -> 931 ;
932 [label="pk_3.0 <= 1.3\nmse = 506.2\nsamples = 2\nvalue = 972.5"] ;
926 -> 932 ;
933 [label="mse = 0.0\nsamples = 1\nvalue = 950.0"] ;
932 -> 933 ;
934 [label="mse = 0.0\nsamples = 1\nvalue = 995.0"] ;
932 -> 934 ;
935 [label="postdateint <= -0.9\nmse = 32366.9\nsamples = 20\nvalue = 1196.8"] ;
783 -> 935 ;
936 [label="pTwenties <= 0.2\nmse = 10138.9\nsamples = 3\nvalue = 966.7"] ;
935 -> 936 ;
937 [label="postdateint <= -1.3\nmse = 156.2\nsamples = 2\nvalue = 1037.5"] ;
936 -> 937 ;
938 [label="mse = 0.0\nsamples = 1\nvalue = 1050.0"] ;
937 -> 938 ;
939 [label="mse = 0.0\nsamples = 1\nvalue = 1025.0"] ;
937 -> 939 ;
940 [label="mse = 0.0\nsamples = 1\nvalue = 825.0"] ;
936 -> 940 ;
941 [label="postdateint <= 0.3\nmse = 28116.0\nsamples = 17\nvalue = 1223.3"] ;
935 -> 941 ;
942 [label="ty_2.0 <= 2.0\nmse = 33572.1\nsamples = 9\nvalue = 1275.8"] ;
941 -> 942 ;
943 [label="pFifties <= 0.1\nmse = 16637.2\nsamples = 8\nvalue = 1241.1"] ;
942 -> 943 ;
944 [label="postdateint <= -0.5\nmse = 16518.4\nsamples = 5\nvalue = 1161.9"] ;
943 -> 944 ;
945 [label="pk_5.0 <= 1.5\nmse = 11879.7\nsamples = 3\nvalue = 1261.2"] ;
944 -> 945 ;
946 [label="ld_3.0 <= 0.3\nmse = 5.6\nsamples = 2\nvalue = 1198.3"] ;
945 -> 946 ;
947 [label="mse = 0.0\nsamples = 1\nvalue = 1195.0"] ;
946 -> 947 ;
948 [label="mse = 0.0\nsamples = 1\nvalue = 1200.0"] ;
946 -> 948 ;
949 [label="mse = 0.0\nsamples = 1\nvalue = 1450.0"] ;
945 -> 949 ;
950 [label="pTwenties <= 0.5\nmse = 1406.2\nsamples = 2\nvalue = 1062.5"] ;
944 -> 950 ;
951 [label="mse = 0.0\nsamples = 1\nvalue = 1025.0"] ;
950 -> 951 ;
952 [label="mse = 0.0\nsamples = 1\nvalue = 1100.0"] ;
950 -> 952 ;
953 [label="postdateint <= -0.1\nmse = 1388.8\nsamples = 3\nvalue = 1331.7"] ;
943 -> 953 ;
954 [label="mse = 0.0\nsamples = 1\nvalue = 1386.0"] ;
953 -> 954 ;
955 [label="medianIncome <= 0.7\nmse = 294.0\nsamples = 2\nvalue = 1310.0"] ;
953 -> 955 ;
956 [label="mse = 0.0\nsamples = 1\nvalue = 1289.0"] ;
955 -> 956 ;
957 [label="mse = 0.0\nsamples = 1\nvalue = 1324.0"] ;
955 -> 957 ;
958 [label="mse = 0.0\nsamples = 1\nvalue = 1795.0"] ;
942 -> 958 ;
959 [label="postdateint <= 1.6\nmse = 7962.2\nsamples = 8\nvalue = 1139.5"] ;
941 -> 959 ;
960 [label="postdateint <= 0.7\nmse = 2062.2\nsamples = 5\nvalue = 1091.4"] ;
959 -> 960 ;
961 [label="mse = 0.0\nsamples = 1\nvalue = 1195.0"] ;
960 -> 961 ;
962 [label="postdateint <= 1.2\nmse = 320.1\nsamples = 4\nvalue = 1074.2"] ;
960 -> 962 ;
963 [label="mse = 0.0\nsamples = 1\nvalue = 1050.0"] ;
962 -> 963 ;
964 [label="pk_5.0 <= 1.5\nmse = 42.2\nsamples = 3\nvalue = 1086.2"] ;
962 -> 964 ;
965 [label="mse = 0.0\nsamples = 2\nvalue = 1090.0"] ;
964 -> 965 ;
966 [label="mse = 0.0\nsamples = 1\nvalue = 1075.0"] ;
964 -> 966 ;
967 [label="medianIncome <= 0.5\nmse = 3755.6\nsamples = 3\nvalue = 1251.7"] ;
959 -> 967 ;
968 [label="mse = 0.0\nsamples = 2\nvalue = 1295.0"] ;
967 -> 968 ;
969 [label="mse = 0.0\nsamples = 1\nvalue = 1165.0"] ;
967 -> 969 ;
970 [label="pForties <= -0.0\nmse = 13444.5\nsamples = 33\nvalue = 997.3"] ;
782 -> 970 ;
971 [label="postdateint <= -1.3\nmse = 9920.0\nsamples = 22\nvalue = 958.8"] ;
970 -> 971 ;
972 [label="pYouths <= 1.1\nmse = 5.6\nsamples = 2\nvalue = 1146.7"] ;
971 -> 972 ;
973 [label="mse = 0.0\nsamples = 1\nvalue = 1150.0"] ;
972 -> 973 ;
974 [label="mse = 0.0\nsamples = 1\nvalue = 1145.0"] ;
972 -> 974 ;
975 [label="ty_1.0 <= -0.8\nmse = 6916.1\nsamples = 20\nvalue = 939.3"] ;
971 -> 975 ;
976 [label="mse = 0.0\nsamples = 2\nvalue = 800.0"] ;
975 -> 976 ;
977 [label="sqft <= -0.1\nmse = 5215.2\nsamples = 18\nvalue = 955.4"] ;
975 -> 977 ;
978 [label="postdateint <= 1.2\nmse = 3410.5\nsamples = 16\nvalue = 938.7"] ;
977 -> 978 ;
979 [label="postdateint <= -0.4\nmse = 2611.8\nsamples = 12\nvalue = 920.6"] ;
978 -> 979 ;
980 [label="pk_4.0 <= 0.4\nmse = 2255.6\nsamples = 6\nvalue = 948.2"] ;
979 -> 980 ;
981 [label="pForties <= -0.2\nmse = 104.2\nsamples = 3\nvalue = 904.6"] ;
980 -> 981 ;
982 [label="mse = 0.0\nsamples = 1\nvalue = 925.0"] ;
981 -> 982 ;
983 [label="sqft <= -0.5\nmse = 0.2\nsamples = 2\nvalue = 899.5"] ;
981 -> 983 ;
984 [label="mse = 0.0\nsamples = 1\nvalue = 899.0"] ;
983 -> 984 ;
985 [label="mse = 0.0\nsamples = 1\nvalue = 900.0"] ;
983 -> 985 ;
986 [label="pTwenties <= -0.5\nmse = 605.0\nsamples = 3\nvalue = 991.8"] ;
980 -> 986 ;
987 [label="mse = 0.0\nsamples = 1\nvalue = 944.0"] ;
986 -> 987 ;
988 [label="pFifties <= 0.2\nmse = 42.2\nsamples = 2\nvalue = 1003.8"] ;
986 -> 988 ;
989 [label="mse = 0.0\nsamples = 1\nvalue = 1000.0"] ;
988 -> 989 ;
990 [label="mse = 0.0\nsamples = 1\nvalue = 1015.0"] ;
988 -> 990 ;
991 [label="pThirties <= -0.9\nmse = 916.4\nsamples = 6\nvalue = 886.1"] ;
979 -> 991 ;
992 [label="postdateint <= 0.8\nmse = 138.9\nsamples = 2\nvalue = 916.7"] ;
991 -> 992 ;
993 [label="mse = 0.0\nsamples = 1\nvalue = 925.0"] ;
992 -> 993 ;
994 [label="mse = 0.0\nsamples = 1\nvalue = 900.0"] ;
992 -> 994 ;
995 [label="ld_4.0 <= 1.5\nmse = 487.4\nsamples = 4\nvalue = 867.8"] ;
991 -> 995 ;
996 [label="postdateint <= 0.4\nmse = 460.2\nsamples = 3\nvalue = 879.7"] ;
995 -> 996 ;
997 [label="pFifties <= -0.4\nmse = 30.2\nsamples = 2\nvalue = 894.5"] ;
996 -> 997 ;
998 [label="mse = 0.0\nsamples = 1\nvalue = 889.0"] ;
997 -> 998 ;
999 [label="mse = 0.0\nsamples = 1\nvalue = 900.0"] ;
997 -> 999 ;
1000 [label="mse = 0.0\nsamples = 1\nvalue = 850.0"] ;
996 -> 1000 ;
1001 [label="mse = 0.0\nsamples = 1\nvalue = 850.0"] ;
995 -> 1001 ;
1002 [label="pTwenties <= -0.5\nmse = 844.0\nsamples = 4\nvalue = 1004.0"] ;
978 -> 1002 ;
1003 [label="postdateint <= 1.9\nmse = 1056.2\nsamples = 2\nvalue = 1027.5"] ;
1002 -> 1003 ;
1004 [label="mse = 0.0\nsamples = 1\nvalue = 1060.0"] ;
1003 -> 1004 ;
1005 [label="mse = 0.0\nsamples = 1\nvalue = 995.0"] ;
1003 -> 1005 ;
1006 [label="pFifties <= 0.2\nmse = 88.9\nsamples = 2\nvalue = 988.3"] ;
1002 -> 1006 ;
1007 [label="mse = 0.0\nsamples = 1\nvalue = 995.0"] ;
1006 -> 1007 ;
1008 [label="mse = 0.0\nsamples = 1\nvalue = 975.0"] ;
1006 -> 1008 ;
1009 [label="pFifties <= 0.2\nmse = 555.6\nsamples = 2\nvalue = 1083.3"] ;
977 -> 1009 ;
1010 [label="mse = 0.0\nsamples = 1\nvalue = 1050.0"] ;
1009 -> 1010 ;
1011 [label="mse = 0.0\nsamples = 1\nvalue = 1100.0"] ;
1009 -> 1011 ;
1012 [label="ld_3.0 <= 0.3\nmse = 12375.7\nsamples = 11\nvalue = 1065.8"] ;
970 -> 1012 ;
1013 [label="pForties <= 1.1\nmse = 5020.1\nsamples = 5\nvalue = 964.2"] ;
1012 -> 1013 ;
1014 [label="pk_4.0 <= 0.4\nmse = 2629.7\nsamples = 4\nvalue = 923.8"] ;
1013 -> 1014 ;
1015 [label="mse = 0.0\nsamples = 1\nvalue = 850.0"] ;
1014 -> 1015 ;
1016 [label="pYouths <= 1.6\nmse = 1088.9\nsamples = 3\nvalue = 948.3"] ;
1014 -> 1016 ;
1017 [label="postdateint <= 0.4\nmse = 1225.0\nsamples = 2\nvalue = 960.0"] ;
1016 -> 1017 ;
1018 [label="mse = 0.0\nsamples = 1\nvalue = 995.0"] ;
1017 -> 1018 ;
1019 [label="mse = 0.0\nsamples = 1\nvalue = 925.0"] ;
1017 -> 1019 ;
1020 [label="mse = 0.0\nsamples = 1\nvalue = 925.0"] ;
1016 -> 1020 ;
1021 [label="mse = 0.0\nsamples = 1\nvalue = 1045.0"] ;
1013 -> 1021 ;
1022 [label="pk_5.0 <= 1.5\nmse = 8301.4\nsamples = 6\nvalue = 1116.7"] ;
1012 -> 1022 ;
1023 [label="postdateint <= -0.9\nmse = 3083.3\nsamples = 4\nvalue = 1073.3"] ;
1022 -> 1023 ;
1024 [label="mse = 0.0\nsamples = 1\nvalue = 975.0"] ;
1023 -> 1024 ;
1025 [label="medianIncome <= 0.5\nmse = 412.2\nsamples = 3\nvalue = 1101.4"] ;
1023 -> 1025 ;
1026 [label="pYouths <= 1.3\nmse = 22.2\nsamples = 2\nvalue = 1093.3"] ;
1025 -> 1026 ;
1027 [label="mse = 0.0\nsamples = 1\nvalue = 1100.0"] ;
1026 -> 1027 ;
1028 [label="mse = 0.0\nsamples = 1\nvalue = 1090.0"] ;
1026 -> 1028 ;
1029 [label="mse = 0.0\nsamples = 1\nvalue = 1150.0"] ;
1025 -> 1029 ;
1030 [label="medianIncome <= -1.0\nmse = 1422.2\nsamples = 2\nvalue = 1246.7"] ;
1022 -> 1030 ;
1031 [label="mse = 0.0\nsamples = 1\nvalue = 1220.0"] ;
1030 -> 1031 ;
1032 [label="mse = 0.0\nsamples = 1\nvalue = 1300.0"] ;
1030 -> 1032 ;
1033 [label="pForties <= -0.2\nmse = 47917.8\nsamples = 12\nvalue = 1432.4"] ;
727 -> 1033 ;
1034 [label="ty_1.0 <= -0.8\nmse = 7793.1\nsamples = 6\nvalue = 1596.7"] ;
1033 -> 1034 ;
1035 [label="mse = 0.0\nsamples = 1\nvalue = 1750.0"] ;
1034 -> 1035 ;
1036 [label="pYouths <= -0.2\nmse = 3144.2\nsamples = 5\nvalue = 1562.7"] ;
1034 -> 1036 ;
1037 [label="postdateint <= -0.9\nmse = 3600.0\nsamples = 2\nvalue = 1519.0"] ;
1036 -> 1037 ;
1038 [label="mse = 0.0\nsamples = 1\nvalue = 1579.0"] ;
1037 -> 1038 ;
1039 [label="mse = 0.0\nsamples = 1\nvalue = 1459.0"] ;
1037 -> 1039 ;
1040 [label="postdateint <= -1.4\nmse = 33.8\nsamples = 3\nvalue = 1597.6"] ;
1036 -> 1040 ;
1041 [label="mse = 0.0\nsamples = 1\nvalue = 1591.0"] ;
1040 -> 1041 ;
1042 [label="medianIncome <= -0.2\nmse = 8.0\nsamples = 2\nvalue = 1602.0"] ;
1040 -> 1042 ;
1043 [label="mse = 0.0\nsamples = 1\nvalue = 1600.0"] ;
1042 -> 1043 ;
1044 [label="mse = 0.0\nsamples = 1\nvalue = 1606.0"] ;
1042 -> 1044 ;
1045 [label="postdateint <= -0.4\nmse = 23661.1\nsamples = 6\nvalue = 1231.7"] ;
1033 -> 1045 ;
1046 [label="pThirties <= -0.1\nmse = 306.2\nsamples = 2\nvalue = 1492.5"] ;
1045 -> 1046 ;
1047 [label="mse = 0.0\nsamples = 1\nvalue = 1475.0"] ;
1046 -> 1047 ;
1048 [label="mse = 0.0\nsamples = 1\nvalue = 1510.0"] ;
1046 -> 1048 ;
1049 [label="postdateint <= 1.1\nmse = 5341.8\nsamples = 4\nvalue = 1157.1"] ;
1045 -> 1049 ;
1050 [label="pYouths <= 0.4\nmse = 96.0\nsamples = 2\nvalue = 1112.0"] ;
1049 -> 1050 ;
1051 [label="mse = 0.0\nsamples = 1\nvalue = 1100.0"] ;
1050 -> 1051 ;
1052 [label="mse = 0.0\nsamples = 1\nvalue = 1120.0"] ;
1050 -> 1052 ;
1053 [label="postdateint <= 1.9\nmse = 625.0\nsamples = 2\nvalue = 1270.0"] ;
1049 -> 1053 ;
1054 [label="mse = 0.0\nsamples = 1\nvalue = 1295.0"] ;
1053 -> 1054 ;
1055 [label="mse = 0.0\nsamples = 1\nvalue = 1245.0"] ;
1053 -> 1055 ;
1056 [label="number bedrooms <= 1.3\nmse = 37953.4\nsamples = 490\nvalue = 1288.9"] ;
2 -> 1056 ;
1057 [label="sqft <= 0.1\nmse = 30514.3\nsamples = 472\nvalue = 1275.7"] ;
1056 -> 1057 ;
1058 [label="sqft <= -0.4\nmse = 20663.5\nsamples = 284\nvalue = 1223.5"] ;
1057 -> 1058 ;
1059 [label="pTwenties <= -0.5\nmse = 18288.4\nsamples = 84\nvalue = 1162.9"] ;
1058 -> 1059 ;
1060 [label="postdateint <= 1.1\nmse = 13330.0\nsamples = 28\nvalue = 1068.1"] ;
1059 -> 1060 ;
1061 [label="pYouths <= 0.4\nmse = 7860.9\nsamples = 22\nvalue = 1043.8"] ;
1060 -> 1061 ;
1062 [label="postdateint <= -0.8\nmse = 8129.7\nsamples = 3\nvalue = 1161.2"] ;
1061 -> 1062 ;
1063 [label="mse = 0.0\nsamples = 1\nvalue = 1250.0"] ;
1062 -> 1063 ;
1064 [label="postdateint <= 0.3\nmse = 506.2\nsamples = 2\nvalue = 1072.5"] ;
1062 -> 1064 ;
1065 [label="mse = 0.0\nsamples = 1\nvalue = 1095.0"] ;
1064 -> 1065 ;
1066 [label="mse = 0.0\nsamples = 1\nvalue = 1050.0"] ;
1064 -> 1066 ;
1067 [label="sqft <= -0.8\nmse = 4998.6\nsamples = 19\nvalue = 1023.4"] ;
1061 -> 1067 ;
1068 [label="pThirties <= -0.0\nmse = 4460.6\nsamples = 5\nvalue = 1095.7"] ;
1067 -> 1068 ;
1069 [label="ty_4.0 <= 1.7\nmse = 1425.2\nsamples = 3\nvalue = 1137.2"] ;
1068 -> 1069 ;
1070 [label="ld_3.0 <= 0.3\nmse = 150.2\nsamples = 2\nvalue = 1116.3"] ;
1069 -> 1070 ;
1071 [label="mse = 0.0\nsamples = 1\nvalue = 1125.0"] ;
1070 -> 1071 ;
1072 [label="mse = 0.0\nsamples = 1\nvalue = 1099.0"] ;
1070 -> 1072 ;
1073 [label="mse = 0.0\nsamples = 1\nvalue = 1200.0"] ;
1069 -> 1073 ;
1074 [label="pSixtyPlus <= -0.9\nmse = 156.2\nsamples = 2\nvalue = 1012.5"] ;
1068 -> 1074 ;
1075 [label="mse = 0.0\nsamples = 1\nvalue = 1025.0"] ;
1074 -> 1075 ;
1076 [label="mse = 0.0\nsamples = 1\nvalue = 1000.0"] ;
1074 -> 1076 ;
1077 [label="pThirties <= -0.9\nmse = 2694.1\nsamples = 14\nvalue = 997.9"] ;
1067 -> 1077 ;
1078 [label="postdateint <= -1.3\nmse = 505.6\nsamples = 3\nvalue = 1063.3"] ;
1077 -> 1078 ;
1079 [label="mse = 0.0\nsamples = 1\nvalue = 1095.0"] ;
1078 -> 1079 ;
1080 [label="pTwenties <= -1.0\nmse = 6.2\nsamples = 2\nvalue = 1047.5"] ;
1078 -> 1080 ;
1081 [label="mse = 0.0\nsamples = 1\nvalue = 1045.0"] ;
1080 -> 1081 ;
1082 [label="mse = 0.0\nsamples = 1\nvalue = 1050.0"] ;
1080 -> 1082 ;
1083 [label="pTwenties <= -0.7\nmse = 2048.4\nsamples = 11\nvalue = 983.9"] ;
1077 -> 1083 ;
1084 [label="pSixtyPlus <= 1.1\nmse = 1389.7\nsamples = 8\nvalue = 958.8"] ;
1083 -> 1084 ;
1085 [label="pTwenties <= -0.9\nmse = 418.8\nsamples = 7\nvalue = 947.5"] ;
1084 -> 1085 ;
1086 [label="mse = 0.0\nsamples = 3\nvalue = 925.0"] ;
1085 -> 1086 ;
1087 [label="postdateint <= -0.8\nmse = 184.0\nsamples = 4\nvalue = 961.0"] ;
1085 -> 1087 ;
1088 [label="mse = 0.0\nsamples = 2\nvalue = 950.0"] ;
1087 -> 1088 ;
1089 [label="pSixtyPlus <= 0.1\nmse = 6.2\nsamples = 2\nvalue = 977.5"] ;
1087 -> 1089 ;
1090 [label="mse = 0.0\nsamples = 1\nvalue = 980.0"] ;
1089 -> 1090 ;
1091 [label="mse = 0.0\nsamples = 1\nvalue = 975.0"] ;
1089 -> 1091 ;
1092 [label="mse = 0.0\nsamples = 1\nvalue = 1049.0"] ;
1084 -> 1092 ;
1093 [label="ld_4.0 <= 1.5\nmse = 64.0\nsamples = 3\nvalue = 1029.0"] ;
1083 -> 1093 ;
1094 [label="mse = 0.0\nsamples = 1\nvalue = 1045.0"] ;
1093 -> 1094 ;
1095 [label="mse = 0.0\nsamples = 2\nvalue = 1025.0"] ;
1093 -> 1095 ;
1096 [label="pFifties <= 1.1\nmse = 22669.7\nsamples = 6\nvalue = 1140.9"] ;
1060 -> 1096 ;
1097 [label="pFifties <= -0.3\nmse = 8940.1\nsamples = 4\nvalue = 1232.2"] ;
1096 -> 1097 ;
1098 [label="mse = 0.0\nsamples = 1\nvalue = 1425.0"] ;
1097 -> 1098 ;
1099 [label="sqft <= -0.4\nmse = 1803.8\nsamples = 3\nvalue = 1193.6"] ;
1097 -> 1099 ;
1100 [label="pTwenties <= -1.0\nmse = 468.8\nsamples = 2\nvalue = 1212.5"] ;
1099 -> 1100 ;
1101 [label="mse = 0.0\nsamples = 1\nvalue = 1200.0"] ;
1100 -> 1101 ;
1102 [label="mse = 0.0\nsamples = 1\nvalue = 1250.0"] ;
1100 -> 1102 ;
1103 [label="mse = 0.0\nsamples = 1\nvalue = 1118.0"] ;
1099 -> 1103 ;
1104 [label="postdateint <= 1.6\nmse = 138.9\nsamples = 2\nvalue = 958.3"] ;
1096 -> 1104 ;
1105 [label="mse = 0.0\nsamples = 1\nvalue = 975.0"] ;
1104 -> 1105 ;
1106 [label="mse = 0.0\nsamples = 1\nvalue = 950.0"] ;
1104 -> 1106 ;
1107 [label="pTwenties <= -0.2\nmse = 15027.0\nsamples = 56\nvalue = 1202.6"] ;
1059 -> 1107 ;
1108 [label="pk_2.0 <= 0.0\nmse = 22217.8\nsamples = 11\nvalue = 1297.7"] ;
1107 -> 1108 ;
1109 [label="sqft <= -0.7\nmse = 2589.0\nsamples = 9\nvalue = 1221.0"] ;
1108 -> 1109 ;
1110 [label="pSixtyPlus <= 0.3\nmse = 506.2\nsamples = 2\nvalue = 1297.5"] ;
1109 -> 1110 ;
1111 [label="mse = 0.0\nsamples = 1\nvalue = 1320.0"] ;
1110 -> 1111 ;
1112 [label="mse = 0.0\nsamples = 1\nvalue = 1275.0"] ;
1110 -> 1112 ;
1113 [label="postdateint <= 0.7\nmse = 1280.9\nsamples = 7\nvalue = 1201.9"] ;
1109 -> 1113 ;
1114 [label="postdateint <= -0.0\nmse = 420.1\nsamples = 5\nvalue = 1184.2"] ;
1113 -> 1114 ;
1115 [label="postdateint <= -0.9\nmse = 224.0\nsamples = 4\nvalue = 1191.0"] ;
1114 -> 1115 ;
1116 [label="mse = 0.0\nsamples = 1\nvalue = 1175.0"] ;
1115 -> 1116 ;
1117 [label="pk_4.0 <= 0.4\nmse = 88.9\nsamples = 3\nvalue = 1201.7"] ;
1115 -> 1117 ;
1118 [label="mse = 0.0\nsamples = 2\nvalue = 1195.0"] ;
1117 -> 1118 ;
1119 [label="mse = 0.0\nsamples = 1\nvalue = 1215.0"] ;
1117 -> 1119 ;
1120 [label="mse = 0.0\nsamples = 1\nvalue = 1150.0"] ;
1114 -> 1120 ;
1121 [label="postdateint <= 1.5\nmse = 100.0\nsamples = 2\nvalue = 1255.0"] ;
1113 -> 1121 ;
1122 [label="mse = 0.0\nsamples = 1\nvalue = 1245.0"] ;
1121 -> 1122 ;
1123 [label="mse = 0.0\nsamples = 1\nvalue = 1265.0"] ;
1121 -> 1123 ;
1124 [label="medianIncome <= 1.1\nmse = 2688.9\nsamples = 2\nvalue = 1553.3"] ;
1108 -> 1124 ;
1125 [label="mse = 0.0\nsamples = 1\nvalue = 1480.0"] ;
1124 -> 1125 ;
1126 [label="mse = 0.0\nsamples = 1\nvalue = 1590.0"] ;
1124 -> 1126 ;
1127 [label="medianIncome <= -0.3\nmse = 11848.2\nsamples = 45\nvalue = 1185.6"] ;
1107 -> 1127 ;
1128 [label="pk_3.0 <= 1.3\nmse = 10102.6\nsamples = 42\nvalue = 1195.2"] ;
1127 -> 1128 ;
1129 [label="pTwenties <= 0.2\nmse = 9253.6\nsamples = 36\nvalue = 1179.9"] ;
1128 -> 1129 ;
1130 [label="sqft <= -0.6\nmse = 10543.3\nsamples = 7\nvalue = 1079.0"] ;
1129 -> 1130 ;
1131 [label="postdateint <= -0.1\nmse = 2178.0\nsamples = 2\nvalue = 1196.0"] ;
1130 -> 1131 ;
1132 [label="mse = 0.0\nsamples = 1\nvalue = 1130.0"] ;
1131 -> 1132 ;
1133 [label="mse = 0.0\nsamples = 1\nvalue = 1229.0"] ;
1131 -> 1133 ;
1134 [label="postdateint <= -0.8\nmse = 4459.2\nsamples = 5\nvalue = 1020.5"] ;
1130 -> 1134 ;
1135 [label="mse = 0.0\nsamples = 1\nvalue = 900.0"] ;
1134 -> 1135 ;
1136 [label="medianIncome <= -0.6\nmse = 1866.2\nsamples = 4\nvalue = 1044.6"] ;
1134 -> 1136 ;
1137 [label="postdateint <= 1.5\nmse = 312.8\nsamples = 3\nvalue = 1024.5"] ;
1136 -> 1137 ;
1138 [label="postdateint <= 0.4\nmse = 128.0\nsamples = 2\nvalue = 1033.0"] ;
1137 -> 1138 ;
1139 [label="mse = 0.0\nsamples = 1\nvalue = 1049.0"] ;
1138 -> 1139 ;
1140 [label="mse = 0.0\nsamples = 1\nvalue = 1025.0"] ;
1138 -> 1140 ;
1141 [label="mse = 0.0\nsamples = 1\nvalue = 999.0"] ;
1137 -> 1141 ;
1142 [label="mse = 0.0\nsamples = 1\nvalue = 1125.0"] ;
1136 -> 1142 ;
1143 [label="sqft <= -1.0\nmse = 6746.0\nsamples = 29\nvalue = 1198.8"] ;
1129 -> 1143 ;
1144 [label="postdateint <= -0.1\nmse = 2910.9\nsamples = 4\nvalue = 1108.8"] ;
1143 -> 1144 ;
1145 [label="mse = 0.0\nsamples = 1\nvalue = 1030.0"] ;
1144 -> 1145 ;
1146 [label="postdateint <= 0.9\nmse = 1125.0\nsamples = 3\nvalue = 1135.0"] ;
1144 -> 1146 ;
1147 [label="mse = 0.0\nsamples = 2\nvalue = 1150.0"] ;
1146 -> 1147 ;
1148 [label="mse = 0.0\nsamples = 1\nvalue = 1060.0"] ;
1146 -> 1148 ;
1149 [label="ty_4.0 <= 1.7\nmse = 5567.2\nsamples = 25\nvalue = 1216.8"] ;
1143 -> 1149 ;
1150 [label="postdateint <= 0.3\nmse = 4473.9\nsamples = 24\nvalue = 1222.4"] ;
1149 -> 1150 ;
1151 [label="pSixtyPlus <= -0.1\nmse = 6450.1\nsamples = 11\nvalue = 1262.4"] ;
1150 -> 1151 ;
1152 [label="ld_4.0 <= 1.5\nmse = 5632.6\nsamples = 9\nvalue = 1289.2"] ;
1151 -> 1152 ;
1153 [label="postdateint <= 0.3\nmse = 5816.7\nsamples = 7\nvalue = 1308.3"] ;
1152 -> 1153 ;
1154 [label="postdateint <= -0.1\nmse = 4893.4\nsamples = 6\nvalue = 1321.9"] ;
1153 -> 1154 ;
1155 [label="postdateint <= -0.9\nmse = 1764.3\nsamples = 5\nvalue = 1300.0"] ;
1154 -> 1155 ;
1156 [label="sqft <= -0.5\nmse = 5.6\nsamples = 2\nvalue = 1346.7"] ;
1155 -> 1156 ;
1157 [label="mse = 0.0\nsamples = 1\nvalue = 1350.0"] ;
1156 -> 1157 ;
1158 [label="mse = 0.0\nsamples = 1\nvalue = 1345.0"] ;
1156 -> 1158 ;
1159 [label="sqft <= -0.5\nmse = 225.0\nsamples = 3\nvalue = 1265.0"] ;
1155 -> 1159 ;
1160 [label="mse = 0.0\nsamples = 1\nvalue = 1280.0"] ;
1159 -> 1160 ;
1161 [label="mse = 0.0\nsamples = 2\nvalue = 1250.0"] ;
1159 -> 1161 ;
1162 [label="mse = 0.0\nsamples = 1\nvalue = 1475.0"] ;
1154 -> 1162 ;
1163 [label="mse = 0.0\nsamples = 1\nvalue = 1200.0"] ;
1153 -> 1163 ;
1164 [label="pk_4.0 <= 0.4\nmse = 672.2\nsamples = 2\nvalue = 1231.7"] ;
1152 -> 1164 ;
1165 [label="mse = 0.0\nsamples = 1\nvalue = 1250.0"] ;
1164 -> 1165 ;
1166 [label="mse = 0.0\nsamples = 1\nvalue = 1195.0"] ;
1164 -> 1166 ;
1167 [label="postdateint <= -0.6\nmse = 289.0\nsamples = 2\nvalue = 1182.0"] ;
1151 -> 1167 ;
1168 [label="mse = 0.0\nsamples = 1\nvalue = 1199.0"] ;
1167 -> 1168 ;
1169 [label="mse = 0.0\nsamples = 1\nvalue = 1165.0"] ;
1167 -> 1169 ;
1170 [label="pFifties <= -1.1\nmse = 1210.2\nsamples = 13\nvalue = 1194.5"] ;
1150 -> 1170 ;
1171 [label="sqft <= -0.5\nmse = 3.8\nsamples = 3\nvalue = 1148.8"] ;
1170 -> 1171 ;
1172 [label="mse = 0.0\nsamples = 1\nvalue = 1145.0"] ;
1171 -> 1172 ;
1173 [label="postdateint <= 0.4\nmse = 0.2\nsamples = 2\nvalue = 1149.8"] ;
1171 -> 1173 ;
1174 [label="mse = 0.0\nsamples = 1\nvalue = 1149.0"] ;
1173 -> 1174 ;
1175 [label="mse = 0.0\nsamples = 1\nvalue = 1150.0"] ;
1173 -> 1175 ;
1176 [label="postdateint <= 0.4\nmse = 803.4\nsamples = 10\nvalue = 1207.2"] ;
1170 -> 1176 ;
1177 [label="sqft <= -0.5\nmse = 796.0\nsamples = 5\nvalue = 1177.0"] ;
1176 -> 1177 ;
1178 [label="postdateint <= 0.3\nmse = 417.2\nsamples = 4\nvalue = 1166.2"] ;
1177 -> 1178 ;
1179 [label="mse = 0.0\nsamples = 1\nvalue = 1200.0"] ;
1178 -> 1179 ;
1180 [label="sqft <= -0.7\nmse = 50.0\nsamples = 3\nvalue = 1155.0"] ;
1178 -> 1180 ;
1181 [label="mse = 0.0\nsamples = 2\nvalue = 1150.0"] ;
1180 -> 1181 ;
1182 [label="mse = 0.0\nsamples = 1\nvalue = 1165.0"] ;
1180 -> 1182 ;
1183 [label="mse = 0.0\nsamples = 1\nvalue = 1220.0"] ;
1177 -> 1183 ;
1184 [label="postdateint <= 0.7\nmse = 319.8\nsamples = 5\nvalue = 1218.8"] ;
1176 -> 1184 ;
1185 [label="mse = 0.0\nsamples = 1\nvalue = 1250.0"] ;
1184 -> 1185 ;
1186 [label="postdateint <= 1.9\nmse = 169.4\nsamples = 4\nvalue = 1213.2"] ;
1184 -> 1186 ;
1187 [label="pThirties <= 0.2\nmse = 4.0\nsamples = 2\nvalue = 1199.0"] ;
1186 -> 1187 ;
1188 [label="mse = 0.0\nsamples = 1\nvalue = 1195.0"] ;
1187 -> 1188 ;
1189 [label="mse = 0.0\nsamples = 1\nvalue = 1200.0"] ;
1187 -> 1189 ;
1190 [label="mse = 0.0\nsamples = 2\nvalue = 1225.0"] ;
1186 -> 1190 ;
1191 [label="mse = 0.0\nsamples = 1\nvalue = 1000.0"] ;
1149 -> 1191 ;
1192 [label="pThirties <= 0.6\nmse = 8250.5\nsamples = 6\nvalue = 1262.6"] ;
1128 -> 1192 ;
1193 [label="sqft <= -0.5\nmse = 5216.8\nsamples = 4\nvalue = 1227.4"] ;
1192 -> 1193 ;
1194 [label="mse = 0.0\nsamples = 1\nvalue = 1049.0"] ;
1193 -> 1194 ;
1195 [label="pYouths <= -0.4\nmse = 1867.3\nsamples = 3\nvalue = 1247.2"] ;
1193 -> 1195 ;
1196 [label="mse = 0.0\nsamples = 1\nvalue = 1200.0"] ;
1195 -> 1196 ;
1197 [label="postdateint <= -0.9\nmse = 150.0\nsamples = 2\nvalue = 1285.0"] ;
1195 -> 1197 ;
1198 [label="mse = 0.0\nsamples = 1\nvalue = 1300.0"] ;
1197 -> 1198 ;
1199 [label="mse = 0.0\nsamples = 1\nvalue = 1275.0"] ;
1197 -> 1199 ;
1200 [label="postdateint <= 1.7\nmse = 450.0\nsamples = 2\nvalue = 1380.0"] ;
1192 -> 1200 ;
1201 [label="mse = 0.0\nsamples = 1\nvalue = 1395.0"] ;
1200 -> 1201 ;
1202 [label="mse = 0.0\nsamples = 1\nvalue = 1350.0"] ;
1200 -> 1202 ;
1203 [label="pk_4.0 <= 0.4\nmse = 113.6\nsamples = 3\nvalue = 961.3"] ;
1127 -> 1203 ;
1204 [label="pThirties <= 0.4\nmse = 30.2\nsamples = 2\nvalue = 954.5"] ;
1203 -> 1204 ;
1205 [label="mse = 0.0\nsamples = 1\nvalue = 949.0"] ;
1204 -> 1205 ;
1206 [label="mse = 0.0\nsamples = 1\nvalue = 960.0"] ;
1204 -> 1206 ;
1207 [label="mse = 0.0\nsamples = 1\nvalue = 975.0"] ;
1203 -> 1207 ;
1208 [label="pYouths <= 0.5\nmse = 19626.6\nsamples = 200\nvalue = 1246.7"] ;
1058 -> 1208 ;
1209 [label="ty_1.0 <= -0.8\nmse = 18422.4\nsamples = 115\nvalue = 1283.8"] ;
1208 -> 1209 ;
1210 [label="sqft <= -0.2\nmse = 19327.7\nsamples = 11\nvalue = 1435.6"] ;
1209 -> 1210 ;
1211 [label="pTwenties <= 0.5\nmse = 6942.2\nsamples = 3\nvalue = 1273.8"] ;
1210 -> 1211 ;
1212 [label="pTwenties <= -0.1\nmse = 2256.2\nsamples = 2\nvalue = 1197.5"] ;
1211 -> 1212 ;
1213 [label="mse = 0.0\nsamples = 1\nvalue = 1150.0"] ;
1212 -> 1213 ;
1214 [label="mse = 0.0\nsamples = 1\nvalue = 1245.0"] ;
1212 -> 1214 ;
1215 [label="mse = 0.0\nsamples = 1\nvalue = 1350.0"] ;
1211 -> 1215 ;
1216 [label="postdateint <= 0.3\nmse = 11810.2\nsamples = 8\nvalue = 1489.6"] ;
1210 -> 1216 ;
1217 [label="pTwenties <= -0.8\nmse = 4416.0\nsamples = 4\nvalue = 1582.0"] ;
1216 -> 1217 ;
1218 [label="ld_4.0 <= 1.5\nmse = 450.0\nsamples = 2\nvalue = 1530.0"] ;
1217 -> 1218 ;
1219 [label="mse = 0.0\nsamples = 1\nvalue = 1545.0"] ;
1218 -> 1219 ;
1220 [label="mse = 0.0\nsamples = 1\nvalue = 1500.0"] ;
1218 -> 1220 ;
1221 [label="pTwenties <= 0.1\nmse = 225.0\nsamples = 2\nvalue = 1660.0"] ;
1217 -> 1221 ;
1222 [label="mse = 0.0\nsamples = 1\nvalue = 1675.0"] ;
1221 -> 1222 ;
1223 [label="mse = 0.0\nsamples = 1\nvalue = 1645.0"] ;
1221 -> 1223 ;
1224 [label="pk_4.0 <= 0.4\nmse = 6633.7\nsamples = 4\nvalue = 1423.6"] ;
1216 -> 1224 ;
1225 [label="sqft <= -0.0\nmse = 5817.2\nsamples = 3\nvalue = 1373.8"] ;
1224 -> 1225 ;
1226 [label="pk_5.0 <= 1.5\nmse = 6.2\nsamples = 2\nvalue = 1297.5"] ;
1225 -> 1226 ;
1227 [label="mse = 0.0\nsamples = 1\nvalue = 1295.0"] ;
1226 -> 1227 ;
1228 [label="mse = 0.0\nsamples = 1\nvalue = 1300.0"] ;
1226 -> 1228 ;
1229 [label="mse = 0.0\nsamples = 1\nvalue = 1450.0"] ;
1225 -> 1229 ;
1230 [label="mse = 0.0\nsamples = 1\nvalue = 1490.0"] ;
1224 -> 1230 ;
1231 [label="postdateint <= 0.3\nmse = 15760.4\nsamples = 104\nvalue = 1268.4"] ;
1209 -> 1231 ;
1232 [label="sqft <= -0.0\nmse = 13832.4\nsamples = 58\nvalue = 1236.6"] ;
1231 -> 1232 ;
1233 [label="pSixtyPlus <= 1.5\nmse = 12286.2\nsamples = 50\nvalue = 1220.6"] ;
1232 -> 1233 ;
1234 [label="postdateint <= -0.6\nmse = 10798.8\nsamples = 48\nvalue = 1227.5"] ;
1233 -> 1234 ;
1235 [label="pTwenties <= -0.7\nmse = 5553.8\nsamples = 15\nvalue = 1188.1"] ;
1234 -> 1235 ;
1236 [label="pFifties <= 1.0\nmse = 853.1\nsamples = 3\nvalue = 1105.7"] ;
1235 -> 1236 ;
1237 [label="postdateint <= -1.3\nmse = 96.0\nsamples = 2\nvalue = 1088.0"] ;
1236 -> 1237 ;
1238 [label="mse = 0.0\nsamples = 1\nvalue = 1100.0"] ;
1237 -> 1238 ;
1239 [label="mse = 0.0\nsamples = 1\nvalue = 1080.0"] ;
1237 -> 1239 ;
1240 [label="mse = 0.0\nsamples = 1\nvalue = 1150.0"] ;
1236 -> 1240 ;
1241 [label="pThirties <= -0.5\nmse = 3541.3\nsamples = 12\nvalue = 1222.1"] ;
1235 -> 1241 ;
1242 [label="mse = 0.0\nsamples = 1\nvalue = 1380.0"] ;
1241 -> 1242 ;
1243 [label="pk_5.0 <= 1.5\nmse = 2106.2\nsamples = 11\nvalue = 1212.2"] ;
1241 -> 1243 ;
1244 [label="postdateint <= -1.3\nmse = 1182.2\nsamples = 9\nvalue = 1196.5"] ;
1243 -> 1244 ;
1245 [label="mse = 0.0\nsamples = 1\nvalue = 1095.0"] ;
1244 -> 1245 ;
1246 [label="postdateint <= -0.6\nmse = 350.0\nsamples = 8\nvalue = 1205.0"] ;
1244 -> 1246 ;
1247 [label="pYouths <= -0.0\nmse = 223.1\nsamples = 7\nvalue = 1208.6"] ;
1246 -> 1247 ;
1248 [label="mse = 0.0\nsamples = 3\nvalue = 1195.0"] ;
1247 -> 1248 ;
1249 [label="sqft <= -0.3\nmse = 125.0\nsamples = 4\nvalue = 1220.0"] ;
1247 -> 1249 ;
1250 [label="mse = 0.0\nsamples = 1\nvalue = 1195.0"] ;
1249 -> 1250 ;
1251 [label="mse = 0.0\nsamples = 3\nvalue = 1225.0"] ;
1249 -> 1251 ;
1252 [label="mse = 0.0\nsamples = 1\nvalue = 1165.0"] ;
1246 -> 1252 ;
1253 [label="sqft <= -0.3\nmse = 450.0\nsamples = 2\nvalue = 1280.0"] ;
1243 -> 1253 ;
1254 [label="mse = 0.0\nsamples = 1\nvalue = 1295.0"] ;
1253 -> 1254 ;
1255 [label="mse = 0.0\nsamples = 1\nvalue = 1250.0"] ;
1253 -> 1255 ;
1256 [label="medianIncome <= -1.0\nmse = 12215.0\nsamples = 33\nvalue = 1246.4"] ;
1234 -> 1256 ;
1257 [label="pk_3.0 <= 1.3\nmse = 18218.6\nsamples = 9\nvalue = 1185.4"] ;
1256 -> 1257 ;
1258 [label="ld_4.0 <= 1.5\nmse = 5586.2\nsamples = 8\nvalue = 1237.5"] ;
1257 -> 1258 ;
1259 [label="postdateint <= -0.4\nmse = 4590.2\nsamples = 7\nvalue = 1215.6"] ;
1258 -> 1259 ;
1260 [label="postdateint <= -0.4\nmse = 311.8\nsamples = 5\nvalue = 1189.2"] ;
1259 -> 1260 ;
1261 [label="sqft <= -0.3\nmse = 6.0\nsamples = 4\nvalue = 1197.0"] ;
1260 -> 1261 ;
1262 [label="mse = 0.0\nsamples = 2\nvalue = 1200.0"] ;
1261 -> 1262 ;
1263 [label="mse = 0.0\nsamples = 2\nvalue = 1195.0"] ;
1261 -> 1263 ;
1264 [label="mse = 0.0\nsamples = 1\nvalue = 1150.0"] ;
1260 -> 1264 ;
1265 [label="pSixtyPlus <= -1.2\nmse = 9025.0\nsamples = 2\nvalue = 1295.0"] ;
1259 -> 1265 ;
1266 [label="mse = 0.0\nsamples = 1\nvalue = 1390.0"] ;
1265 -> 1266 ;
1267 [label="mse = 0.0\nsamples = 1\nvalue = 1200.0"] ;
1265 -> 1267 ;
1268 [label="mse = 0.0\nsamples = 1\nvalue = 1325.0"] ;
1258 -> 1268 ;
1269 [label="mse = 0.0\nsamples = 1\nvalue = 925.0"] ;
1257 -> 1269 ;
1270 [label="postdateint <= 0.2\nmse = 8773.9\nsamples = 24\nvalue = 1265.7"] ;
1256 -> 1270 ;
