digraph Tree {
node [shape=box, style="rounded", color="black", fontname=helvetica] ;
edge [fontname=helvetica] ;
0 [label="sqft <= 0.3\nmse = 152645.1\nsamples = 2894\nvalue = 1476.5"] ;
1 [label="ld_1.0 <= -0.1\nmse = 96416.9\nsamples = 1985\nvalue = 1322.5"] ;
0 -> 1 [labeldistance=2.5, labelangle=45, headlabel="True"] ;
2 [label="sqft <= -0.4\nmse = 50106.6\nsamples = 1084\nvalue = 1147.2"] ;
1 -> 2 ;
3 [label="sqft <= -0.7\nmse = 25539.5\nsamples = 621\nvalue = 1038.4"] ;
2 -> 3 ;
4 [label="sqft <= -1.1\nmse = 19693.4\nsamples = 438\nvalue = 1001.1"] ;
3 -> 4 ;
5 [label="ld_5.0 <= 5.6\nmse = 14079.7\nsamples = 158\nvalue = 956.4"] ;
4 -> 5 ;
6 [label="medianIncome <= -1.6\nmse = 12846.9\nsamples = 156\nvalue = 962.1"] ;
5 -> 6 ;
7 [label="ld_4.0 <= 1.5\nmse = 8582.6\nsamples = 15\nvalue = 1056.5"] ;
6 -> 7 ;
8 [label="ty_2.0 <= 2.1\nmse = 6491.3\nsamples = 6\nvalue = 992.7"] ;
7 -> 8 ;
9 [label="postdateint <= 2.2\nmse = 3821.8\nsamples = 5\nvalue = 973.0"] ;
8 -> 9 ;
10 [label="postdateint <= -0.2\nmse = 2669.1\nsamples = 4\nvalue = 958.4"] ;
9 -> 10 ;
11 [label="mse = 0.0\nsamples = 1\nvalue = 1025.0"] ;
10 -> 11 ;
12 [label="postdateint <= 1.1\nmse = 1255.0\nsamples = 3\nvalue = 931.8"] ;
10 -> 12 ;
13 [label="postdateint <= -0.1\nmse = 18.0\nsamples = 2\nvalue = 903.0"] ;
12 -> 13 ;
14 [label="mse = 0.0\nsamples = 1\nvalue = 900.0"] ;
13 -> 14 ;
15 [label="mse = 0.0\nsamples = 1\nvalue = 909.0"] ;
13 -> 15 ;
16 [label="mse = 0.0\nsamples = 1\nvalue = 975.0"] ;
12 -> 16 ;
17 [label="mse = 0.0\nsamples = 1\nvalue = 1075.0"] ;
9 -> 17 ;
18 [label="mse = 0.0\nsamples = 1\nvalue = 1150.0"] ;
8 -> 18 ;
19 [label="postdateint <= -0.2\nmse = 6574.0\nsamples = 9\nvalue = 1088.4"] ;
7 -> 19 ;
20 [label="sqft <= -1.5\nmse = 5154.0\nsamples = 3\nvalue = 1147.0"] ;
19 -> 20 ;
21 [label="mse = 6728.0\nsamples = 2\nvalue = 1141.0"] ;
20 -> 21 ;
22 [label="mse = 0.0\nsamples = 1\nvalue = 1165.0"] ;
20 -> 22 ;
23 [label="postdateint <= 0.4\nmse = 5717.8\nsamples = 6\nvalue = 1071.6"] ;
19 -> 23 ;
24 [label="postdateint <= -0.1\nmse = 5931.9\nsamples = 5\nvalue = 1081.9"] ;
23 -> 24 ;
25 [label="mse = 0.0\nsamples = 1\nvalue = 1035.0"] ;
24 -> 25 ;
26 [label="ty_2.0 <= 2.1\nmse = 6252.9\nsamples = 4\nvalue = 1086.2"] ;
24 -> 26 ;
27 [label="mse = 6857.2\nsamples = 3\nvalue = 1084.8"] ;
26 -> 27 ;
28 [label="mse = 0.0\nsamples = 1\nvalue = 1100.0"] ;
26 -> 28 ;
29 [label="mse = 0.0\nsamples = 1\nvalue = 1010.0"] ;
23 -> 29 ;
30 [label="sqft <= -1.4\nmse = 12151.0\nsamples = 141\nvalue = 950.6"] ;
6 -> 30 ;
31 [label="ty_2.0 <= 2.1\nmse = 7380.0\nsamples = 32\nvalue = 864.5"] ;
30 -> 31 ;
32 [label="pForties <= 1.2\nmse = 3571.5\nsamples = 25\nvalue = 895.4"] ;
31 -> 32 ;
33 [label="sqft <= -1.5\nmse = 2586.6\nsamples = 24\nvalue = 883.5"] ;
32 -> 33 ;
34 [label="pForties <= -0.6\nmse = 1902.5\nsamples = 23\nvalue = 888.1"] ;
33 -> 34 ;
35 [label="postdateint <= -0.1\nmse = 506.2\nsamples = 2\nvalue = 972.5"] ;
34 -> 35 ;
36 [label="mse = 0.0\nsamples = 1\nvalue = 950.0"] ;
35 -> 36 ;
37 [label="mse = 0.0\nsamples = 1\nvalue = 995.0"] ;
35 -> 37 ;
38 [label="pFifties <= 1.1\nmse = 1516.9\nsamples = 21\nvalue = 882.8"] ;
34 -> 38 ;
39 [label="postdateint <= 0.5\nmse = 1337.3\nsamples = 20\nvalue = 885.5"] ;
38 -> 39 ;
40 [label="sqft <= -1.5\nmse = 1090.0\nsamples = 9\nvalue = 867.2"] ;
39 -> 40 ;
41 [label="pYouths <= 0.4\nmse = 925.2\nsamples = 8\nvalue = 874.2"] ;
40 -> 41 ;
42 [label="postdateint <= -0.2\nmse = 324.0\nsamples = 3\nvalue = 904.0"] ;
41 -> 42 ;
43 [label="mse = 0.0\nsamples = 2\nvalue = 895.0"] ;
42 -> 43 ;
44 [label="mse = 0.0\nsamples = 1\nvalue = 940.0"] ;
42 -> 44 ;
45 [label="pSixtyPlus <= 0.4\nmse = 270.9\nsamples = 5\nvalue = 853.0"] ;
41 -> 45 ;
46 [label="pThirties <= -0.2\nmse = 108.0\nsamples = 2\nvalue = 843.0"] ;
45 -> 46 ;
47 [label="mse = 0.0\nsamples = 1\nvalue = 825.0"] ;
46 -> 47 ;
48 [label="mse = 0.0\nsamples = 1\nvalue = 849.0"] ;
46 -> 48 ;
49 [label="postdateint <= -0.6\nmse = 176.9\nsamples = 3\nvalue = 866.3"] ;
45 -> 49 ;
50 [label="postdateint <= -1.2\nmse = 4.0\nsamples = 2\nvalue = 857.0"] ;
49 -> 50 ;
51 [label="mse = 0.0\nsamples = 1\nvalue = 859.0"] ;
50 -> 51 ;
52 [label="mse = 0.0\nsamples = 1\nvalue = 855.0"] ;
50 -> 52 ;
53 [label="mse = 0.0\nsamples = 1\nvalue = 885.0"] ;
49 -> 53 ;
54 [label="mse = 0.0\nsamples = 1\nvalue = 825.0"] ;
40 -> 54 ;
55 [label="medianIncome <= 0.7\nmse = 1037.9\nsamples = 11\nvalue = 900.6"] ;
39 -> 55 ;
56 [label="postdateint <= 1.2\nmse = 859.0\nsamples = 10\nvalue = 904.4"] ;
55 -> 56 ;
57 [label="postdateint <= 1.0\nmse = 770.9\nsamples = 8\nvalue = 899.3"] ;
56 -> 57 ;
58 [label="pFifties <= -0.8\nmse = 381.2\nsamples = 4\nvalue = 910.0"] ;
57 -> 58 ;
59 [label="mse = 0.0\nsamples = 1\nvalue = 860.0"] ;
58 -> 59 ;
60 [label="pFifties <= -0.1\nmse = 27.6\nsamples = 3\nvalue = 917.1"] ;
58 -> 60 ;
61 [label="mse = 0.0\nsamples = 1\nvalue = 930.0"] ;
60 -> 61 ;
62 [label="mse = 0.0\nsamples = 2\nvalue = 915.0"] ;
60 -> 62 ;
63 [label="sqft <= -1.6\nmse = 933.3\nsamples = 4\nvalue = 885.0"] ;
57 -> 63 ;
64 [label="pk_5.0 <= 1.5\nmse = 1100.0\nsamples = 3\nvalue = 875.0"] ;
63 -> 64 ;
65 [label="postdateint <= 1.1\nmse = 355.6\nsamples = 2\nvalue = 891.7"] ;
64 -> 65 ;
66 [label="mse = 0.0\nsamples = 1\nvalue = 905.0"] ;
65 -> 66 ;
67 [label="mse = 0.0\nsamples = 1\nvalue = 865.0"] ;
65 -> 67 ;
68 [label="mse = 0.0\nsamples = 1\nvalue = 825.0"] ;
64 -> 68 ;
69 [label="mse = 0.0\nsamples = 1\nvalue = 905.0"] ;
63 -> 69 ;
70 [label="pForties <= 0.1\nmse = 25.0\nsamples = 2\nvalue = 940.0"] ;
56 -> 70 ;
71 [label="mse = 0.0\nsamples = 1\nvalue = 935.0"] ;
70 -> 71 ;
72 [label="mse = 0.0\nsamples = 1\nvalue = 945.0"] ;
70 -> 72 ;
73 [label="mse = 0.0\nsamples = 1\nvalue = 840.0"] ;
55 -> 73 ;
74 [label="mse = 0.0\nsamples = 1\nvalue = 800.0"] ;
38 -> 74 ;
75 [label="mse = 0.0\nsamples = 1\nvalue = 725.0"] ;
33 -> 75 ;
76 [label="mse = 0.0\nsamples = 1\nvalue = 1000.0"] ;
32 -> 76 ;
77 [label="sqft <= -1.6\nmse = 1802.5\nsamples = 7\nvalue = 730.6"] ;
31 -> 77 ;
78 [label="pThirties <= 0.3\nmse = 1429.7\nsamples = 4\nvalue = 768.8"] ;
77 -> 78 ;
79 [label="postdateint <= 1.0\nmse = 6.2\nsamples = 2\nvalue = 732.5"] ;
78 -> 79 ;
80 [label="mse = 0.0\nsamples = 1\nvalue = 735.0"] ;
79 -> 80 ;
81 [label="mse = 0.0\nsamples = 1\nvalue = 730.0"] ;
79 -> 81 ;
82 [label="pFifties <= -0.4\nmse = 225.0\nsamples = 2\nvalue = 805.0"] ;
78 -> 82 ;
83 [label="mse = 0.0\nsamples = 1\nvalue = 820.0"] ;
82 -> 83 ;
84 [label="mse = 0.0\nsamples = 1\nvalue = 790.0"] ;
82 -> 84 ;
85 [label="mse = 0.0\nsamples = 3\nvalue = 700.0"] ;
77 -> 85 ;
86 [label="pSixtyPlus <= 0.6\nmse = 10855.0\nsamples = 109\nvalue = 974.4"] ;
30 -> 86 ;
87 [label="pk_2.0 <= 0.0\nmse = 10534.5\nsamples = 98\nvalue = 981.8"] ;
86 -> 87 ;
88 [label="pFifties <= -0.0\nmse = 5456.0\nsamples = 85\nvalue = 972.0"] ;
87 -> 88 ;
89 [label="sqft <= -1.1\nmse = 4727.7\nsamples = 66\nvalue = 959.9"] ;
88 -> 89 ;
90 [label="postdateint <= -1.5\nmse = 3736.2\nsamples = 63\nvalue = 955.2"] ;
89 -> 90 ;
91 [label="pFifties <= -0.8\nmse = 7200.0\nsamples = 2\nvalue = 1035.0"] ;
90 -> 91 ;
92 [label="mse = 0.0\nsamples = 1\nvalue = 915.0"] ;
91 -> 92 ;
93 [label="mse = 0.0\nsamples = 1\nvalue = 1095.0"] ;
91 -> 93 ;
94 [label="pYouths <= 1.1\nmse = 3432.2\nsamples = 61\nvalue = 952.7"] ;
90 -> 94 ;
95 [label="sqft <= -1.4\nmse = 3446.8\nsamples = 58\nvalue = 955.6"] ;
94 -> 95 ;
96 [label="postdateint <= 1.7\nmse = 2228.1\nsamples = 13\nvalue = 975.4"] ;
95 -> 96 ;
97 [label="pk_4.0 <= 0.4\nmse = 1876.5\nsamples = 11\nvalue = 966.0"] ;
96 -> 97 ;
98 [label="pk_7.0 <= 7.7\nmse = 543.8\nsamples = 4\nvalue = 940.0"] ;
97 -> 98 ;
99 [label="pForties <= -0.1\nmse = 654.0\nsamples = 3\nvalue = 949.0"] ;
98 -> 99 ;
100 [label="mse = 0.0\nsamples = 1\nvalue = 925.0"] ;
99 -> 100 ;
101 [label="postdateint <= -0.0\nmse = 450.0\nsamples = 2\nvalue = 965.0"] ;
99 -> 101 ;
102 [label="mse = 0.0\nsamples = 1\nvalue = 950.0"] ;
101 -> 102 ;
103 [label="mse = 0.0\nsamples = 1\nvalue = 995.0"] ;
101 -> 103 ;
104 [label="mse = 0.0\nsamples = 1\nvalue = 925.0"] ;
98 -> 104 ;
105 [label="pTwenties <= 0.6\nmse = 2013.9\nsamples = 7\nvalue = 983.3"] ;
97 -> 105 ;
106 [label="postdateint <= 0.4\nmse = 1469.4\nsamples = 3\nvalue = 1003.6"] ;
105 -> 106 ;
107 [label="mse = 1600.0\nsamples = 2\nvalue = 1015.0"] ;
106 -> 107 ;
108 [label="mse = 0.0\nsamples = 1\nvalue = 975.0"] ;
106 -> 108 ;
109 [label="postdateint <= 0.6\nmse = 1400.0\nsamples = 4\nvalue = 955.0"] ;
105 -> 109 ;
110 [label="ld_3.0 <= 0.3\nmse = 555.6\nsamples = 3\nvalue = 928.3"] ;
109 -> 110 ;
111 [label="mse = 0.0\nsamples = 1\nvalue = 895.0"] ;
110 -> 111 ;
112 [label="mse = 0.0\nsamples = 2\nvalue = 945.0"] ;
110 -> 112 ;
113 [label="mse = 0.0\nsamples = 1\nvalue = 995.0"] ;
109 -> 113 ;
114 [label="pYouths <= -0.9\nmse = 22.2\nsamples = 2\nvalue = 1038.3"] ;
96 -> 114 ;
115 [label="mse = 0.0\nsamples = 1\nvalue = 1035.0"] ;
114 -> 115 ;
116 [label="mse = 0.0\nsamples = 1\nvalue = 1045.0"] ;
114 -> 116 ;
117 [label="sqft <= -1.3\nmse = 3673.7\nsamples = 45\nvalue = 949.2"] ;
95 -> 117 ;
118 [label="pYouths <= -0.1\nmse = 1244.9\nsamples = 4\nvalue = 908.6"] ;
117 -> 118 ;
119 [label="postdateint <= -0.1\nmse = 355.6\nsamples = 2\nvalue = 955.7"] ;
118 -> 119 ;
120 [label="mse = 0.0\nsamples = 1\nvalue = 969.0"] ;
119 -> 120 ;
121 [label="mse = 0.0\nsamples = 1\nvalue = 929.0"] ;
119 -> 121 ;
122 [label="postdateint <= 0.5\nmse = 25.0\nsamples = 2\nvalue = 885.0"] ;
118 -> 122 ;
123 [label="mse = 0.0\nsamples = 1\nvalue = 880.0"] ;
122 -> 123 ;
124 [label="mse = 0.0\nsamples = 1\nvalue = 890.0"] ;
122 -> 124 ;
125 [label="ld_3.0 <= 0.3\nmse = 3751.2\nsamples = 41\nvalue = 955.1"] ;
117 -> 125 ;
126 [label="sqft <= -1.2\nmse = 5.6\nsamples = 2\nvalue = 896.7"] ;
125 -> 126 ;
127 [label="mse = 0.0\nsamples = 1\nvalue = 900.0"] ;
126 -> 127 ;
128 [label="mse = 0.0\nsamples = 1\nvalue = 895.0"] ;
126 -> 128 ;
129 [label="pk_4.0 <= 0.4\nmse = 3758.9\nsamples = 39\nvalue = 958.1"] ;
125 -> 129 ;
130 [label="pSixtyPlus <= -0.7\nmse = 6346.4\nsamples = 10\nvalue = 989.9"] ;
129 -> 130 ;
131 [label="pk_3.0 <= 1.3\nmse = 4912.5\nsamples = 4\nvalue = 1075.0"] ;
130 -> 131 ;
132 [label="pYouths <= 0.2\nmse = 672.2\nsamples = 3\nvalue = 1113.3"] ;
131 -> 132 ;
133 [label="mse = 0.0\nsamples = 2\nvalue = 1095.0"] ;
132 -> 133 ;
134 [label="mse = 0.0\nsamples = 1\nvalue = 1150.0"] ;
132 -> 134 ;
135 [label="mse = 0.0\nsamples = 1\nvalue = 960.0"] ;
131 -> 135 ;
136 [label="postdateint <= 1.1\nmse = 664.2\nsamples = 6\nvalue = 941.3"] ;
130 -> 136 ;
137 [label="sqft <= -1.2\nmse = 255.4\nsamples = 4\nvalue = 932.8"] ;
136 -> 137 ;
138 [label="sqft <= -1.2\nmse = 156.8\nsamples = 3\nvalue = 938.5"] ;
137 -> 138 ;
139 [label="pTwenties <= 0.5\nmse = 22.2\nsamples = 2\nvalue = 931.7"] ;
138 -> 139 ;
140 [label="mse = 0.0\nsamples = 1\nvalue = 925.0"] ;
139 -> 140 ;
141 [label="mse = 0.0\nsamples = 1\nvalue = 935.0"] ;
139 -> 141 ;
142 [label="mse = 0.0\nsamples = 1\nvalue = 959.0"] ;
138 -> 142 ;
143 [label="mse = 0.0\nsamples = 1\nvalue = 910.0"] ;
137 -> 143 ;
144 [label="postdateint <= 1.7\nmse = 1056.2\nsamples = 2\nvalue = 962.5"] ;
136 -> 144 ;
145 [label="mse = 0.0\nsamples = 1\nvalue = 995.0"] ;
144 -> 145 ;
146 [label="mse = 0.0\nsamples = 1\nvalue = 930.0"] ;
144 -> 146 ;
147 [label="pForties <= -0.0\nmse = 2881.2\nsamples = 29\nvalue = 950.8"] ;
129 -> 147 ;
148 [label="postdateint <= -0.1\nmse = 2987.5\nsamples = 24\nvalue = 957.4"] ;
147 -> 148 ;
149 [label="sqft <= -1.3\nmse = 2565.9\nsamples = 6\nvalue = 982.1"] ;
148 -> 149 ;
150 [label="mse = 0.0\nsamples = 1\nvalue = 1087.0"] ;
149 -> 150 ;
151 [label="pSixtyPlus <= -0.2\nmse = 1611.8\nsamples = 5\nvalue = 971.6"] ;
149 -> 151 ;
152 [label="postdateint <= -0.9\nmse = 769.8\nsamples = 3\nvalue = 1006.6"] ;
151 -> 152 ;
153 [label="sqft <= -1.3\nmse = 43.6\nsamples = 2\nvalue = 984.3"] ;
152 -> 153 ;
154 [label="mse = 0.0\nsamples = 1\nvalue = 989.0"] ;
153 -> 154 ;
155 [label="mse = 0.0\nsamples = 1\nvalue = 975.0"] ;
153 -> 155 ;
156 [label="mse = 0.0\nsamples = 1\nvalue = 1040.0"] ;
152 -> 156 ;
157 [label="pForties <= -0.4\nmse = 3.8\nsamples = 2\nvalue = 936.6"] ;
151 -> 157 ;
158 [label="mse = 0.0\nsamples = 1\nvalue = 939.0"] ;
157 -> 158 ;
159 [label="mse = 0.0\nsamples = 1\nvalue = 935.0"] ;
157 -> 159 ;
160 [label="postdateint <= 0.5\nmse = 2837.6\nsamples = 18\nvalue = 948.4"] ;
148 -> 160 ;
161 [label="sqft <= -1.2\nmse = 2325.0\nsamples = 14\nvalue = 940.9"] ;
160 -> 161 ;
162 [label="postdateint <= 0.0\nmse = 1905.1\nsamples = 13\nvalue = 936.3"] ;
161 -> 162 ;
163 [label="postdateint <= -0.0\nmse = 1890.5\nsamples = 11\nvalue = 946.7"] ;
162 -> 163 ;
164 [label="sqft <= -1.3\nmse = 608.3\nsamples = 6\nvalue = 930.0"] ;
163 -> 164 ;
165 [label="mse = 138.9\nsamples = 3\nvalue = 908.3"] ;
164 -> 165 ;
166 [label="pThirties <= 0.6\nmse = 138.9\nsamples = 3\nvalue = 951.7"] ;
164 -> 166 ;
167 [label="postdateint <= -0.1\nmse = 36.0\nsamples = 2\nvalue = 947.0"] ;
166 -> 167 ;
168 [label="mse = 0.0\nsamples = 1\nvalue = 950.0"] ;
167 -> 168 ;
169 [label="mse = 0.0\nsamples = 1\nvalue = 935.0"] ;
167 -> 169 ;
170 [label="mse = 0.0\nsamples = 1\nvalue = 975.0"] ;
166 -> 170 ;
171 [label="medianIncome <= -0.9\nmse = 2793.3\nsamples = 5\nvalue = 975.3"] ;
163 -> 171 ;
172 [label="postdateint <= 0.0\nmse = 722.0\nsamples = 2\nvalue = 1014.0"] ;
171 -> 172 ;
173 [label="mse = 0.0\nsamples = 1\nvalue = 995.0"] ;
172 -> 173 ;
174 [label="mse = 0.0\nsamples = 1\nvalue = 1052.0"] ;
172 -> 174 ;
175 [label="postdateint <= 0.0\nmse = 2379.7\nsamples = 3\nvalue = 946.2"] ;
171 -> 175 ;
176 [label="postdateint <= 0.0\nmse = 2005.6\nsamples = 2\nvalue = 963.3"] ;
175 -> 176 ;
177 [label="mse = 0.0\nsamples = 1\nvalue = 900.0"] ;
176 -> 177 ;
178 [label="mse = 0.0\nsamples = 1\nvalue = 995.0"] ;
176 -> 178 ;
179 [label="mse = 0.0\nsamples = 1\nvalue = 895.0"] ;
175 -> 179 ;
180 [label="sqft <= -1.3\nmse = 6.0\nsamples = 2\nvalue = 897.0"] ;
162 -> 180 ;
181 [label="mse = 0.0\nsamples = 1\nvalue = 895.0"] ;
180 -> 181 ;
182 [label="mse = 0.0\nsamples = 1\nvalue = 900.0"] ;
180 -> 182 ;
183 [label="mse = 0.0\nsamples = 1\nvalue = 1050.0"] ;
161 -> 183 ;
184 [label="postdateint <= 1.6\nmse = 3704.0\nsamples = 4\nvalue = 986.0"] ;
160 -> 184 ;
185 [label="mse = 0.0\nsamples = 1\nvalue = 1060.0"] ;
184 -> 185 ;
186 [label="pForties <= -0.4\nmse = 88.9\nsamples = 3\nvalue = 936.7"] ;
184 -> 186 ;
187 [label="mse = 0.0\nsamples = 1\nvalue = 950.0"] ;
186 -> 187 ;
188 [label="mse = 0.0\nsamples = 2\nvalue = 930.0"] ;
186 -> 188 ;
189 [label="postdateint <= -0.7\nmse = 506.1\nsamples = 5\nvalue = 912.1"] ;
147 -> 189 ;
190 [label="mse = 0.0\nsamples = 1\nvalue = 895.0"] ;
189 -> 190 ;
191 [label="postdateint <= 0.0\nmse = 544.0\nsamples = 4\nvalue = 919.0"] ;
189 -> 191 ;
192 [label="postdateint <= -0.1\nmse = 88.9\nsamples = 2\nvalue = 931.7"] ;
191 -> 192 ;
193 [label="mse = 0.0\nsamples = 1\nvalue = 945.0"] ;
192 -> 193 ;
194 [label="mse = 0.0\nsamples = 1\nvalue = 925.0"] ;
192 -> 194 ;
195 [label="mse = 625.0\nsamples = 2\nvalue = 900.0"] ;
191 -> 195 ;
196 [label="postdateint <= 0.4\nmse = 2.4\nsamples = 3\nvalue = 898.0"] ;
94 -> 196 ;
197 [label="pSixtyPlus <= -1.0\nmse = 0.2\nsamples = 2\nvalue = 898.8"] ;
196 -> 197 ;
198 [label="mse = 0.0\nsamples = 1\nvalue = 899.0"] ;
197 -> 198 ;
199 [label="mse = 0.0\nsamples = 1\nvalue = 898.0"] ;
197 -> 199 ;
200 [label="mse = 0.0\nsamples = 1\nvalue = 895.0"] ;
196 -> 200 ;
201 [label="pTwenties <= 0.2\nmse = 15012.5\nsamples = 3\nvalue = 1080.0"] ;
89 -> 201 ;
202 [label="pk_5.0 <= 1.5\nmse = 1225.0\nsamples = 2\nvalue = 960.0"] ;
201 -> 202 ;
203 [label="mse = 0.0\nsamples = 1\nvalue = 995.0"] ;
202 -> 203 ;
204 [label="mse = 0.0\nsamples = 1\nvalue = 925.0"] ;
202 -> 204 ;
205 [label="mse = 0.0\nsamples = 1\nvalue = 1200.0"] ;
201 -> 205 ;
206 [label="pSixtyPlus <= -0.1\nmse = 5830.6\nsamples = 19\nvalue = 1009.9"] ;
88 -> 206 ;
207 [label="mse = 0.0\nsamples = 1\nvalue = 1150.0"] ;
206 -> 207 ;
208 [label="sqft <= -1.2\nmse = 3642.4\nsamples = 18\nvalue = 991.2"] ;
206 -> 208 ;
209 [label="postdateint <= 1.1\nmse = 2104.2\nsamples = 15\nvalue = 1012.8"] ;
208 -> 209 ;
210 [label="pTwenties <= -0.9\nmse = 1850.7\nsamples = 14\nvalue = 1009.0"] ;
209 -> 210 ;
211 [label="postdateint <= 0.5\nmse = 504.7\nsamples = 6\nvalue = 1033.8"] ;
210 -> 211 ;
212 [label="pk_3.0 <= 1.3\nmse = 5.6\nsamples = 4\nvalue = 1046.7"] ;
211 -> 212 ;
213 [label="mse = 0.0\nsamples = 2\nvalue = 1050.0"] ;
212 -> 213 ;
214 [label="mse = 0.0\nsamples = 2\nvalue = 1045.0"] ;
212 -> 214 ;
215 [label="mse = 0.0\nsamples = 2\nvalue = 995.0"] ;
211 -> 215 ;
216 [label="postdateint <= -0.8\nmse = 2067.6\nsamples = 8\nvalue = 995.8"] ;
210 -> 216 ;
217 [label="mse = 0.0\nsamples = 1\nvalue = 870.0"] ;
216 -> 217 ;
218 [label="pSixtyPlus <= -0.1\nmse = 1004.2\nsamples = 7\nvalue = 1004.8"] ;
216 -> 218 ;
219 [label="mse = 0.0\nsamples = 2\nvalue = 1045.0"] ;
218 -> 219 ;
220 [label="sqft <= -1.3\nmse = 164.5\nsamples = 5\nvalue = 982.4"] ;
218 -> 220 ;
221 [label="pSixtyPlus <= 0.2\nmse = 107.7\nsamples = 4\nvalue = 985.4"] ;
220 -> 221 ;
222 [label="mse = 0.0\nsamples = 2\nvalue = 975.0"] ;
221 -> 222 ;
223 [label="postdateint <= -0.1\nmse = 0.2\nsamples = 2\nvalue = 995.8"] ;
221 -> 223 ;
224 [label="mse = 0.0\nsamples = 1\nvalue = 995.0"] ;
223 -> 224 ;
225 [label="mse = 0.0\nsamples = 1\nvalue = 996.0"] ;
223 -> 225 ;
226 [label="mse = 0.0\nsamples = 1\nvalue = 959.0"] ;
220 -> 226 ;
227 [label="mse = 0.0\nsamples = 1\nvalue = 1100.0"] ;
209 -> 227 ;
228 [label="pk_4.0 <= 0.4\nmse = 500.0\nsamples = 3\nvalue = 905.0"] ;
208 -> 228 ;
229 [label="mse = 0.0\nsamples = 2\nvalue = 895.0"] ;
228 -> 229 ;
230 [label="mse = 0.0\nsamples = 1\nvalue = 955.0"] ;
228 -> 230 ;
231 [label="sqft <= -1.3\nmse = 39496.2\nsamples = 13\nvalue = 1047.0"] ;
87 -> 231 ;
232 [label="postdateint <= -0.9\nmse = 2177.8\nsamples = 6\nvalue = 895.8"] ;
231 -> 232 ;
233 [label="pThirties <= 0.3\nmse = 4022.2\nsamples = 3\nvalue = 863.3"] ;
232 -> 233 ;
234 [label="mse = 0.0\nsamples = 1\nvalue = 950.0"] ;
233 -> 234 ;
235 [label="mse = 400.0\nsamples = 2\nvalue = 820.0"] ;
233 -> 235 ;
236 [label="postdateint <= -0.3\nmse = 741.9\nsamples = 3\nvalue = 909.7"] ;
232 -> 236 ;
237 [label="mse = 0.0\nsamples = 1\nvalue = 973.0"] ;
236 -> 237 ;
238 [label="pYouths <= -1.0\nmse = 86.8\nsamples = 2\nvalue = 899.2"] ;
236 -> 238 ;
239 [label="mse = 0.0\nsamples = 1\nvalue = 920.0"] ;
238 -> 239 ;
240 [label="mse = 0.0\nsamples = 1\nvalue = 895.0"] ;
238 -> 240 ;
241 [label="pTwenties <= 0.8\nmse = 33720.2\nsamples = 7\nvalue = 1184.5"] ;
231 -> 241 ;
242 [label="sqft <= -1.3\nmse = 15245.1\nsamples = 4\nvalue = 1040.8"] ;
241 -> 242 ;
243 [label="mse = 4225.0\nsamples = 2\nvalue = 1195.0"] ;
242 -> 243 ;
244 [label="pTwenties <= 0.5\nmse = 2929.7\nsamples = 2\nvalue = 963.8"] ;
242 -> 244 ;
245 [label="mse = 0.0\nsamples = 1\nvalue = 995.0"] ;
244 -> 245 ;
246 [label="mse = 0.0\nsamples = 1\nvalue = 870.0"] ;
244 -> 246 ;
247 [label="postdateint <= 0.4\nmse = 1366.0\nsamples = 3\nvalue = 1357.0"] ;
241 -> 247 ;
248 [label="ty_1.0 <= -0.8\nmse = 506.2\nsamples = 2\nvalue = 1372.5"] ;
247 -> 248 ;
249 [label="mse = 0.0\nsamples = 1\nvalue = 1395.0"] ;
248 -> 249 ;
250 [label="mse = 0.0\nsamples = 1\nvalue = 1350.0"] ;
248 -> 250 ;
251 [label="mse = 0.0\nsamples = 1\nvalue = 1295.0"] ;
247 -> 251 ;
252 [label="postdateint <= 0.5\nmse = 5762.9\nsamples = 11\nvalue = 882.8"] ;
86 -> 252 ;
253 [label="postdateint <= -0.1\nmse = 1338.2\nsamples = 5\nvalue = 934.6"] ;
252 -> 253 ;
254 [label="pFifties <= 1.8\nmse = 323.6\nsamples = 3\nvalue = 909.7"] ;
253 -> 254 ;
255 [label="pFifties <= 0.5\nmse = 4.0\nsamples = 2\nvalue = 897.0"] ;
254 -> 255 ;
256 [label="mse = 0.0\nsamples = 1\nvalue = 899.0"] ;
255 -> 256 ;
257 [label="mse = 0.0\nsamples = 1\nvalue = 895.0"] ;
255 -> 257 ;
258 [label="mse = 0.0\nsamples = 1\nvalue = 935.0"] ;
254 -> 258 ;
259 [label="medianIncome <= -0.2\nmse = 529.0\nsamples = 2\nvalue = 972.0"] ;
253 -> 259 ;
260 [label="mse = 0.0\nsamples = 1\nvalue = 995.0"] ;
259 -> 260 ;
261 [label="mse = 0.0\nsamples = 1\nvalue = 949.0"] ;
259 -> 261 ;
262 [label="pSixtyPlus <= 0.7\nmse = 5808.0\nsamples = 6\nvalue = 850.5"] ;
252 -> 262 ;
263 [label="mse = 0.0\nsamples = 1\nvalue = 650.0"] ;
262 -> 263 ;
264 [label="pTwenties <= -0.8\nmse = 74.4\nsamples = 5\nvalue = 879.1"] ;
262 -> 264 ;
265 [label="mse = 0.0\nsamples = 1\nvalue = 900.0"] ;
264 -> 265 ;
266 [label="pFifties <= 0.5\nmse = 2.2\nsamples = 4\nvalue = 875.7"] ;
264 -> 266 ;
267 [label="mse = 0.0\nsamples = 3\nvalue = 875.0"] ;
266 -> 267 ;
268 [label="mse = 0.0\nsamples = 1\nvalue = 879.0"] ;
266 -> 268 ;
269 [label="pForties <= -2.2\nmse = 6806.2\nsamples = 2\nvalue = 717.5"] ;
5 -> 269 ;
270 [label="mse = 0.0\nsamples = 1\nvalue = 800.0"] ;
269 -> 270 ;
271 [label="mse = 0.0\nsamples = 1\nvalue = 635.0"] ;
269 -> 271 ;
272 [label="pYouths <= -0.1\nmse = 21141.4\nsamples = 280\nvalue = 1027.9"] ;
4 -> 272 ;
273 [label="pk_2.0 <= 0.0\nmse = 20778.5\nsamples = 90\nvalue = 1084.8"] ;
272 -> 273 ;
274 [label="pThirties <= -0.9\nmse = 12374.9\nsamples = 78\nvalue = 1063.5"] ;
273 -> 274 ;
275 [label="postdateint <= -0.1\nmse = 19.4\nsamples = 3\nvalue = 1293.6"] ;
274 -> 275 ;
276 [label="mse = 0.0\nsamples = 1\nvalue = 1299.0"] ;
275 -> 276 ;
277 [label="mse = 0.0\nsamples = 2\nvalue = 1290.0"] ;
275 -> 277 ;
278 [label="number bedrooms <= -0.1\nmse = 10381.6\nsamples = 75\nvalue = 1052.8"] ;
274 -> 278 ;
279 [label="pYouths <= -1.6\nmse = 9588.8\nsamples = 64\nvalue = 1037.9"] ;
278 -> 279 ;
280 [label="pk_7.0 <= 7.7\nmse = 18988.7\nsamples = 14\nvalue = 986.8"] ;
279 -> 280 ;
281 [label="pk_4.0 <= 0.4\nmse = 7461.2\nsamples = 13\nvalue = 961.1"] ;
280 -> 281 ;
282 [label="sqft <= -0.9\nmse = 2844.4\nsamples = 7\nvalue = 905.0"] ;
281 -> 282 ;
283 [label="sqft <= -0.9\nmse = 1388.9\nsamples = 5\nvalue = 883.3"] ;
282 -> 283 ;
284 [label="ld_4.0 <= 1.5\nmse = 555.6\nsamples = 3\nvalue = 916.7"] ;
283 -> 284 ;
285 [label="mse = 0.0\nsamples = 1\nvalue = 950.0"] ;
284 -> 285 ;
286 [label="mse = 0.0\nsamples = 2\nvalue = 900.0"] ;
284 -> 286 ;
287 [label="mse = 0.0\nsamples = 2\nvalue = 850.0"] ;
283 -> 287 ;
288 [label="ld_3.0 <= 0.3\nmse = 2938.9\nsamples = 2\nvalue = 948.3"] ;
282 -> 288 ;
289 [label="mse = 0.0\nsamples = 1\nvalue = 1025.0"] ;
288 -> 289 ;
290 [label="mse = 0.0\nsamples = 1\nvalue = 910.0"] ;
288 -> 290 ;
291 [label="medianIncome <= 0.2\nmse = 5793.4\nsamples = 6\nvalue = 1017.1"] ;
281 -> 291 ;
292 [label="ld_3.0 <= 0.3\nmse = 2326.8\nsamples = 5\nvalue = 1063.2"] ;
291 -> 292 ;
293 [label="mse = 0.0\nsamples = 1\nvalue = 995.0"] ;
292 -> 293 ;
294 [label="ty_2.0 <= 2.1\nmse = 5.2\nsamples = 4\nvalue = 1097.2"] ;
292 -> 294 ;
295 [label="sqft <= -0.9\nmse = 0.2\nsamples = 2\nvalue = 1099.5"] ;
294 -> 295 ;
296 [label="mse = 0.0\nsamples = 1\nvalue = 1099.0"] ;
295 -> 296 ;
297 [label="mse = 0.0\nsamples = 1\nvalue = 1100.0"] ;
295 -> 297 ;
298 [label="mse = 0.0\nsamples = 2\nvalue = 1095.0"] ;
294 -> 298 ;
299 [label="mse = 0.0\nsamples = 1\nvalue = 925.0"] ;
291 -> 299 ;
300 [label="mse = 0.0\nsamples = 1\nvalue = 1450.0"] ;
280 -> 300 ;
301 [label="sqft <= -0.8\nmse = 6333.3\nsamples = 50\nvalue = 1051.0"] ;
279 -> 301 ;
302 [label="pk_7.0 <= 7.7\nmse = 5172.0\nsamples = 45\nvalue = 1040.8"] ;
301 -> 302 ;
303 [label="sqft <= -0.9\nmse = 5007.0\nsamples = 44\nvalue = 1045.1"] ;
302 -> 303 ;
304 [label="sqft <= -1.0\nmse = 8242.3\nsamples = 20\nvalue = 1064.6"] ;
303 -> 304 ;
305 [label="postdateint <= -1.5\nmse = 2640.1\nsamples = 17\nvalue = 1034.2"] ;
304 -> 305 ;
306 [label="mse = 0.0\nsamples = 1\nvalue = 1095.0"] ;
305 -> 306 ;
307 [label="postdateint <= -0.1\nmse = 2426.6\nsamples = 16\nvalue = 1025.9"] ;
305 -> 307 ;
308 [label="sqft <= -1.0\nmse = 2493.2\nsamples = 11\nvalue = 1005.6"] ;
307 -> 308 ;
309 [label="ld_4.0 <= 1.5\nmse = 2324.5\nsamples = 8\nvalue = 982.1"] ;
308 -> 309 ;
310 [label="postdateint <= -1.4\nmse = 2156.4\nsamples = 7\nvalue = 989.2"] ;
309 -> 310 ;
311 [label="pForties <= -0.1\nmse = 2553.8\nsamples = 4\nvalue = 998.8"] ;
310 -> 311 ;
312 [label="mse = 600.2\nsamples = 2\nvalue = 974.5"] ;
311 -> 312 ;
313 [label="sqft <= -1.0\nmse = 3200.0\nsamples = 2\nvalue = 1015.0"] ;
311 -> 313 ;
314 [label="mse = 0.0\nsamples = 1\nvalue = 1095.0"] ;
313 -> 314 ;
315 [label="mse = 0.0\nsamples = 1\nvalue = 975.0"] ;
313 -> 315 ;
316 [label="pYouths <= -0.2\nmse = 1088.9\nsamples = 3\nvalue = 973.3"] ;
310 -> 316 ;
317 [label="mse = 0.0\nsamples = 2\nvalue = 950.0"] ;
316 -> 317 ;
318 [label="mse = 0.0\nsamples = 1\nvalue = 1020.0"] ;
316 -> 318 ;
319 [label="mse = 0.0\nsamples = 1\nvalue = 925.0"] ;
309 -> 319 ;
320 [label="postdateint <= -0.8\nmse = 6.0\nsamples = 3\nvalue = 1048.0"] ;
308 -> 320 ;
321 [label="mse = 0.0\nsamples = 1\nvalue = 1045.0"] ;
320 -> 321 ;
322 [label="mse = 0.0\nsamples = 2\nvalue = 1050.0"] ;
320 -> 322 ;
323 [label="pYouths <= -0.3\nmse = 342.2\nsamples = 5\nvalue = 1061.2"] ;
307 -> 323 ;
324 [label="mse = 0.0\nsamples = 2\nvalue = 1045.0"] ;
323 -> 324 ;
325 [label="sqft <= -1.0\nmse = 294.0\nsamples = 3\nvalue = 1071.0"] ;
323 -> 325 ;
326 [label="mse = 0.0\nsamples = 2\nvalue = 1085.0"] ;
325 -> 326 ;
327 [label="mse = 0.0\nsamples = 1\nvalue = 1050.0"] ;
325 -> 327 ;
328 [label="postdateint <= 1.1\nmse = 1212.5\nsamples = 3\nvalue = 1255.0"] ;
304 -> 328 ;
329 [label="pk_5.0 <= 1.5\nmse = 272.2\nsamples = 2\nvalue = 1273.3"] ;
328 -> 329 ;
330 [label="mse = 0.0\nsamples = 1\nvalue = 1285.0"] ;
329 -> 330 ;
331 [label="mse = 0.0\nsamples = 1\nvalue = 1250.0"] ;
329 -> 331 ;
332 [label="mse = 0.0\nsamples = 1\nvalue = 1200.0"] ;
328 -> 332 ;
333 [label="postdateint <= 0.9\nmse = 1646.9\nsamples = 24\nvalue = 1028.5"] ;
303 -> 333 ;
334 [label="postdateint <= -0.8\nmse = 1887.5\nsamples = 14\nvalue = 1048.2"] ;
333 -> 334 ;
335 [label="pSixtyPlus <= -0.3\nmse = 169.0\nsamples = 2\nvalue = 1012.0"] ;
334 -> 335 ;
336 [label="mse = 0.0\nsamples = 1\nvalue = 999.0"] ;
335 -> 336 ;
337 [label="mse = 0.0\nsamples = 1\nvalue = 1025.0"] ;
335 -> 337 ;
338 [label="postdateint <= -0.1\nmse = 1917.8\nsamples = 12\nvalue = 1052.8"] ;
334 -> 338 ;
339 [label="ld_3.0 <= 0.3\nmse = 306.2\nsamples = 2\nvalue = 1112.5"] ;
338 -> 339 ;
340 [label="mse = 0.0\nsamples = 1\nvalue = 1095.0"] ;
339 -> 340 ;
341 [label="mse = 0.0\nsamples = 1\nvalue = 1130.0"] ;
339 -> 341 ;
342 [label="ld_4.0 <= 1.5\nmse = 1565.2\nsamples = 10\nvalue = 1044.2"] ;
338 -> 342 ;
343 [label="medianIncome <= 0.2\nmse = 1569.3\nsamples = 7\nvalue = 1035.9"] ;
342 -> 343 ;
344 [label="postdateint <= -0.0\nmse = 832.7\nsamples = 6\nvalue = 1045.4"] ;
343 -> 344 ;
345 [label="mse = 0.0\nsamples = 2\nvalue = 1095.0"] ;
344 -> 345 ;
346 [label="medianIncome <= -0.7\nmse = 168.5\nsamples = 4\nvalue = 1031.3"] ;
344 -> 346 ;
347 [label="postdateint <= 0.5\nmse = 48.0\nsamples = 3\nvalue = 1021.0"] ;
346 -> 347 ;
348 [label="mse = 0.0\nsamples = 1\nvalue = 1025.0"] ;
347 -> 348 ;
349 [label="ty_1.0 <= -0.8\nmse = 64.0\nsamples = 2\nvalue = 1017.0"] ;
347 -> 349 ;
350 [label="mse = 0.0\nsamples = 1\nvalue = 1025.0"] ;
349 -> 350 ;
351 [label="mse = 0.0\nsamples = 1\nvalue = 1009.0"] ;
349 -> 351 ;
352 [label="mse = 0.0\nsamples = 1\nvalue = 1045.0"] ;
346 -> 352 ;
353 [label="mse = 0.0\nsamples = 1\nvalue = 950.0"] ;
343 -> 353 ;
354 [label="postdateint <= 0.4\nmse = 950.0\nsamples = 3\nvalue = 1065.0"] ;
342 -> 354 ;
355 [label="mse = 0.0\nsamples = 1\nvalue = 1025.0"] ;
354 -> 355 ;
356 [label="mse = 555.6\nsamples = 2\nvalue = 1078.3"] ;
354 -> 356 ;
357 [label="pSixtyPlus <= -0.3\nmse = 446.3\nsamples = 10\nvalue = 1006.3"] ;
333 -> 357 ;
358 [label="postdateint <= 0.9\nmse = 207.8\nsamples = 7\nvalue = 1000.5"] ;
357 -> 358 ;
359 [label="ld_3.0 <= 0.3\nmse = 452.6\nsamples = 3\nvalue = 1007.6"] ;
358 -> 359 ;
360 [label="mse = 0.0\nsamples = 1\nvalue = 995.0"] ;
359 -> 360 ;
361 [label="sqft <= -0.9\nmse = 578.0\nsamples = 2\nvalue = 1016.0"] ;
359 -> 361 ;
362 [label="mse = 0.0\nsamples = 1\nvalue = 1050.0"] ;
361 -> 362 ;
363 [label="mse = 0.0\nsamples = 1\nvalue = 999.0"] ;
361 -> 363 ;
364 [label="postdateint <= 1.5\nmse = 3.0\nsamples = 4\nvalue = 996.0"] ;
358 -> 364 ;
365 [label="mse = 0.0\nsamples = 3\nvalue = 995.0"] ;
364 -> 365 ;
366 [label="mse = 0.0\nsamples = 1\nvalue = 999.0"] ;
364 -> 366 ;
367 [label="ld_3.0 <= 0.3\nmse = 688.9\nsamples = 3\nvalue = 1031.7"] ;
357 -> 367 ;
368 [label="postdateint <= 1.6\nmse = 625.0\nsamples = 2\nvalue = 1020.0"] ;
367 -> 368 ;
369 [label="mse = 0.0\nsamples = 1\nvalue = 1045.0"] ;
368 -> 369 ;
370 [label="mse = 0.0\nsamples = 1\nvalue = 995.0"] ;
368 -> 370 ;
371 [label="mse = 0.0\nsamples = 1\nvalue = 1055.0"] ;
367 -> 371 ;
372 [label="mse = 0.0\nsamples = 1\nvalue = 950.0"] ;
302 -> 372 ;
373 [label="postdateint <= 1.0\nmse = 8000.0\nsamples = 5\nvalue = 1135.0"] ;
301 -> 373 ;
374 [label="ty_2.0 <= 2.1\nmse = 6656.0\nsamples = 4\nvalue = 1087.0"] ;
373 -> 374 ;
375 [label="medianIncome <= -0.7\nmse = 400.0\nsamples = 2\nvalue = 995.0"] ;
374 -> 375 ;
376 [label="mse = 0.0\nsamples = 1\nvalue = 975.0"] ;
375 -> 376 ;
377 [label="mse = 0.0\nsamples = 1\nvalue = 1015.0"] ;
375 -> 377 ;
378 [label="postdateint <= -0.2\nmse = 1422.2\nsamples = 2\nvalue = 1148.3"] ;
374 -> 378 ;
379 [label="mse = 0.0\nsamples = 1\nvalue = 1095.0"] ;
378 -> 379 ;
380 [label="mse = 0.0\nsamples = 1\nvalue = 1175.0"] ;
378 -> 380 ;
381 [label="mse = 0.0\nsamples = 1\nvalue = 1215.0"] ;
373 -> 381 ;
382 [label="sqft <= -0.9\nmse = 5328.0\nsamples = 11\nvalue = 1145.5"] ;
278 -> 382 ;
383 [label="postdateint <= 1.0\nmse = 4550.1\nsamples = 5\nvalue = 1083.2"] ;
382 -> 383 ;
384 [label="postdateint <= -0.2\nmse = 166.9\nsamples = 3\nvalue = 1016.3"] ;
383 -> 384 ;
385 [label="mse = 0.0\nsamples = 1\nvalue = 999.0"] ;
384 -> 385 ;
386 [label="pk_4.0 <= 0.4\nmse = 25.0\nsamples = 2\nvalue = 1025.0"] ;
384 -> 386 ;
387 [label="mse = 0.0\nsamples = 1\nvalue = 1030.0"] ;
386 -> 387 ;
388 [label="mse = 0.0\nsamples = 1\nvalue = 1020.0"] ;
386 -> 388 ;
389 [label="mse = 0.0\nsamples = 2\nvalue = 1150.0"] ;
383 -> 389 ;
390 [label="pFifties <= 0.9\nmse = 1534.0\nsamples = 6\nvalue = 1187.0"] ;
382 -> 390 ;
391 [label="sqft <= -0.9\nmse = 323.3\nsamples = 5\nvalue = 1206.1"] ;
390 -> 391 ;
392 [label="mse = 0.0\nsamples = 1\nvalue = 1250.0"] ;
391 -> 392 ;
393 [label="pSixtyPlus <= -0.4\nmse = 3.1\nsamples = 4\nvalue = 1198.8"] ;
391 -> 393 ;
394 [label="mse = 0.0\nsamples = 1\nvalue = 1195.0"] ;
393 -> 394 ;
395 [label="sqft <= -0.8\nmse = 0.2\nsamples = 3\nvalue = 1199.6"] ;
393 -> 395 ;
396 [label="mse = 0.0\nsamples = 1\nvalue = 1199.0"] ;
395 -> 396 ;
397 [label="mse = 0.0\nsamples = 2\nvalue = 1200.0"] ;
395 -> 397 ;
398 [label="mse = 0.0\nsamples = 1\nvalue = 1120.0"] ;
390 -> 398 ;
399 [label="sqft <= -0.9\nmse = 53458.7\nsamples = 12\nvalue = 1226.8"] ;
273 -> 399 ;
400 [label="mse = 0.0\nsamples = 2\nvalue = 1590.0"] ;
399 -> 400 ;
401 [label="pSixtyPlus <= -1.4\nmse = 16819.2\nsamples = 10\nvalue = 1115.0"] ;
399 -> 401 ;
402 [label="postdateint <= 0.5\nmse = 4116.7\nsamples = 3\nvalue = 1280.0"] ;
401 -> 402 ;
403 [label="ty_1.0 <= -0.8\nmse = 756.2\nsamples = 2\nvalue = 1322.5"] ;
402 -> 403 ;
404 [label="mse = 0.0\nsamples = 1\nvalue = 1350.0"] ;
403 -> 404 ;
405 [label="mse = 0.0\nsamples = 1\nvalue = 1295.0"] ;
403 -> 405 ;
406 [label="mse = 0.0\nsamples = 1\nvalue = 1195.0"] ;
402 -> 406 ;
407 [label="sqft <= -0.8\nmse = 10012.2\nsamples = 7\nvalue = 1065.5"] ;
401 -> 407 ;
408 [label="ty_1.0 <= -0.8\nmse = 3076.0\nsamples = 4\nvalue = 1003.0"] ;
407 -> 408 ;
409 [label="mse = 0.0\nsamples = 1\nvalue = 920.0"] ;
408 -> 409 ;
410 [label="postdateint <= 0.9\nmse = 1692.2\nsamples = 3\nvalue = 1023.8"] ;
408 -> 410 ;
411 [label="mse = 0.0\nsamples = 1\nvalue = 1000.0"] ;
410 -> 411 ;
412 [label="mse = 2005.6\nsamples = 2\nvalue = 1031.7"] ;
410 -> 412 ;
413 [label="postdateint <= -0.8\nmse = 9136.0\nsamples = 3\nvalue = 1128.0"] ;
407 -> 413 ;
414 [label="mse = 0.0\nsamples = 1\nvalue = 1050.0"] ;
413 -> 414 ;
415 [label="postdateint <= -0.2\nmse = 25.0\nsamples = 2\nvalue = 1245.0"] ;
413 -> 415 ;
416 [label="mse = 0.0\nsamples = 1\nvalue = 1240.0"] ;
415 -> 416 ;
417 [label="mse = 0.0\nsamples = 1\nvalue = 1250.0"] ;
415 -> 417 ;
418 [label="pTwenties <= -1.4\nmse = 19246.1\nsamples = 190\nvalue = 1002.9"] ;
272 -> 418 ;
419 [label="postdateint <= -1.4\nmse = 1897.7\nsamples = 8\nvalue = 1244.1"] ;
418 -> 419 ;
420 [label="mse = 0.0\nsamples = 1\nvalue = 1150.0"] ;
419 -> 420 ;
421 [label="postdateint <= -0.2\nmse = 1113.6\nsamples = 7\nvalue = 1253.5"] ;
419 -> 421 ;
422 [label="postdateint <= -0.8\nmse = 1180.3\nsamples = 6\nvalue = 1251.1"] ;
421 -> 422 ;
423 [label="pk_3.0 <= 1.3\nmse = 611.2\nsamples = 3\nvalue = 1248.3"] ;
422 -> 423 ;
424 [label="mse = 0.0\nsamples = 1\nvalue = 1250.0"] ;
423 -> 424 ;
425 [label="mse = 1216.9\nsamples = 2\nvalue = 1246.7"] ;
423 -> 425 ;
426 [label="mse = 2272.2\nsamples = 3\nvalue = 1256.7"] ;
422 -> 426 ;
427 [label="mse = 0.0\nsamples = 1\nvalue = 1275.0"] ;
421 -> 427 ;
428 [label="ty_4.0 <= 1.7\nmse = 17576.7\nsamples = 182\nvalue = 993.5"] ;
418 -> 428 ;
429 [label="pTwenties <= -0.9\nmse = 11698.9\nsamples = 175\nvalue = 983.0"] ;
428 -> 429 ;
430 [label="pForties <= 1.3\nmse = 6924.4\nsamples = 44\nvalue = 941.7"] ;
429 -> 430 ;
431 [label="pSixtyPlus <= 1.3\nmse = 4806.9\nsamples = 27\nvalue = 916.6"] ;
430 -> 431 ;
432 [label="sqft <= -0.9\nmse = 4553.1\nsamples = 19\nvalue = 895.8"] ;
431 -> 432 ;
433 [label="pSixtyPlus <= 0.7\nmse = 2351.7\nsamples = 7\nvalue = 852.3"] ;
432 -> 433 ;
434 [label="ld_3.0 <= 0.3\nmse = 1105.6\nsamples = 3\nvalue = 796.7"] ;
433 -> 434 ;
435 [label="pForties <= 0.7\nmse = 25.0\nsamples = 2\nvalue = 820.0"] ;
434 -> 435 ;
436 [label="mse = 0.0\nsamples = 1\nvalue = 815.0"] ;
435 -> 436 ;
437 [label="mse = 0.0\nsamples = 1\nvalue = 825.0"] ;
435 -> 437 ;
438 [label="mse = 0.0\nsamples = 1\nvalue = 750.0"] ;
434 -> 438 ;
439 [label="postdateint <= -0.7\nmse = 1224.6\nsamples = 4\nvalue = 873.1"] ;
433 -> 439 ;
440 [label="postdateint <= -1.3\nmse = 4.0\nsamples = 2\nvalue = 849.0"] ;
439 -> 440 ;
441 [label="mse = 0.0\nsamples = 1\nvalue = 850.0"] ;
440 -> 441 ;
442 [label="mse = 0.0\nsamples = 1\nvalue = 845.0"] ;
440 -> 442 ;
443 [label="sqft <= -0.9\nmse = 672.2\nsamples = 2\nvalue = 913.3"] ;
439 -> 443 ;
444 [label="mse = 0.0\nsamples = 1\nvalue = 950.0"] ;
443 -> 444 ;
445 [label="mse = 0.0\nsamples = 1\nvalue = 895.0"] ;
443 -> 445 ;
446 [label="ld_4.0 <= 1.5\nmse = 3956.5\nsamples = 12\nvalue = 924.0"] ;
432 -> 446 ;
447 [label="pFifties <= 0.9\nmse = 1969.4\nsamples = 11\nvalue = 941.2"] ;
446 -> 447 ;
448 [label="postdateint <= -0.7\nmse = 561.0\nsamples = 8\nvalue = 918.0"] ;
447 -> 448 ;
449 [label="medianIncome <= -0.4\nmse = 200.0\nsamples = 4\nvalue = 905.0"] ;
448 -> 449 ;
450 [label="mse = 0.0\nsamples = 2\nvalue = 895.0"] ;
449 -> 450 ;
451 [label="mse = 0.0\nsamples = 2\nvalue = 925.0"] ;
449 -> 451 ;
452 [label="pThirties <= 0.0\nmse = 468.8\nsamples = 4\nvalue = 937.5"] ;
448 -> 452 ;
453 [label="mse = 0.0\nsamples = 2\nvalue = 950.0"] ;
452 -> 453 ;
454 [label="postdateint <= 1.1\nmse = 625.0\nsamples = 2\nvalue = 925.0"] ;
452 -> 454 ;
455 [label="mse = 0.0\nsamples = 1\nvalue = 900.0"] ;
454 -> 455 ;
456 [label="mse = 0.0\nsamples = 1\nvalue = 950.0"] ;
454 -> 456 ;
457 [label="pSixtyPlus <= 0.1\nmse = 1556.6\nsamples = 3\nvalue = 987.6"] ;
447 -> 457 ;
458 [label="mse = 0.0\nsamples = 1\nvalue = 945.0"] ;
457 -> 458 ;
459 [label="medianIncome <= 0.1\nmse = 578.0\nsamples = 2\nvalue = 1016.0"] ;
457 -> 459 ;
460 [label="mse = 0.0\nsamples = 1\nvalue = 999.0"] ;
459 -> 460 ;
461 [label="mse = 0.0\nsamples = 1\nvalue = 1050.0"] ;
459 -> 461 ;
462 [label="mse = 0.0\nsamples = 1\nvalue = 795.0"] ;
446 -> 462 ;
463 [label="ld_3.0 <= 0.3\nmse = 1560.2\nsamples = 8\nvalue = 969.5"] ;
431 -> 463 ;
464 [label="mse = 0.0\nsamples = 1\nvalue = 1045.0"] ;
463 -> 464 ;
465 [label="postdateint <= -1.3\nmse = 1088.5\nsamples = 7\nvalue = 961.9"] ;
463 -> 465 ;
466 [label="postdateint <= -1.3\nmse = 88.9\nsamples = 3\nvalue = 931.7"] ;
465 -> 466 ;
467 [label="mse = 0.0\nsamples = 2\nvalue = 925.0"] ;
466 -> 467 ;
468 [label="mse = 0.0\nsamples = 1\nvalue = 945.0"] ;
466 -> 468 ;
469 [label="postdateint <= 1.0\nmse = 957.3\nsamples = 4\nvalue = 974.9"] ;
465 -> 469 ;
470 [label="sqft <= -0.8\nmse = 505.2\nsamples = 3\nvalue = 997.2"] ;
469 -> 470 ;
471 [label="pYouths <= 0.4\nmse = 56.9\nsamples = 2\nvalue = 1009.7"] ;
470 -> 471 ;
472 [label="mse = 0.0\nsamples = 1\nvalue = 1015.0"] ;
471 -> 472 ;
473 [label="mse = 0.0\nsamples = 1\nvalue = 999.0"] ;
471 -> 473 ;
474 [label="mse = 0.0\nsamples = 1\nvalue = 960.0"] ;
470 -> 474 ;
475 [label="mse = 0.0\nsamples = 1\nvalue = 945.0"] ;
469 -> 475 ;
476 [label="postdateint <= -0.2\nmse = 7760.0\nsamples = 17\nvalue = 977.9"] ;
430 -> 476 ;
477 [label="pk_4.0 <= 0.4\nmse = 3537.1\nsamples = 5\nvalue = 1061.3"] ;
476 -> 477 ;
478 [label="mse = 0.0\nsamples = 1\nvalue = 925.0"] ;
477 -> 478 ;
479 [label="sqft <= -0.9\nmse = 515.0\nsamples = 4\nvalue = 1084.0"] ;
477 -> 479 ;
480 [label="ld_4.0 <= 1.5\nmse = 0.2\nsamples = 2\nvalue = 1099.8"] ;
479 -> 480 ;
481 [label="mse = 0.0\nsamples = 1\nvalue = 1099.0"] ;
480 -> 481 ;
482 [label="mse = 0.0\nsamples = 1\nvalue = 1100.0"] ;
480 -> 482 ;
483 [label="pTwenties <= -1.2\nmse = 56.2\nsamples = 2\nvalue = 1052.5"] ;
479 -> 483 ;
484 [label="mse = 0.0\nsamples = 1\nvalue = 1060.0"] ;
483 -> 484 ;
485 [label="mse = 0.0\nsamples = 1\nvalue = 1045.0"] ;
483 -> 485 ;
486 [label="pk_5.0 <= 1.5\nmse = 5954.7\nsamples = 12\nvalue = 948.8"] ;
476 -> 486 ;
487 [label="sqft <= -0.9\nmse = 3487.7\nsamples = 10\nvalue = 931.1"] ;
486 -> 487 ;
488 [label="ld_4.0 <= 1.5\nmse = 2500.0\nsamples = 2\nvalue = 1000.0"] ;
487 -> 488 ;
489 [label="mse = 0.0\nsamples = 1\nvalue = 950.0"] ;
488 -> 489 ;
490 [label="mse = 0.0\nsamples = 1\nvalue = 1050.0"] ;
488 -> 490 ;
491 [label="sqft <= -0.8\nmse = 2026.5\nsamples = 8\nvalue = 911.4"] ;
487 -> 491 ;
492 [label="sqft <= -0.9\nmse = 230.9\nsamples = 5\nvalue = 883.1"] ;
491 -> 492 ;
493 [label="postdateint <= -0.1\nmse = 96.0\nsamples = 4\nvalue = 873.0"] ;
492 -> 493 ;
494 [label="mse = 0.0\nsamples = 2\nvalue = 865.0"] ;
493 -> 494 ;
495 [label="mse = 0.0\nsamples = 2\nvalue = 885.0"] ;
493 -> 495 ;
496 [label="mse = 0.0\nsamples = 1\nvalue = 900.0"] ;
492 -> 496 ;
497 [label="ld_4.0 <= 1.5\nmse = 1928.5\nsamples = 3\nvalue = 949.2"] ;
491 -> 497 ;
498 [label="ty_1.0 <= -0.8\nmse = 2688.9\nsamples = 2\nvalue = 973.3"] ;
497 -> 498 ;
499 [label="mse = 0.0\nsamples = 1\nvalue = 900.0"] ;
498 -> 499 ;
500 [label="mse = 0.0\nsamples = 1\nvalue = 1010.0"] ;
498 -> 500 ;
501 [label="mse = 0.0\nsamples = 1\nvalue = 925.0"] ;
497 -> 501 ;
502 [label="postdateint <= 0.4\nmse = 156.2\nsamples = 2\nvalue = 1107.5"] ;
486 -> 502 ;
503 [label="mse = 0.0\nsamples = 1\nvalue = 1120.0"] ;
502 -> 503 ;
504 [label="mse = 0.0\nsamples = 1\nvalue = 1095.0"] ;
502 -> 504 ;
505 [label="pSixtyPlus <= 0.1\nmse = 12505.0\nsamples = 131\nvalue = 996.3"] ;
429 -> 505 ;
506 [label="number bedrooms <= -0.1\nmse = 12792.1\nsamples = 80\nvalue = 975.7"] ;
505 -> 506 ;
507 [label="pk_3.0 <= 1.3\nmse = 11246.6\nsamples = 74\nvalue = 967.2"] ;
506 -> 507 ;
508 [label="ld_5.0 <= 5.6\nmse = 9486.7\nsamples = 71\nvalue = 962.3"] ;
507 -> 508 ;
509 [label="pTwenties <= -0.6\nmse = 9206.6\nsamples = 70\nvalue = 966.2"] ;
508 -> 509 ;
510 [label="sqft <= -1.0\nmse = 8590.2\nsamples = 18\nvalue = 921.5"] ;
509 -> 510 ;
511 [label="sqft <= -1.0\nmse = 7091.7\nsamples = 9\nvalue = 875.8"] ;
510 -> 511 ;
512 [label="pYouths <= 2.4\nmse = 3496.7\nsamples = 8\nvalue = 903.2"] ;
511 -> 512 ;
513 [label="postdateint <= -0.0\nmse = 1475.2\nsamples = 7\nvalue = 888.5"] ;
512 -> 513 ;
514 [label="medianIncome <= -0.5\nmse = 250.0\nsamples = 4\nvalue = 870.0"] ;
513 -> 514 ;
515 [label="mse = 0.0\nsamples = 1\nvalue = 895.0"] ;
514 -> 515 ;
516 [label="postdateint <= -0.8\nmse = 117.2\nsamples = 3\nvalue = 863.8"] ;
514 -> 516 ;
517 [label="mse = 0.0\nsamples = 1\nvalue = 845.0"] ;
516 -> 517 ;
518 [label="mse = 0.0\nsamples = 2\nvalue = 870.0"] ;
516 -> 518 ;
519 [label="pThirties <= 0.3\nmse = 2016.0\nsamples = 3\nvalue = 907.0"] ;
513 -> 519 ;
520 [label="pForties <= 0.5\nmse = 100.0\nsamples = 2\nvalue = 885.0"] ;
519 -> 520 ;
521 [label="mse = 0.0\nsamples = 1\nvalue = 875.0"] ;
520 -> 521 ;
522 [label="mse = 0.0\nsamples = 1\nvalue = 895.0"] ;
520 -> 522 ;
523 [label="mse = 0.0\nsamples = 1\nvalue = 995.0"] ;
519 -> 523 ;
524 [label="mse = 0.0\nsamples = 1\nvalue = 1050.0"] ;
512 -> 524 ;
525 [label="mse = 0.0\nsamples = 1\nvalue = 725.0"] ;
511 -> 525 ;
526 [label="pk_2.0 <= 0.0\nmse = 5913.2\nsamples = 9\nvalue = 967.2"] ;
510 -> 526 ;
527 [label="medianIncome <= -1.1\nmse = 2964.4\nsamples = 8\nvalue = 942.3"] ;
526 -> 527 ;
528 [label="mse = 0.0\nsamples = 1\nvalue = 850.0"] ;
527 -> 528 ;
529 [label="pThirties <= -0.7\nmse = 1310.6\nsamples = 7\nvalue = 962.8"] ;
527 -> 529 ;
530 [label="postdateint <= -1.3\nmse = 1643.6\nsamples = 2\nvalue = 927.7"] ;
529 -> 530 ;
531 [label="mse = 0.0\nsamples = 1\nvalue = 985.0"] ;
530 -> 531 ;
532 [label="mse = 0.0\nsamples = 1\nvalue = 899.0"] ;
530 -> 532 ;
533 [label="postdateint <= 1.1\nmse = 219.6\nsamples = 5\nvalue = 980.3"] ;
529 -> 533 ;
534 [label="pForties <= 0.5\nmse = 43.6\nsamples = 2\nvalue = 994.3"] ;
533 -> 534 ;
535 [label="mse = 0.0\nsamples = 1\nvalue = 999.0"] ;
534 -> 535 ;
536 [label="mse = 0.0\nsamples = 1\nvalue = 985.0"] ;
534 -> 536 ;
537 [label="sqft <= -0.8\nmse = 3.6\nsamples = 3\nvalue = 966.3"] ;
533 -> 537 ;
538 [label="mse = 0.0\nsamples = 2\nvalue = 965.0"] ;
537 -> 538 ;
539 [label="mse = 0.0\nsamples = 1\nvalue = 969.0"] ;
537 -> 539 ;
540 [label="mse = 0.0\nsamples = 1\nvalue = 1104.0"] ;
526 -> 540 ;
541 [label="pk_2.0 <= 0.0\nmse = 8545.8\nsamples = 52\nvalue = 980.7"] ;
509 -> 541 ;
542 [label="ty_2.0 <= 2.1\nmse = 7911.8\nsamples = 42\nvalue = 996.1"] ;
541 -> 542 ;
543 [label="postdateint <= -1.4\nmse = 6340.8\nsamples = 40\nvalue = 986.8"] ;
542 -> 543 ;
544 [label="pForties <= -0.3\nmse = 1414.0\nsamples = 3\nvalue = 1074.0"] ;
543 -> 544 ;
545 [label="mse = 2222.2\nsamples = 2\nvalue = 1066.7"] ;
544 -> 545 ;
546 [label="mse = 0.0\nsamples = 1\nvalue = 1085.0"] ;
544 -> 546 ;
547 [label="postdateint <= 1.1\nmse = 6058.5\nsamples = 37\nvalue = 979.4"] ;
543 -> 547 ;
548 [label="medianIncome <= -0.6\nmse = 4884.7\nsamples = 30\nvalue = 965.6"] ;
547 -> 548 ;
549 [label="postdateint <= 1.0\nmse = 3759.0\nsamples = 11\nvalue = 922.8"] ;
548 -> 549 ;
550 [label="sqft <= -1.0\nmse = 2884.4\nsamples = 10\nvalue = 935.0"] ;
549 -> 550 ;
551 [label="pThirties <= -1.6\nmse = 154.3\nsamples = 4\nvalue = 911.1"] ;
550 -> 551 ;
552 [label="mse = 0.0\nsamples = 2\nvalue = 925.0"] ;
551 -> 552 ;
553 [label="mse = 0.0\nsamples = 2\nvalue = 900.0"] ;
551 -> 553 ;
554 [label="pThirties <= -1.6\nmse = 4717.3\nsamples = 6\nvalue = 965.7"] ;
550 -> 554 ;
555 [label="mse = 0.0\nsamples = 1\nvalue = 1125.0"] ;
554 -> 555 ;
556 [label="postdateint <= 0.4\nmse = 570.1\nsamples = 5\nvalue = 939.2"] ;
554 -> 556 ;
557 [label="pTwenties <= 0.2\nmse = 216.0\nsamples = 4\nvalue = 948.0"] ;
556 -> 557 ;
558 [label="postdateint <= -0.2\nmse = 42.2\nsamples = 3\nvalue = 941.2"] ;
557 -> 558 ;
559 [label="mse = 0.0\nsamples = 1\nvalue = 930.0"] ;
558 -> 559 ;
560 [label="mse = 0.0\nsamples = 2\nvalue = 945.0"] ;
558 -> 560 ;
561 [label="mse = 0.0\nsamples = 1\nvalue = 975.0"] ;
557 -> 561 ;
562 [label="mse = 0.0\nsamples = 1\nvalue = 895.0"] ;
556 -> 562 ;
563 [label="mse = 0.0\nsamples = 1\nvalue = 825.0"] ;
549 -> 563 ;
564 [label="pk_4.0 <= 0.4\nmse = 3735.5\nsamples = 19\nvalue = 992.2"] ;
548 -> 564 ;
565 [label="sqft <= -0.8\nmse = 3260.3\nsamples = 8\nvalue = 968.2"] ;
564 -> 565 ;
566 [label="postdateint <= 0.9\nmse = 454.7\nsamples = 3\nvalue = 931.2"] ;
565 -> 566 ;
567 [label="mse = 0.0\nsamples = 1\nvalue = 895.0"] ;
566 -> 567 ;
568 [label="pTwenties <= 0.0\nmse = 22.2\nsamples = 2\nvalue = 943.3"] ;
566 -> 568 ;
569 [label="mse = 0.0\nsamples = 1\nvalue = 940.0"] ;
568 -> 569 ;
570 [label="mse = 0.0\nsamples = 1\nvalue = 950.0"] ;
568 -> 570 ;
571 [label="postdateint <= 0.0\nmse = 3638.8\nsamples = 5\nvalue = 989.3"] ;
565 -> 571 ;
572 [label="postdateint <= -0.0\nmse = 1014.0\nsamples = 3\nvalue = 956.0"] ;
571 -> 572 ;
573 [label="mse = 0.0\nsamples = 2\nvalue = 930.0"] ;
572 -> 573 ;
574 [label="mse = 0.0\nsamples = 1\nvalue = 995.0"] ;
572 -> 574 ;
575 [label="medianIncome <= -0.5\nmse = 506.2\nsamples = 2\nvalue = 1072.5"] ;
571 -> 575 ;
576 [label="mse = 0.0\nsamples = 1\nvalue = 1050.0"] ;
575 -> 576 ;
577 [label="mse = 0.0\nsamples = 1\nvalue = 1095.0"] ;
575 -> 577 ;
578 [label="pTwenties <= 0.0\nmse = 3455.9\nsamples = 11\nvalue = 1006.9"] ;
564 -> 578 ;
579 [label="postdateint <= 0.4\nmse = 2759.5\nsamples = 8\nvalue = 984.6"] ;
578 -> 579 ;
580 [label="postdateint <= -0.3\nmse = 2900.6\nsamples = 6\nvalue = 967.2"] ;
579 -> 580 ;
581 [label="mse = 0.0\nsamples = 1\nvalue = 925.0"] ;
580 -> 581 ;
582 [label="postdateint <= -0.1\nmse = 3074.5\nsamples = 5\nvalue = 979.3"] ;
580 -> 582 ;
583 [label="pSixtyPlus <= -0.5\nmse = 272.2\nsamples = 2\nvalue = 1013.3"] ;
582 -> 583 ;
584 [label="mse = 0.0\nsamples = 1\nvalue = 990.0"] ;
583 -> 584 ;
585 [label="mse = 0.0\nsamples = 1\nvalue = 1025.0"] ;
583 -> 585 ;
586 [label="postdateint <= -0.0\nmse = 3654.7\nsamples = 3\nvalue = 953.8"] ;
582 -> 586 ;
587 [label="mse = 0.0\nsamples = 1\nvalue = 850.0"] ;
586 -> 587 ;
588 [label="mse = 88.9\nsamples = 2\nvalue = 988.3"] ;
586 -> 588 ;
589 [label="mse = 229.7\nsamples = 2\nvalue = 1023.8"] ;
579 -> 589 ;
590 [label="postdateint <= -0.1\nmse = 600.0\nsamples = 3\nvalue = 1065.0"] ;
578 -> 590 ;
591 [label="mse = 0.0\nsamples = 1\nvalue = 1045.0"] ;
590 -> 591 ;
592 [label="mse = 0.0\nsamples = 2\nvalue = 1095.0"] ;
590 -> 592 ;
593 [label="ld_4.0 <= 1.5\nmse = 7032.4\nsamples = 7\nvalue = 1033.1"] ;
547 -> 593 ;
594 [label="medianIncome <= -0.5\nmse = 264.1\nsamples = 3\nvalue = 1112.8"] ;
593 -> 594 ;
595 [label="mse = 0.0\nsamples = 1\nvalue = 1129.0"] ;
594 -> 595 ;
596 [label="pForties <= -0.1\nmse = 5.6\nsamples = 2\nvalue = 1096.7"] ;
594 -> 596 ;
597 [label="mse = 0.0\nsamples = 1\nvalue = 1095.0"] ;
596 -> 597 ;
598 [label="mse = 0.0\nsamples = 1\nvalue = 1100.0"] ;
596 -> 598 ;
599 [label="sqft <= -0.7\nmse = 1080.6\nsamples = 4\nvalue = 953.3"] ;
593 -> 599 ;
600 [label="pTwenties <= -0.1\nmse = 334.0\nsamples = 3\nvalue = 966.0"] ;
599 -> 600 ;
601 [label="mse = 0.0\nsamples = 1\nvalue = 1000.0"] ;
600 -> 601 ;
602 [label="pk_5.0 <= 1.5\nmse = 56.2\nsamples = 2\nvalue = 957.5"] ;
600 -> 602 ;
603 [label="mse = 0.0\nsamples = 1\nvalue = 965.0"] ;
602 -> 603 ;
604 [label="mse = 0.0\nsamples = 1\nvalue = 950.0"] ;
602 -> 604 ;
605 [label="mse = 0.0\nsamples = 1\nvalue = 890.0"] ;
599 -> 605 ;
606 [label="mse = 0.0\nsamples = 2\nvalue = 1195.0"] ;
542 -> 606 ;
607 [label="postdateint <= 0.9\nmse = 4328.4\nsamples = 10\nvalue = 901.5"] ;
541 -> 607 ;
608 [label="sqft <= -0.9\nmse = 637.5\nsamples = 3\nvalue = 970.0"] ;
607 -> 608 ;
609 [label="pFifties <= -0.5\nmse = 138.9\nsamples = 2\nvalue = 983.3"] ;
608 -> 609 ;
610 [label="mse = 0.0\nsamples = 1\nvalue = 1000.0"] ;
609 -> 610 ;
611 [label="mse = 0.0\nsamples = 1\nvalue = 975.0"] ;
609 -> 611 ;
612 [label="mse = 0.0\nsamples = 1\nvalue = 930.0"] ;
608 -> 612 ;
613 [label="ty_2.0 <= 2.1\nmse = 2959.9\nsamples = 7\nvalue = 871.1"] ;
607 -> 613 ;
614 [label="sqft <= -0.8\nmse = 2162.5\nsamples = 6\nvalue = 882.5"] ;
613 -> 614 ;
615 [label="mse = 0.0\nsamples = 1\nvalue = 995.0"] ;
614 -> 615 ;
616 [label="postdateint <= 1.0\nmse = 405.1\nsamples = 5\nvalue = 866.4"] ;
614 -> 616 ;
617 [label="mse = 0.0\nsamples = 2\nvalue = 850.0"] ;
616 -> 617 ;
618 [label="postdateint <= 1.6\nmse = 354.7\nsamples = 3\nvalue = 878.8"] ;
616 -> 618 ;
619 [label="postdateint <= 1.1\nmse = 6.2\nsamples = 2\nvalue = 897.5"] ;
618 -> 619 ;
620 [label="mse = 0.0\nsamples = 1\nvalue = 900.0"] ;
619 -> 620 ;
621 [label="mse = 0.0\nsamples = 1\nvalue = 895.0"] ;
619 -> 621 ;
622 [label="mse = 0.0\nsamples = 1\nvalue = 860.0"] ;
618 -> 622 ;
623 [label="mse = 0.0\nsamples = 1\nvalue = 780.0"] ;
613 -> 623 ;
624 [label="mse = 0.0\nsamples = 1\nvalue = 825.0"] ;
508 -> 624 ;
625 [label="pTwenties <= 1.3\nmse = 40579.7\nsamples = 3\nvalue = 1101.2"] ;
507 -> 625 ;
626 [label="pYouths <= 0.9\nmse = 50.0\nsamples = 2\nvalue = 985.0"] ;
625 -> 626 ;
627 [label="mse = 0.0\nsamples = 1\nvalue = 975.0"] ;
626 -> 627 ;
628 [label="mse = 0.0\nsamples = 1\nvalue = 990.0"] ;
626 -> 628 ;
629 [label="mse = 0.0\nsamples = 1\nvalue = 1450.0"] ;
625 -> 629 ;
630 [label="pForties <= -0.2\nmse = 19945.1\nsamples = 6\nvalue = 1082.2"] ;
506 -> 630 ;
631 [label="pForties <= -0.3\nmse = 7503.1\nsamples = 5\nvalue = 1145.7"] ;
630 -> 631 ;
632 [label="pk_3.0 <= 1.3\nmse = 2847.2\nsamples = 4\nvalue = 1116.7"] ;
631 -> 632 ;
633 [label="pk_5.0 <= 1.5\nmse = 937.5\nsamples = 3\nvalue = 1150.0"] ;
632 -> 633 ;
634 [label="pThirties <= -0.5\nmse = 138.9\nsamples = 2\nvalue = 1133.3"] ;
633 -> 634 ;
635 [label="mse = 0.0\nsamples = 1\nvalue = 1125.0"] ;
634 -> 635 ;
636 [label="mse = 0.0\nsamples = 1\nvalue = 1150.0"] ;
634 -> 636 ;
637 [label="mse = 0.0\nsamples = 1\nvalue = 1200.0"] ;
633 -> 637 ;
638 [label="mse = 0.0\nsamples = 1\nvalue = 1050.0"] ;
632 -> 638 ;
639 [label="mse = 0.0\nsamples = 1\nvalue = 1320.0"] ;
631 -> 639 ;
640 [label="mse = 0.0\nsamples = 1\nvalue = 860.0"] ;
630 -> 640 ;
641 [label="postdateint <= 1.6\nmse = 10577.4\nsamples = 51\nvalue = 1026.2"] ;
505 -> 641 ;
642 [label="postdateint <= -0.0\nmse = 9776.7\nsamples = 49\nvalue = 1032.7"] ;
641 -> 642 ;
643 [label="sqft <= -0.7\nmse = 7089.0\nsamples = 35\nvalue = 1005.7"] ;
642 -> 643 ;
644 [label="pSixtyPlus <= 1.0\nmse = 3540.2\nsamples = 24\nvalue = 979.5"] ;
643 -> 644 ;
645 [label="pFifties <= 0.5\nmse = 2084.3\nsamples = 19\nvalue = 996.1"] ;
644 -> 645 ;
646 [label="postdateint <= -0.1\nmse = 1210.6\nsamples = 10\nvalue = 971.0"] ;
645 -> 646 ;
647 [label="medianIncome <= 0.2\nmse = 884.9\nsamples = 8\nvalue = 959.6"] ;
646 -> 647 ;
648 [label="sqft <= -0.9\nmse = 714.5\nsamples = 6\nvalue = 950.8"] ;
647 -> 648 ;
649 [label="sqft <= -0.9\nmse = 363.1\nsamples = 4\nvalue = 943.2"] ;
648 -> 649 ;
650 [label="pTwenties <= -0.4\nmse = 93.9\nsamples = 2\nvalue = 953.3"] ;
649 -> 650 ;
651 [label="mse = 0.0\nsamples = 1\nvalue = 975.0"] ;
650 -> 651 ;
652 [label="mse = 0.0\nsamples = 1\nvalue = 949.0"] ;
650 -> 652 ;
653 [label="postdateint <= -0.8\nmse = 288.0\nsamples = 2\nvalue = 923.0"] ;
649 -> 653 ;
654 [label="mse = 0.0\nsamples = 1\nvalue = 935.0"] ;
653 -> 654 ;
655 [label="mse = 0.0\nsamples = 1\nvalue = 899.0"] ;
653 -> 655 ;
656 [label="postdateint <= -1.4\nmse = 1088.9\nsamples = 2\nvalue = 973.3"] ;
648 -> 656 ;
657 [label="mse = 0.0\nsamples = 1\nvalue = 950.0"] ;
656 -> 657 ;
658 [label="mse = 0.0\nsamples = 1\nvalue = 1020.0"] ;
656 -> 658 ;
659 [label="mse = 0.0\nsamples = 2\nvalue = 995.0"] ;
647 -> 659 ;
660 [label="sqft <= -0.8\nmse = 117.2\nsamples = 2\nvalue = 1013.8"] ;
646 -> 660 ;
661 [label="mse = 0.0\nsamples = 1\nvalue = 1020.0"] ;
660 -> 661 ;
662 [label="mse = 0.0\nsamples = 1\nvalue = 995.0"] ;
660 -> 662 ;
663 [label="pk_3.0 <= 1.3\nmse = 1256.1\nsamples = 9\nvalue = 1030.1"] ;
645 -> 663 ;
664 [label="sqft <= -0.9\nmse = 759.8\nsamples = 6\nvalue = 1017.7"] ;
663 -> 664 ;
665 [label="pThirties <= -0.0\nmse = 240.2\nsamples = 2\nvalue = 1065.5"] ;
664 -> 665 ;
666 [label="mse = 0.0\nsamples = 1\nvalue = 1050.0"] ;
665 -> 666 ;
667 [label="mse = 0.0\nsamples = 1\nvalue = 1081.0"] ;
665 -> 667 ;
668 [label="sqft <= -0.9\nmse = 175.7\nsamples = 4\nvalue = 1005.8"] ;
664 -> 668 ;
669 [label="mse = 0.0\nsamples = 1\nvalue = 1019.0"] ;
668 -> 669 ;
670 [label="postdateint <= -0.8\nmse = 0.2\nsamples = 3\nvalue = 992.5"] ;
668 -> 670 ;
671 [label="mse = 0.0\nsamples = 2\nvalue = 992.0"] ;
670 -> 671 ;
672 [label="mse = 0.0\nsamples = 1\nvalue = 993.0"] ;
670 -> 672 ;
673 [label="postdateint <= -0.8\nmse = 1142.2\nsamples = 3\nvalue = 1061.2"] ;
663 -> 673 ;
674 [label="mse = 0.0\nsamples = 1\nvalue = 1010.0"] ;
673 -> 674 ;
675 [label="mse = 355.6\nsamples = 2\nvalue = 1078.3"] ;
673 -> 675 ;
676 [label="pThirties <= -0.6\nmse = 1722.2\nsamples = 5\nvalue = 888.3"] ;
644 -> 676 ;
677 [label="postdateint <= -0.8\nmse = 400.0\nsamples = 3\nvalue = 915.0"] ;
676 -> 677 ;
678 [label="mse = 0.0\nsamples = 2\nvalue = 935.0"] ;
677 -> 678 ;
679 [label="mse = 0.0\nsamples = 1\nvalue = 895.0"] ;
677 -> 679 ;
680 [label="postdateint <= -0.7\nmse = 100.0\nsamples = 2\nvalue = 835.0"] ;
676 -> 680 ;
681 [label="mse = 0.0\nsamples = 1\nvalue = 845.0"] ;
680 -> 681 ;
682 [label="mse = 0.0\nsamples = 1\nvalue = 825.0"] ;
680 -> 682 ;
683 [label="postdateint <= -1.2\nmse = 10059.6\nsamples = 11\nvalue = 1062.6"] ;
643 -> 683 ;
684 [label="medianIncome <= -0.4\nmse = 2115.2\nsamples = 5\nvalue = 1145.6"] ;
683 -> 684 ;
685 [label="mse = 0.0\nsamples = 2\nvalue = 1205.0"] ;
684 -> 685 ;
686 [label="mse = 0.0\nsamples = 3\nvalue = 1110.0"] ;
684 -> 686 ;
687 [label="medianIncome <= 0.1\nmse = 6478.3\nsamples = 6\nvalue = 996.1"] ;
683 -> 687 ;
688 [label="pk_3.0 <= 1.3\nmse = 1769.0\nsamples = 4\nvalue = 942.0"] ;
687 -> 688 ;
689 [label="postdateint <= -0.1\nmse = 800.0\nsamples = 3\nvalue = 905.0"] ;
688 -> 689 ;
690 [label="mse = 0.0\nsamples = 2\nvalue = 925.0"] ;
689 -> 690 ;
691 [label="mse = 0.0\nsamples = 1\nvalue = 865.0"] ;
689 -> 691 ;
692 [label="mse = 0.0\nsamples = 1\nvalue = 979.0"] ;
688 -> 692 ;
693 [label="pk_3.0 <= 1.3\nmse = 2566.7\nsamples = 2\nvalue = 1077.2"] ;
687 -> 693 ;
694 [label="mse = 0.0\nsamples = 1\nvalue = 1048.0"] ;
693 -> 694 ;
695 [label="mse = 0.0\nsamples = 1\nvalue = 1165.0"] ;
693 -> 695 ;
696 [label="pFifties <= 0.2\nmse = 10320.2\nsamples = 14\nvalue = 1096.8"] ;
642 -> 696 ;
697 [label="postdateint <= 0.9\nmse = 709.5\nsamples = 4\nvalue = 1172.8"] ;
696 -> 697 ;
698 [label="mse = 0.0\nsamples = 2\nvalue = 1149.0"] ;
697 -> 698 ;
699 [label="sqft <= -0.8\nmse = 6.2\nsamples = 2\nvalue = 1202.5"] ;
697 -> 699 ;
700 [label="mse = 0.0\nsamples = 1\nvalue = 1205.0"] ;
699 -> 700 ;
701 [label="mse = 0.0\nsamples = 1\nvalue = 1200.0"] ;
699 -> 701 ;
702 [label="sqft <= -0.8\nmse = 10549.8\nsamples = 10\nvalue = 1051.3"] ;
696 -> 702 ;
703 [label="postdateint <= 1.0\nmse = 3306.4\nsamples = 6\nvalue = 966.8"] ;
702 -> 703 ;
704 [label="ld_4.0 <= 1.5\nmse = 180.2\nsamples = 3\nvalue = 1012.2"] ;
703 -> 704 ;
705 [label="mse = 0.0\nsamples = 2\nvalue = 1020.0"] ;
704 -> 705 ;
706 [label="mse = 0.0\nsamples = 1\nvalue = 989.0"] ;
704 -> 706 ;
707 [label="medianIncome <= 0.1\nmse = 2292.2\nsamples = 3\nvalue = 921.2"] ;
703 -> 707 ;
708 [label="pk_3.0 <= 1.3\nmse = 306.2\nsamples = 2\nvalue = 967.5"] ;
707 -> 708 ;
709 [label="mse = 0.0\nsamples = 1\nvalue = 950.0"] ;
708 -> 709 ;
710 [label="mse = 0.0\nsamples = 1\nvalue = 985.0"] ;
708 -> 710 ;
711 [label="mse = 0.0\nsamples = 1\nvalue = 875.0"] ;
707 -> 711 ;
712 [label="pk_2.0 <= 0.0\nmse = 1334.7\nsamples = 4\nvalue = 1147.9"] ;
702 -> 712 ;
713 [label="mse = 0.0\nsamples = 1\nvalue = 1095.0"] ;
712 -> 713 ;
714 [label="postdateint <= 1.1\nmse = 304.0\nsamples = 3\nvalue = 1169.0"] ;
712 -> 714 ;
715 [label="postdateint <= 0.5\nmse = 18.8\nsamples = 2\nvalue = 1177.5"] ;
714 -> 715 ;
716 [label="mse = 0.0\nsamples = 1\nvalue = 1170.0"] ;
715 -> 716 ;
717 [label="mse = 0.0\nsamples = 1\nvalue = 1180.0"] ;
715 -> 717 ;
718 [label="mse = 0.0\nsamples = 1\nvalue = 1135.0"] ;
714 -> 718 ;
719 [label="mse = 0.0\nsamples = 2\nvalue = 850.0"] ;
641 -> 719 ;
720 [label="pSixtyPlus <= 0.2\nmse = 91999.3\nsamples = 7\nvalue = 1230.8"] ;
428 -> 720 ;
721 [label="postdateint <= 0.3\nmse = 61598.4\nsamples = 6\nvalue = 1071.2"] ;
720 -> 721 ;
722 [label="mse = 0.0\nsamples = 1\nvalue = 1720.0"] ;
721 -> 722 ;
723 [label="postdateint <= 1.0\nmse = 1683.7\nsamples = 5\nvalue = 978.6"] ;
721 -> 723 ;
724 [label="pThirties <= 0.5\nmse = 156.2\nsamples = 3\nvalue = 1012.5"] ;
723 -> 724 ;
725 [label="mse = 0.0\nsamples = 2\nvalue = 1000.0"] ;
724 -> 725 ;
726 [label="mse = 0.0\nsamples = 1\nvalue = 1025.0"] ;
724 -> 726 ;
727 [label="pSixtyPlus <= 0.0\nmse = 138.9\nsamples = 2\nvalue = 933.3"] ;
723 -> 727 ;
728 [label="mse = 0.0\nsamples = 1\nvalue = 925.0"] ;
727 -> 728 ;
729 [label="mse = 0.0\nsamples = 1\nvalue = 950.0"] ;
727 -> 729 ;
730 [label="mse = 0.0\nsamples = 1\nvalue = 1550.0"] ;
720 -> 730 ;
731 [label="pYouths <= -0.2\nmse = 28226.4\nsamples = 183\nvalue = 1127.9"] ;
3 -> 731 ;
732 [label="pk_5.0 <= 1.5\nmse = 20646.5\nsamples = 21\nvalue = 1280.1"] ;
731 -> 732 ;
733 [label="sqft <= -0.5\nmse = 13530.7\nsamples = 19\nvalue = 1303.5"] ;
732 -> 733 ;
734 [label="pFifties <= 0.2\nmse = 6330.6\nsamples = 14\nvalue = 1261.0"] ;
733 -> 734 ;
735 [label="postdateint <= 0.5\nmse = 4622.6\nsamples = 13\nvalue = 1271.1"] ;
734 -> 735 ;
736 [label="number bedrooms <= -0.1\nmse = 2116.7\nsamples = 7\nvalue = 1321.7"] ;
735 -> 736 ;
737 [label="postdateint <= -1.3\nmse = 1659.0\nsamples = 6\nvalue = 1330.6"] ;
736 -> 737 ;
738 [label="mse = 0.0\nsamples = 1\nvalue = 1250.0"] ;
737 -> 738 ;
739 [label="sqft <= -0.6\nmse = 834.7\nsamples = 5\nvalue = 1342.1"] ;
737 -> 739 ;
740 [label="pk_2.0 <= 0.0\nmse = 322.9\nsamples = 4\nvalue = 1332.5"] ;
739 -> 740 ;
741 [label="mse = 0.0\nsamples = 1\nvalue = 1300.0"] ;
740 -> 741 ;
742 [label="postdateint <= 0.0\nmse = 134.0\nsamples = 3\nvalue = 1339.0"] ;
740 -> 742 ;
743 [label="pYouths <= -1.0\nmse = 5.6\nsamples = 2\nvalue = 1348.3"] ;
742 -> 743 ;
744 [label="mse = 0.0\nsamples = 1\nvalue = 1350.0"] ;
743 -> 744 ;
745 [label="mse = 0.0\nsamples = 1\nvalue = 1345.0"] ;
743 -> 745 ;
746 [label="mse = 0.0\nsamples = 1\nvalue = 1325.0"] ;
742 -> 746 ;
747 [label="mse = 0.0\nsamples = 1\nvalue = 1400.0"] ;
739 -> 747 ;
748 [label="mse = 0.0\nsamples = 1\nvalue = 1250.0"] ;
736 -> 748 ;
749 [label="sqft <= -0.6\nmse = 2497.2\nsamples = 6\nvalue = 1225.5"] ;
735 -> 749 ;
750 [label="ty_2.0 <= 2.1\nmse = 1326.5\nsamples = 4\nvalue = 1251.4"] ;
749 -> 750 ;
751 [label="pYouths <= -2.0\nmse = 376.0\nsamples = 3\nvalue = 1272.0"] ;
750 -> 751 ;
752 [label="mse = 0.0\nsamples = 1\nvalue = 1250.0"] ;
751 -> 752 ;
753 [label="pk_2.0 <= 0.0\nmse = 88.9\nsamples = 2\nvalue = 1286.7"] ;
751 -> 753 ;
754 [label="mse = 0.0\nsamples = 1\nvalue = 1280.0"] ;
753 -> 754 ;
755 [label="mse = 0.0\nsamples = 1\nvalue = 1300.0"] ;
753 -> 755 ;
756 [label="mse = 0.0\nsamples = 1\nvalue = 1200.0"] ;
750 -> 756 ;
757 [label="mse = 0.0\nsamples = 2\nvalue = 1165.0"] ;
749 -> 757 ;
758 [label="mse = 0.0\nsamples = 1\nvalue = 1069.0"] ;
734 -> 758 ;
759 [label="pFifties <= -0.1\nmse = 15662.5\nsamples = 5\nvalue = 1410.0"] ;
733 -> 759 ;
760 [label="mse = 0.0\nsamples = 2\nvalue = 1250.0"] ;
759 -> 760 ;
761 [label="sqft <= -0.5\nmse = 484.0\nsamples = 3\nvalue = 1506.0"] ;
759 -> 761 ;
762 [label="mse = 0.0\nsamples = 2\nvalue = 1495.0"] ;
761 -> 762 ;
763 [label="mse = 0.0\nsamples = 1\nvalue = 1550.0"] ;
761 -> 763 ;
764 [label="pThirties <= -0.1\nmse = 5256.2\nsamples = 2\nvalue = 952.5"] ;
732 -> 764 ;
765 [label="mse = 0.0\nsamples = 1\nvalue = 1025.0"] ;
764 -> 765 ;
766 [label="mse = 0.0\nsamples = 1\nvalue = 880.0"] ;
764 -> 766 ;
767 [label="pTwenties <= -0.5\nmse = 26052.6\nsamples = 162\nvalue = 1109.9"] ;
731 -> 767 ;
768 [label="pTwenties <= -0.7\nmse = 14795.5\nsamples = 78\nvalue = 1069.3"] ;
767 -> 768 ;
769 [label="medianIncome <= 1.5\nmse = 13555.0\nsamples = 64\nvalue = 1088.3"] ;
768 -> 769 ;
770 [label="postdateint <= 0.9\nmse = 11697.1\nsamples = 59\nvalue = 1074.2"] ;
769 -> 770 ;
771 [label="pk_4.0 <= 0.4\nmse = 6968.1\nsamples = 46\nvalue = 1050.0"] ;
770 -> 771 ;
772 [label="medianIncome <= -0.2\nmse = 8566.9\nsamples = 19\nvalue = 1100.2"] ;
771 -> 772 ;
773 [label="postdateint <= 0.4\nmse = 8882.0\nsamples = 3\nvalue = 1286.0"] ;
772 -> 773 ;
774 [label="postdateint <= -0.7\nmse = 56.2\nsamples = 2\nvalue = 1352.5"] ;
773 -> 774 ;
775 [label="mse = 0.0\nsamples = 1\nvalue = 1345.0"] ;
774 -> 775 ;
776 [label="mse = 0.0\nsamples = 1\nvalue = 1360.0"] ;
774 -> 776 ;
777 [label="mse = 0.0\nsamples = 1\nvalue = 1153.0"] ;
773 -> 777 ;
778 [label="pk_2.0 <= 0.0\nmse = 3174.5\nsamples = 16\nvalue = 1074.9"] ;
772 -> 778 ;
779 [label="pYouths <= 0.4\nmse = 1072.6\nsamples = 9\nvalue = 1034.4"] ;
778 -> 779 ;
780 [label="mse = 0.0\nsamples = 1\nvalue = 995.0"] ;
779 -> 780 ;
781 [label="pYouths <= 0.8\nmse = 890.1\nsamples = 8\nvalue = 1043.1"] ;
779 -> 781 ;
782 [label="pYouths <= 0.5\nmse = 117.2\nsamples = 4\nvalue = 1056.2"] ;
781 -> 782 ;
783 [label="mse = 0.0\nsamples = 1\nvalue = 1075.0"] ;
782 -> 783 ;
784 [label="mse = 0.0\nsamples = 3\nvalue = 1050.0"] ;
782 -> 784 ;
785 [label="postdateint <= -1.3\nmse = 1259.8\nsamples = 4\nvalue = 1032.6"] ;
781 -> 785 ;
786 [label="mse = 0.0\nsamples = 1\nvalue = 980.0"] ;
785 -> 786 ;
787 [label="postdateint <= -1.2\nmse = 710.2\nsamples = 3\nvalue = 1045.8"] ;
785 -> 787 ;
788 [label="mse = 0.0\nsamples = 1\nvalue = 1066.0"] ;
787 -> 788 ;
789 [label="ty_2.0 <= 2.1\nmse = 600.2\nsamples = 2\nvalue = 1025.5"] ;
787 -> 789 ;
790 [label="mse = 0.0\nsamples = 1\nvalue = 1001.0"] ;
789 -> 790 ;
791 [label="mse = 0.0\nsamples = 1\nvalue = 1050.0"] ;
789 -> 791 ;
792 [label="pSixtyPlus <= 1.1\nmse = 1995.9\nsamples = 7\nvalue = 1115.4"] ;
778 -> 792 ;
793 [label="postdateint <= -0.2\nmse = 604.7\nsamples = 3\nvalue = 1168.8"] ;
792 -> 793 ;
794 [label="mse = 0.0\nsamples = 1\nvalue = 1210.0"] ;
793 -> 794 ;
795 [label="pTwenties <= -0.8\nmse = 50.0\nsamples = 2\nvalue = 1155.0"] ;
793 -> 795 ;
796 [label="mse = 0.0\nsamples = 1\nvalue = 1165.0"] ;
795 -> 796 ;
797 [label="mse = 0.0\nsamples = 1\nvalue = 1150.0"] ;
795 -> 797 ;
798 [label="postdateint <= -1.4\nmse = 231.6\nsamples = 4\nvalue = 1084.9"] ;
792 -> 798 ;
799 [label="pYouths <= 0.6\nmse = 64.0\nsamples = 2\nvalue = 1107.0"] ;
798 -> 799 ;
800 [label="mse = 0.0\nsamples = 1\nvalue = 1115.0"] ;
799 -> 800 ;
801 [label="mse = 0.0\nsamples = 1\nvalue = 1099.0"] ;
799 -> 801 ;
802 [label="postdateint <= -1.3\nmse = 24.0\nsamples = 2\nvalue = 1076.0"] ;
798 -> 802 ;
803 [label="mse = 0.0\nsamples = 1\nvalue = 1080.0"] ;
802 -> 803 ;
804 [label="mse = 0.0\nsamples = 1\nvalue = 1070.0"] ;
802 -> 804 ;
805 [label="pSixtyPlus <= 0.2\nmse = 4281.7\nsamples = 27\nvalue = 1025.0"] ;
771 -> 805 ;
806 [label="ld_3.0 <= 0.3\nmse = 2585.5\nsamples = 9\nvalue = 986.4"] ;
805 -> 806 ;
807 [label="postdateint <= -1.3\nmse = 362.5\nsamples = 4\nvalue = 945.0"] ;
806 -> 807 ;
808 [label="mse = 0.0\nsamples = 1\nvalue = 925.0"] ;
807 -> 808 ;
809 [label="sqft <= -0.5\nmse = 196.0\nsamples = 3\nvalue = 957.0"] ;
807 -> 809 ;
810 [label="mse = 0.0\nsamples = 2\nvalue = 950.0"] ;
809 -> 810 ;
811 [label="mse = 0.0\nsamples = 1\nvalue = 985.0"] ;
809 -> 811 ;
812 [label="postdateint <= -1.4\nmse = 1890.4\nsamples = 5\nvalue = 1019.6"] ;
806 -> 812 ;
813 [label="pThirties <= -0.6\nmse = 1485.2\nsamples = 2\nvalue = 977.8"] ;
812 -> 813 ;
814 [label="mse = 0.0\nsamples = 1\nvalue = 1000.0"] ;
813 -> 814 ;
815 [label="mse = 0.0\nsamples = 1\nvalue = 911.0"] ;
813 -> 815 ;
816 [label="postdateint <= -1.4\nmse = 214.6\nsamples = 3\nvalue = 1047.5"] ;
812 -> 816 ;
817 [label="mse = 0.0\nsamples = 1\nvalue = 1055.0"] ;
816 -> 817 ;
818 [label="pFifties <= 1.4\nmse = 306.2\nsamples = 2\nvalue = 1032.5"] ;
816 -> 818 ;
819 [label="mse = 0.0\nsamples = 1\nvalue = 1015.0"] ;
818 -> 819 ;
820 [label="mse = 0.0\nsamples = 1\nvalue = 1050.0"] ;
818 -> 820 ;
821 [label="pYouths <= 1.0\nmse = 3932.0\nsamples = 18\nvalue = 1046.6"] ;
805 -> 821 ;
822 [label="pYouths <= 0.5\nmse = 3172.6\nsamples = 16\nvalue = 1039.5"] ;
821 -> 822 ;
823 [label="sqft <= -0.5\nmse = 505.9\nsamples = 7\nvalue = 1074.1"] ;
822 -> 823 ;
824 [label="medianIncome <= 0.3\nmse = 467.9\nsamples = 6\nvalue = 1078.9"] ;
823 -> 824 ;
825 [label="postdateint <= 0.0\nmse = 139.8\nsamples = 4\nvalue = 1088.8"] ;
824 -> 825 ;
826 [label="pYouths <= 0.3\nmse = 5.6\nsamples = 2\nvalue = 1098.3"] ;
825 -> 826 ;
827 [label="mse = 0.0\nsamples = 1\nvalue = 1100.0"] ;
826 -> 827 ;
828 [label="mse = 0.0\nsamples = 1\nvalue = 1095.0"] ;
826 -> 828 ;
829 [label="pYouths <= 0.3\nmse = 0.2\nsamples = 2\nvalue = 1074.5"] ;
825 -> 829 ;
830 [label="mse = 0.0\nsamples = 1\nvalue = 1074.0"] ;
829 -> 830 ;
831 [label="mse = 0.0\nsamples = 1\nvalue = 1075.0"] ;
829 -> 831 ;
832 [label="mse = 600.0\nsamples = 2\nvalue = 1069.0"] ;
824 -> 832 ;
833 [label="mse = 0.0\nsamples = 1\nvalue = 1050.0"] ;
823 -> 833 ;
834 [label="postdateint <= -0.3\nmse = 3618.9\nsamples = 9\nvalue = 1016.4"] ;
822 -> 834 ;
835 [label="pForties <= 0.1\nmse = 2884.7\nsamples = 5\nvalue = 1041.7"] ;
834 -> 835 ;
836 [label="postdateint <= -0.9\nmse = 154.3\nsamples = 2\nvalue = 1013.9"] ;
835 -> 836 ;
837 [label="mse = 0.0\nsamples = 1\nvalue = 1000.0"] ;
836 -> 837 ;
838 [label="mse = 0.0\nsamples = 1\nvalue = 1025.0"] ;
836 -> 838 ;
839 [label="postdateint <= -1.4\nmse = 1816.7\nsamples = 3\nvalue = 1125.0"] ;
835 -> 839 ;
840 [label="mse = 0.0\nsamples = 1\nvalue = 1065.0"] ;
839 -> 840 ;
841 [label="postdateint <= -0.8\nmse = 25.0\nsamples = 2\nvalue = 1155.0"] ;
839 -> 841 ;
842 [label="mse = 0.0\nsamples = 1\nvalue = 1150.0"] ;
841 -> 842 ;
843 [label="mse = 0.0\nsamples = 1\nvalue = 1160.0"] ;
841 -> 843 ;
844 [label="pYouths <= 0.6\nmse = 1253.5\nsamples = 4\nvalue = 965.8"] ;
834 -> 844 ;
845 [label="pTwenties <= -0.9\nmse = 229.7\nsamples = 2\nvalue = 951.2"] ;
844 -> 845 ;
846 [label="mse = 0.0\nsamples = 1\nvalue = 960.0"] ;
845 -> 846 ;
847 [label="mse = 0.0\nsamples = 1\nvalue = 925.0"] ;
845 -> 847 ;
848 [label="pForties <= 0.7\nmse = 2025.0\nsamples = 2\nvalue = 995.0"] ;
844 -> 848 ;
849 [label="mse = 0.0\nsamples = 1\nvalue = 1040.0"] ;
848 -> 849 ;
850 [label="mse = 0.0\nsamples = 1\nvalue = 950.0"] ;
848 -> 850 ;
851 [label="postdateint <= -0.7\nmse = 3025.0\nsamples = 2\nvalue = 1154.0"] ;
821 -> 851 ;
852 [label="mse = 0.0\nsamples = 1\nvalue = 1209.0"] ;
851 -> 852 ;
853 [label="mse = 0.0\nsamples = 1\nvalue = 1099.0"] ;
851 -> 853 ;
854 [label="pk_5.0 <= 1.5\nmse = 19032.2\nsamples = 13\nvalue = 1152.8"] ;
770 -> 854 ;
855 [label="postdateint <= 1.0\nmse = 3966.3\nsamples = 9\nvalue = 1203.8"] ;
854 -> 855 ;
856 [label="pk_4.0 <= 0.4\nmse = 355.6\nsamples = 2\nvalue = 1301.7"] ;
855 -> 856 ;
857 [label="mse = 0.0\nsamples = 1\nvalue = 1315.0"] ;
856 -> 857 ;
858 [label="mse = 0.0\nsamples = 1\nvalue = 1275.0"] ;
856 -> 858 ;
859 [label="sqft <= -0.6\nmse = 2249.0\nsamples = 7\nvalue = 1182.9"] ;
855 -> 859 ;
860 [label="sqft <= -0.6\nmse = 200.0\nsamples = 2\nvalue = 1115.0"] ;
859 -> 860 ;
861 [label="mse = 0.0\nsamples = 1\nvalue = 1125.0"] ;
860 -> 861 ;
862 [label="mse = 0.0\nsamples = 1\nvalue = 1095.0"] ;
860 -> 862 ;
863 [label="ty_4.0 <= 1.7\nmse = 1209.5\nsamples = 5\nvalue = 1201.4"] ;
859 -> 863 ;
864 [label="postdateint <= 1.6\nmse = 260.2\nsamples = 4\nvalue = 1191.5"] ;
863 -> 864 ;
865 [label="postdateint <= 1.1\nmse = 188.9\nsamples = 3\nvalue = 1188.3"] ;
864 -> 865 ;
866 [label="pThirties <= -0.2\nmse = 5.9\nsamples = 2\nvalue = 1193.1"] ;
865 -> 866 ;
867 [label="mse = 0.0\nsamples = 1\nvalue = 1195.0"] ;
866 -> 867 ;
868 [label="mse = 0.0\nsamples = 1\nvalue = 1190.0"] ;
866 -> 868 ;
869 [label="mse = 0.0\nsamples = 1\nvalue = 1150.0"] ;
865 -> 869 ;
870 [label="mse = 0.0\nsamples = 1\nvalue = 1220.0"] ;
864 -> 870 ;
871 [label="mse = 0.0\nsamples = 1\nvalue = 1300.0"] ;
863 -> 871 ;
872 [label="sqft <= -0.5\nmse = 33472.2\nsamples = 4\nvalue = 1008.3"] ;
854 -> 872 ;
873 [label="medianIncome <= 0.2\nmse = 16805.6\nsamples = 2\nvalue = 1166.7"] ;
872 -> 873 ;
874 [label="mse = 0.0\nsamples = 1\nvalue = 1350.0"] ;
873 -> 874 ;
875 [label="mse = 0.0\nsamples = 1\nvalue = 1075.0"] ;
873 -> 875 ;
876 [label="mse = 0.0\nsamples = 2\nvalue = 850.0"] ;
872 -> 876 ;
877 [label="pk_4.0 <= 0.4\nmse = 12503.7\nsamples = 5\nvalue = 1214.1"] ;
769 -> 877 ;
878 [label="postdateint <= -1.4\nmse = 5162.5\nsamples = 3\nvalue = 1160.0"] ;
877 -> 878 ;
879 [label="mse = 0.0\nsamples = 1\nvalue = 1250.0"] ;
878 -> 879 ;
880 [label="pThirties <= -0.8\nmse = 484.0\nsamples = 2\nvalue = 1106.0"] ;
878 -> 880 ;
881 [label="mse = 0.0\nsamples = 1\nvalue = 1095.0"] ;
880 -> 881 ;
882 [label="mse = 0.0\nsamples = 1\nvalue = 1150.0"] ;
880 -> 882 ;
883 [label="ty_1.0 <= -0.8\nmse = 3472.2\nsamples = 2\nvalue = 1358.3"] ;
877 -> 883 ;
884 [label="mse = 0.0\nsamples = 1\nvalue = 1400.0"] ;
883 -> 884 ;
885 [label="mse = 0.0\nsamples = 1\nvalue = 1275.0"] ;
883 -> 885 ;
886 [label="pTwenties <= -0.7\nmse = 5638.6\nsamples = 14\nvalue = 947.6"] ;
768 -> 886 ;
887 [label="postdateint <= -1.4\nmse = 549.0\nsamples = 6\nvalue = 992.9"] ;
886 -> 887 ;
888 [label="postdateint <= -1.4\nmse = 6.2\nsamples = 2\nvalue = 1022.5"] ;
887 -> 888 ;
889 [label="mse = 0.0\nsamples = 1\nvalue = 1020.0"] ;
888 -> 889 ;
890 [label="mse = 0.0\nsamples = 1\nvalue = 1025.0"] ;
888 -> 890 ;
891 [label="postdateint <= -1.3\nmse = 274.0\nsamples = 4\nvalue = 981.0"] ;
887 -> 891 ;
892 [label="mse = 0.0\nsamples = 1\nvalue = 950.0"] ;
891 -> 892 ;
893 [label="ld_4.0 <= 1.5\nmse = 42.2\nsamples = 3\nvalue = 988.8"] ;
891 -> 893 ;
894 [label="pTwenties <= -0.7\nmse = 6.2\nsamples = 2\nvalue = 982.5"] ;
893 -> 894 ;
895 [label="mse = 0.0\nsamples = 1\nvalue = 980.0"] ;
894 -> 895 ;
896 [label="mse = 0.0\nsamples = 1\nvalue = 985.0"] ;
894 -> 896 ;
897 [label="mse = 0.0\nsamples = 1\nvalue = 995.0"] ;
893 -> 897 ;
898 [label="postdateint <= 0.5\nmse = 6769.0\nsamples = 8\nvalue = 916.0"] ;
886 -> 898 ;
899 [label="sqft <= -0.6\nmse = 5739.6\nsamples = 5\nvalue = 877.5"] ;
898 -> 899 ;
900 [label="mse = 0.0\nsamples = 1\nvalue = 770.0"] ;
899 -> 900 ;
901 [label="ld_3.0 <= 0.3\nmse = 4114.0\nsamples = 4\nvalue = 899.0"] ;
899 -> 901 ;
902 [label="pSixtyPlus <= -0.4\nmse = 625.0\nsamples = 2\nvalue = 825.0"] ;
901 -> 902 ;
903 [label="mse = 0.0\nsamples = 1\nvalue = 850.0"] ;
902 -> 903 ;
904 [label="mse = 0.0\nsamples = 1\nvalue = 800.0"] ;
902 -> 904 ;
905 [label="ty_1.0 <= -0.8\nmse = 355.6\nsamples = 2\nvalue = 948.3"] ;
901 -> 905 ;
906 [label="mse = 0.0\nsamples = 1\nvalue = 935.0"] ;
905 -> 906 ;
907 [label="mse = 0.0\nsamples = 1\nvalue = 975.0"] ;
905 -> 907 ;
908 [label="pThirties <= -0.9\nmse = 2754.7\nsamples = 3\nvalue = 973.8"] ;
898 -> 908 ;
909 [label="mse = 0.0\nsamples = 1\nvalue = 925.0"] ;
908 -> 909 ;
910 [label="medianIncome <= -1.0\nmse = 756.2\nsamples = 2\nvalue = 1022.5"] ;
908 -> 910 ;
911 [label="mse = 0.0\nsamples = 1\nvalue = 1050.0"] ;
910 -> 911 ;
912 [label="mse = 0.0\nsamples = 1\nvalue = 995.0"] ;
910 -> 912 ;
913 [label="pk_3.0 <= 1.3\nmse = 33967.1\nsamples = 84\nvalue = 1150.1"] ;
767 -> 913 ;
914 [label="pForties <= -2.3\nmse = 31535.7\nsamples = 79\nvalue = 1136.5"] ;
913 -> 914 ;
915 [label="mse = 0.0\nsamples = 1\nvalue = 835.0"] ;
914 -> 915 ;
916 [label="number bedrooms <= -0.1\nmse = 30494.4\nsamples = 78\nvalue = 1141.6"] ;
914 -> 916 ;
917 [label="pThirties <= -0.5\nmse = 35749.6\nsamples = 50\nvalue = 1110.8"] ;
916 -> 917 ;
918 [label="postdateint <= -1.4\nmse = 10021.9\nsamples = 5\nvalue = 969.7"] ;
917 -> 918 ;
919 [label="medianIncome <= 0.2\nmse = 5256.2\nsamples = 2\nvalue = 1077.5"] ;
918 -> 919 ;
920 [label="mse = 0.0\nsamples = 1\nvalue = 1150.0"] ;
919 -> 920 ;
921 [label="mse = 0.0\nsamples = 1\nvalue = 1005.0"] ;
919 -> 921 ;
922 [label="medianIncome <= 0.2\nmse = 3683.7\nsamples = 3\nvalue = 915.8"] ;
918 -> 922 ;
923 [label="postdateint <= -0.7\nmse = 533.6\nsamples = 2\nvalue = 882.7"] ;
922 -> 923 ;
924 [label="mse = 0.0\nsamples = 1\nvalue = 899.0"] ;
923 -> 924 ;
925 [label="mse = 0.0\nsamples = 1\nvalue = 850.0"] ;
923 -> 925 ;
926 [label="mse = 0.0\nsamples = 1\nvalue = 1015.0"] ;
922 -> 926 ;
927 [label="pYouths <= -0.1\nmse = 36084.6\nsamples = 45\nvalue = 1121.9"] ;
917 -> 927 ;
928 [label="postdateint <= -1.4\nmse = 21778.8\nsamples = 29\nvalue = 1086.1"] ;
927 -> 928 ;
929 [label="postdateint <= -1.4\nmse = 1023.9\nsamples = 4\nvalue = 1200.3"] ;
928 -> 929 ;
930 [label="postdateint <= -1.4\nmse = 380.2\nsamples = 3\nvalue = 1189.5"] ;
929 -> 930 ;
931 [label="mse = 0.0\nsamples = 2\nvalue = 1170.0"] ;
930 -> 931 ;
932 [label="mse = 0.0\nsamples = 1\nvalue = 1209.0"] ;
930 -> 932 ;
933 [label="mse = 0.0\nsamples = 1\nvalue = 1265.0"] ;
929 -> 933 ;
934 [label="ld_4.0 <= 1.5\nmse = 22758.3\nsamples = 25\nvalue = 1065.1"] ;
928 -> 934 ;
935 [label="postdateint <= -0.7\nmse = 20753.2\nsamples = 21\nvalue = 1042.2"] ;
934 -> 935 ;
936 [label="pFifties <= -0.4\nmse = 4933.6\nsamples = 2\nvalue = 899.7"] ;
935 -> 936 ;
937 [label="mse = 0.0\nsamples = 1\nvalue = 999.0"] ;
936 -> 937 ;
938 [label="mse = 0.0\nsamples = 1\nvalue = 850.0"] ;
936 -> 938 ;
939 [label="ld_5.0 <= 5.6\nmse = 20100.0\nsamples = 19\nvalue = 1056.5"] ;
935 -> 939 ;
940 [label="sqft <= -0.7\nmse = 18446.8\nsamples = 18\nvalue = 1065.3"] ;
939 -> 940 ;
941 [label="mse = 0.0\nsamples = 1\nvalue = 1200.0"] ;
940 -> 941 ;
942 [label="sqft <= -0.6\nmse = 18434.6\nsamples = 17\nvalue = 1060.5"] ;
940 -> 942 ;
943 [label="postdateint <= 0.5\nmse = 11104.0\nsamples = 3\nvalue = 1021.0"] ;
942 -> 943 ;
944 [label="postdateint <= -0.1\nmse = 7225.0\nsamples = 2\nvalue = 910.0"] ;
943 -> 944 ;
945 [label="mse = 0.0\nsamples = 1\nvalue = 995.0"] ;
944 -> 945 ;
946 [label="mse = 0.0\nsamples = 1\nvalue = 825.0"] ;
944 -> 946 ;
947 [label="mse = 0.0\nsamples = 1\nvalue = 1095.0"] ;
943 -> 947 ;
948 [label="postdateint <= 2.1\nmse = 19615.3\nsamples = 14\nvalue = 1069.1"] ;
942 -> 948 ;
949 [label="postdateint <= 2.1\nmse = 23858.2\nsamples = 10\nvalue = 1077.4"] ;
948 -> 949 ;
950 [label="pk_4.0 <= 0.4\nmse = 23735.1\nsamples = 9\nvalue = 1068.2"] ;
949 -> 950 ;
951 [label="postdateint <= 0.4\nmse = 85.9\nsamples = 4\nvalue = 1051.2"] ;
950 -> 951 ;
952 [label="pk_5.0 <= 1.5\nmse = 156.2\nsamples = 2\nvalue = 1062.5"] ;
951 -> 952 ;
953 [label="mse = 0.0\nsamples = 1\nvalue = 1075.0"] ;
952 -> 953 ;
954 [label="mse = 0.0\nsamples = 1\nvalue = 1050.0"] ;
952 -> 954 ;
955 [label="pYouths <= -0.2\nmse = 6.2\nsamples = 2\nvalue = 1047.5"] ;
951 -> 955 ;
956 [label="mse = 0.0\nsamples = 1\nvalue = 1045.0"] ;
955 -> 956 ;
957 [label="mse = 0.0\nsamples = 1\nvalue = 1050.0"] ;
955 -> 957 ;
958 [label="postdateint <= -0.0\nmse = 44272.2\nsamples = 5\nvalue = 1083.3"] ;
950 -> 958 ;
959 [label="postdateint <= -0.0\nmse = 49759.0\nsamples = 4\nvalue = 1085.6"] ;
958 -> 959 ;
960 [label="mse = 0.0\nsamples = 2\nvalue = 1095.0"] ;
959 -> 960 ;
961 [label="mse = 66306.2\nsamples = 2\nvalue = 1082.5"] ;
959 -> 961 ;
962 [label="mse = 0.0\nsamples = 1\nvalue = 1065.0"] ;
958 -> 962 ;
963 [label="mse = 0.0\nsamples = 1\nvalue = 1234.0"] ;
949 -> 963 ;
964 [label="postdateint <= 2.1\nmse = 3184.0\nsamples = 4\nvalue = 1039.0"] ;
948 -> 964 ;
965 [label="mse = 0.0\nsamples = 1\nvalue = 1000.0"] ;
964 -> 965 ;
966 [label="postdateint <= 2.2\nmse = 3616.7\nsamples = 3\nvalue = 1065.0"] ;
964 -> 966 ;
967 [label="mse = 0.0\nsamples = 1\nvalue = 1050.0"] ;
966 -> 967 ;
968 [label="mse = 5256.2\nsamples = 2\nvalue = 1072.5"] ;
966 -> 968 ;
969 [label="mse = 0.0\nsamples = 1\nvalue = 800.0"] ;
939 -> 969 ;
970 [label="postdateint <= -0.2\nmse = 9764.0\nsamples = 4\nvalue = 1216.0"] ;
934 -> 970 ;
971 [label="mse = 0.0\nsamples = 1\nvalue = 1295.0"] ;
970 -> 971 ;
972 [label="postdateint <= 0.4\nmse = 9338.9\nsamples = 3\nvalue = 1163.3"] ;
970 -> 972 ;
973 [label="mse = 0.0\nsamples = 1\nvalue = 1095.0"] ;
972 -> 973 ;
974 [label="pk_4.0 <= 0.4\nmse = 10506.2\nsamples = 2\nvalue = 1197.5"] ;
972 -> 974 ;
975 [label="mse = 0.0\nsamples = 1\nvalue = 1095.0"] ;
974 -> 975 ;
976 [label="mse = 0.0\nsamples = 1\nvalue = 1300.0"] ;
974 -> 976 ;
977 [label="sqft <= -0.6\nmse = 52287.4\nsamples = 16\nvalue = 1173.9"] ;
927 -> 977 ;
978 [label="sqft <= -0.6\nmse = 3679.7\nsamples = 5\nvalue = 986.2"] ;
977 -> 978 ;
979 [label="postdateint <= 0.5\nmse = 200.0\nsamples = 2\nvalue = 915.0"] ;
978 -> 979 ;
980 [label="mse = 0.0\nsamples = 1\nvalue = 925.0"] ;
979 -> 980 ;
981 [label="mse = 0.0\nsamples = 1\nvalue = 895.0"] ;
979 -> 981 ;
982 [label="sqft <= -0.6\nmse = 894.0\nsamples = 3\nvalue = 1029.0"] ;
978 -> 982 ;
983 [label="mse = 0.0\nsamples = 1\nvalue = 1065.0"] ;
982 -> 983 ;
984 [label="postdateint <= 0.4\nmse = 50.0\nsamples = 2\nvalue = 1005.0"] ;
982 -> 984 ;
985 [label="mse = 0.0\nsamples = 1\nvalue = 1010.0"] ;
984 -> 985 ;
986 [label="mse = 0.0\nsamples = 1\nvalue = 995.0"] ;
984 -> 986 ;
987 [label="pThirties <= 0.2\nmse = 52686.0\nsamples = 11\nvalue = 1239.2"] ;
977 -> 987 ;
988 [label="sqft <= -0.5\nmse = 4936.4\nsamples = 9\nvalue = 1174.5"] ;
987 -> 988 ;
989 [label="sqft <= -0.5\nmse = 2277.3\nsamples = 7\nvalue = 1193.7"] ;
988 -> 989 ;
990 [label="ld_3.0 <= 0.3\nmse = 156.2\nsamples = 2\nvalue = 1262.5"] ;
989 -> 990 ;
991 [label="mse = 0.0\nsamples = 1\nvalue = 1250.0"] ;
990 -> 991 ;
992 [label="mse = 0.0\nsamples = 1\nvalue = 1275.0"] ;
990 -> 992 ;
993 [label="postdateint <= -1.3\nmse = 703.7\nsamples = 5\nvalue = 1168.7"] ;
989 -> 993 ;
994 [label="postdateint <= -1.4\nmse = 56.2\nsamples = 2\nvalue = 1222.5"] ;
993 -> 994 ;
995 [label="mse = 0.0\nsamples = 1\nvalue = 1215.0"] ;
994 -> 995 ;
996 [label="mse = 0.0\nsamples = 1\nvalue = 1230.0"] ;
994 -> 996 ;
997 [label="postdateint <= 1.0\nmse = 62.2\nsamples = 3\nvalue = 1156.8"] ;
993 -> 997 ;
998 [label="pThirties <= 0.0\nmse = 1.0\nsamples = 2\nvalue = 1163.8"] ;
997 -> 998 ;
999 [label="mse = 0.0\nsamples = 1\nvalue = 1163.0"] ;
998 -> 999 ;
1000 [label="mse = 0.0\nsamples = 1\nvalue = 1165.0"] ;
998 -> 1000 ;
1001 [label="mse = 0.0\nsamples = 1\nvalue = 1148.0"] ;
997 -> 1001 ;
1002 [label="mse = 1225.0\nsamples = 2\nvalue = 1030.0"] ;
988 -> 1002 ;
1003 [label="pk_4.0 <= 0.4\nmse = 142506.2\nsamples = 2\nvalue = 1422.5"] ;
987 -> 1003 ;
1004 [label="mse = 0.0\nsamples = 1\nvalue = 1045.0"] ;
1003 -> 1004 ;
1005 [label="mse = 0.0\nsamples = 1\nvalue = 1800.0"] ;
1003 -> 1005 ;
1006 [label="pFifties <= -0.1\nmse = 10719.1\nsamples = 28\nvalue = 1214.0"] ;
916 -> 1006 ;
1007 [label="postdateint <= 0.9\nmse = 6950.8\nsamples = 17\nvalue = 1261.7"] ;
1006 -> 1007 ;
1008 [label="postdateint <= 0.4\nmse = 5820.2\nsamples = 9\nvalue = 1310.5"] ;
1007 -> 1008 ;
1009 [label="postdateint <= -0.2\nmse = 3424.0\nsamples = 8\nvalue = 1294.0"] ;
1008 -> 1009 ;
1010 [label="postdateint <= -1.3\nmse = 1344.0\nsamples = 4\nvalue = 1344.0"] ;
1009 -> 1010 ;
1011 [label="postdateint <= -1.4\nmse = 1225.0\nsamples = 2\nvalue = 1310.0"] ;
1010 -> 1011 ;
1012 [label="mse = 0.0\nsamples = 1\nvalue = 1345.0"] ;
1011 -> 1012 ;
1013 [label="mse = 0.0\nsamples = 1\nvalue = 1275.0"] ;
1011 -> 1013 ;
1014 [label="pYouths <= -0.1\nmse = 138.9\nsamples = 2\nvalue = 1366.7"] ;
1010 -> 1014 ;
1015 [label="mse = 0.0\nsamples = 1\nvalue = 1375.0"] ;
1014 -> 1015 ;
1016 [label="mse = 0.0\nsamples = 1\nvalue = 1350.0"] ;
1014 -> 1016 ;
1017 [label="pTwenties <= 0.4\nmse = 504.0\nsamples = 4\nvalue = 1244.0"] ;
1009 -> 1017 ;
1018 [label="mse = 0.0\nsamples = 1\nvalue = 1280.0"] ;
1017 -> 1018 ;
1019 [label="pForties <= -0.6\nmse = 225.0\nsamples = 3\nvalue = 1235.0"] ;
1017 -> 1019 ;
1020 [label="postdateint <= -0.1\nmse = 200.0\nsamples = 2\nvalue = 1230.0"] ;
1019 -> 1020 ;
1021 [label="mse = 0.0\nsamples = 1\nvalue = 1250.0"] ;
1020 -> 1021 ;
1022 [label="mse = 0.0\nsamples = 1\nvalue = 1220.0"] ;
1020 -> 1022 ;
1023 [label="mse = 0.0\nsamples = 1\nvalue = 1250.0"] ;
1019 -> 1023 ;
1024 [label="mse = 0.0\nsamples = 1\nvalue = 1475.0"] ;
1008 -> 1024 ;
1025 [label="postdateint <= 1.1\nmse = 2696.0\nsamples = 8\nvalue = 1208.0"] ;
1007 -> 1025 ;
1026 [label="pForties <= -0.2\nmse = 1421.4\nsamples = 6\nvalue = 1235.0"] ;
1025 -> 1026 ;
1027 [label="sqft <= -0.6\nmse = 754.7\nsamples = 4\nvalue = 1211.2"] ;
1026 -> 1027 ;
1028 [label="mse = 0.0\nsamples = 1\nvalue = 1250.0"] ;
1027 -> 1028 ;
1029 [label="pk_2.0 <= 0.0\nmse = 338.9\nsamples = 3\nvalue = 1198.3"] ;
1027 -> 1029 ;
1030 [label="postdateint <= 1.0\nmse = 100.0\nsamples = 2\nvalue = 1210.0"] ;
1029 -> 1030 ;
1031 [label="mse = 0.0\nsamples = 1\nvalue = 1200.0"] ;
1030 -> 1031 ;
1032 [label="mse = 0.0\nsamples = 1\nvalue = 1220.0"] ;
1030 -> 1032 ;
1033 [label="mse = 0.0\nsamples = 1\nvalue = 1175.0"] ;
1029 -> 1033 ;
1034 [label="pk_5.0 <= 1.5\nmse = 555.6\nsamples = 2\nvalue = 1266.7"] ;
1026 -> 1034 ;
1035 [label="mse = 0.0\nsamples = 1\nvalue = 1250.0"] ;
1034 -> 1035 ;
1036 [label="mse = 0.0\nsamples = 1\nvalue = 1300.0"] ;
1034 -> 1036 ;
1037 [label="mse = 0.0\nsamples = 2\nvalue = 1145.0"] ;
1025 -> 1037 ;
1038 [label="postdateint <= -1.3\nmse = 7841.0\nsamples = 11\nvalue = 1142.4"] ;
1006 -> 1038 ;
1039 [label="pTwenties <= 0.0\nmse = 13225.0\nsamples = 2\nvalue = 1015.0"] ;
1038 -> 1039 ;
1040 [label="mse = 0.0\nsamples = 1\nvalue = 1130.0"] ;
1039 -> 1040 ;
1041 [label="mse = 0.0\nsamples = 1\nvalue = 900.0"] ;
1039 -> 1041 ;
1042 [label="ld_3.0 <= 0.3\nmse = 3786.2\nsamples = 9\nvalue = 1163.7"] ;
1038 -> 1042 ;
1043 [label="postdateint <= 1.1\nmse = 144.0\nsamples = 2\nvalue = 1037.0"] ;
1042 -> 1043 ;
1044 [label="mse = 0.0\nsamples = 1\nvalue = 1049.0"] ;
1043 -> 1044 ;
1045 [label="mse = 0.0\nsamples = 1\nvalue = 1025.0"] ;
1043 -> 1045 ;
1046 [label="pThirties <= -0.6\nmse = 664.0\nsamples = 7\nvalue = 1189.0"] ;
1042 -> 1046 ;
1047 [label="postdateint <= -0.2\nmse = 791.7\nsamples = 4\nvalue = 1180.0"] ;
1046 -> 1047 ;
1048 [label="postdateint <= -0.8\nmse = 224.0\nsamples = 3\nvalue = 1191.0"] ;
1047 -> 1048 ;
1049 [label="mse = 0.0\nsamples = 1\nvalue = 1175.0"] ;
1048 -> 1049 ;
1050 [label="mse = 88.9\nsamples = 2\nvalue = 1201.7"] ;
1048 -> 1050 ;
1051 [label="mse = 0.0\nsamples = 1\nvalue = 1125.0"] ;
1047 -> 1051 ;
1052 [label="postdateint <= -0.2\nmse = 168.8\nsamples = 3\nvalue = 1202.5"] ;
1046 -> 1052 ;
1053 [label="mse = 0.0\nsamples = 1\nvalue = 1195.0"] ;
1052 -> 1053 ;
1054 [label="postdateint <= -0.0\nmse = 225.0\nsamples = 2\nvalue = 1210.0"] ;
1052 -> 1054 ;
1055 [label="mse = 0.0\nsamples = 1\nvalue = 1225.0"] ;
1054 -> 1055 ;
1056 [label="mse = 0.0\nsamples = 1\nvalue = 1195.0"] ;
1054 -> 1056 ;
1057 [label="sqft <= -0.6\nmse = 26162.4\nsamples = 5\nvalue = 1353.1"] ;
913 -> 1057 ;
1058 [label="mse = 0.0\nsamples = 1\nvalue = 1625.0"] ;
1057 -> 1058 ;
1059 [label="sqft <= -0.5\nmse = 2031.6\nsamples = 4\nvalue = 1262.5"] ;
1057 -> 1059 ;
1060 [label="pFifties <= 0.2\nmse = 1.0\nsamples = 2\nvalue = 1200.0"] ;
1059 -> 1060 ;
1061 [label="mse = 0.0\nsamples = 1\nvalue = 1199.0"] ;
1060 -> 1061 ;
1062 [label="mse = 0.0\nsamples = 1\nvalue = 1201.0"] ;
1060 -> 1062 ;
1063 [label="postdateint <= -0.9\nmse = 117.2\nsamples = 2\nvalue = 1293.8"] ;
1059 -> 1063 ;
1064 [label="mse = 0.0\nsamples = 1\nvalue = 1300.0"] ;
1063 -> 1064 ;
1065 [label="mse = 0.0\nsamples = 1\nvalue = 1275.0"] ;
1063 -> 1065 ;
1066 [label="sqft <= -0.1\nmse = 45608.3\nsamples = 463\nvalue = 1294.6"] ;
2 -> 1066 ;
1067 [label="number bedrooms <= -0.1\nmse = 31723.6\nsamples = 177\nvalue = 1194.6"] ;
1066 -> 1067 ;
1068 [label="sqft <= -0.4\nmse = 41798.8\nsamples = 75\nvalue = 1119.2"] ;
1067 -> 1068 ;
1069 [label="pThirties <= 0.3\nmse = 52511.0\nsamples = 7\nvalue = 1380.6"] ;
1068 -> 1069 ;
1070 [label="pSixtyPlus <= 0.4\nmse = 16406.6\nsamples = 6\nvalue = 1248.0"] ;
1069 -> 1070 ;
1071 [label="postdateint <= -0.7\nmse = 22.2\nsamples = 2\nvalue = 1370.7"] ;
1070 -> 1071 ;
1072 [label="mse = 0.0\nsamples = 1\nvalue = 1374.0"] ;
1071 -> 1072 ;
1073 [label="mse = 0.0\nsamples = 1\nvalue = 1364.0"] ;
1071 -> 1073 ;
1074 [label="pSixtyPlus <= 0.7\nmse = 8945.5\nsamples = 4\nvalue = 1156.0"] ;
1070 -> 1074 ;
1075 [label="sqft <= -0.4\nmse = 972.2\nsamples = 3\nvalue = 1208.3"] ;
1074 -> 1075 ;
1076 [label="postdateint <= 1.1\nmse = 625.0\nsamples = 2\nvalue = 1225.0"] ;
1075 -> 1076 ;
1077 [label="mse = 0.0\nsamples = 1\nvalue = 1250.0"] ;
1076 -> 1077 ;
1078 [label="mse = 0.0\nsamples = 1\nvalue = 1200.0"] ;
1076 -> 1078 ;
1079 [label="mse = 0.0\nsamples = 1\nvalue = 1175.0"] ;
1075 -> 1079 ;
1080 [label="mse = 0.0\nsamples = 1\nvalue = 999.0"] ;
1074 -> 1080 ;
1081 [label="mse = 0.0\nsamples = 1\nvalue = 1690.0"] ;
1069 -> 1081 ;
1082 [label="pYouths <= -1.1\nmse = 33305.0\nsamples = 68\nvalue = 1093.4"] ;
1068 -> 1082 ;
1083 [label="ty_2.0 <= 2.1\nmse = 30422.2\nsamples = 3\nvalue = 1548.3"] ;
1082 -> 1083 ;
1084 [label="mse = 0.0\nsamples = 2\nvalue = 1425.0"] ;
1083 -> 1084 ;
1085 [label="mse = 0.0\nsamples = 1\nvalue = 1795.0"] ;
1083 -> 1085 ;
1086 [label="medianIncome <= 0.4\nmse = 26862.4\nsamples = 65\nvalue = 1079.4"] ;
1082 -> 1086 ;
1087 [label="pYouths <= -0.1\nmse = 22907.0\nsamples = 46\nvalue = 1031.1"] ;
1086 -> 1087 ;
1088 [label="pSixtyPlus <= -0.6\nmse = 19863.4\nsamples = 17\nvalue = 1116.7"] ;
1087 -> 1088 ;
1089 [label="postdateint <= 1.6\nmse = 19222.2\nsamples = 14\nvalue = 1088.3"] ;
1088 -> 1089 ;
1090 [label="postdateint <= 1.0\nmse = 16588.7\nsamples = 13\nvalue = 1075.2"] ;
1089 -> 1090 ;
1091 [label="postdateint <= -1.4\nmse = 14650.8\nsamples = 12\nvalue = 1087.1"] ;
1090 -> 1091 ;
1092 [label="postdateint <= -1.4\nmse = 2256.2\nsamples = 2\nvalue = 947.5"] ;
1091 -> 1092 ;
1093 [label="mse = 0.0\nsamples = 1\nvalue = 995.0"] ;
1092 -> 1093 ;
1094 [label="mse = 0.0\nsamples = 1\nvalue = 900.0"] ;
1092 -> 1094 ;
1095 [label="postdateint <= -0.2\nmse = 13546.4\nsamples = 10\nvalue = 1103.5"] ;
1091 -> 1095 ;
1096 [label="postdateint <= -0.2\nmse = 29504.0\nsamples = 5\nvalue = 1151.0"] ;
1095 -> 1096 ;
1097 [label="pk_5.0 <= 1.5\nmse = 35168.8\nsamples = 4\nvalue = 1132.5"] ;
1096 -> 1097 ;
1098 [label="ty_2.0 <= 2.1\nmse = 42222.2\nsamples = 3\nvalue = 1166.7"] ;
1097 -> 1098 ;
1099 [label="mse = 0.0\nsamples = 1\nvalue = 1200.0"] ;
1098 -> 1099 ;
1100 [label="mse = 62500.0\nsamples = 2\nvalue = 1150.0"] ;
1098 -> 1100 ;
1101 [label="mse = 0.0\nsamples = 1\nvalue = 1030.0"] ;
1097 -> 1101 ;
1102 [label="mse = 0.0\nsamples = 1\nvalue = 1225.0"] ;
1096 -> 1102 ;
1103 [label="sqft <= -0.2\nmse = 5567.2\nsamples = 5\nvalue = 1083.8"] ;
1095 -> 1103 ;
1104 [label="pk_4.0 <= 0.4\nmse = 8916.0\nsamples = 3\nvalue = 1038.0"] ;
1103 -> 1104 ;
1105 [label="postdateint <= -0.0\nmse = 100.0\nsamples = 2\nvalue = 1085.0"] ;
1104 -> 1105 ;
1106 [label="mse = 0.0\nsamples = 1\nvalue = 1095.0"] ;
1105 -> 1106 ;
1107 [label="mse = 0.0\nsamples = 1\nvalue = 1075.0"] ;
1105 -> 1107 ;
1108 [label="mse = 0.0\nsamples = 1\nvalue = 850.0"] ;
1104 -> 1108 ;
1109 [label="postdateint <= 0.4\nmse = 612.2\nsamples = 2\nvalue = 1116.4"] ;
1103 -> 1109 ;
1110 [label="mse = 0.0\nsamples = 1\nvalue = 1095.0"] ;
1109 -> 1110 ;
1111 [label="mse = 0.0\nsamples = 1\nvalue = 1145.0"] ;
1109 -> 1111 ;
1112 [label="mse = 0.0\nsamples = 1\nvalue = 850.0"] ;
1090 -> 1112 ;
1113 [label="mse = 0.0\nsamples = 1\nvalue = 1350.0"] ;
1089 -> 1113 ;
1114 [label="sqft <= -0.3\nmse = 4944.0\nsamples = 3\nvalue = 1236.0"] ;
1088 -> 1114 ;
1115 [label="pThirties <= -0.0\nmse = 400.0\nsamples = 2\nvalue = 1270.0"] ;
1114 -> 1115 ;
1116 [label="mse = 0.0\nsamples = 1\nvalue = 1250.0"] ;
1115 -> 1116 ;
1117 [label="mse = 0.0\nsamples = 1\nvalue = 1290.0"] ;
1115 -> 1117 ;
1118 [label="mse = 0.0\nsamples = 1\nvalue = 1100.0"] ;
1114 -> 1118 ;
1119 [label="pForties <= 0.1\nmse = 17980.9\nsamples = 29\nvalue = 981.6"] ;
1087 -> 1119 ;
1120 [label="pk_2.0 <= 0.0\nmse = 22750.9\nsamples = 15\nvalue = 927.6"] ;
1119 -> 1120 ;
1121 [label="pTwenties <= -0.5\nmse = 5662.9\nsamples = 13\nvalue = 894.7"] ;
1120 -> 1121 ;
1122 [label="postdateint <= 1.0\nmse = 5192.4\nsamples = 6\nvalue = 836.0"] ;
1121 -> 1122 ;
1123 [label="pForties <= -0.1\nmse = 976.4\nsamples = 5\nvalue = 859.2"] ;
1122 -> 1123 ;
1124 [label="pYouths <= 1.7\nmse = 26.9\nsamples = 2\nvalue = 896.3"] ;
1123 -> 1124 ;
1125 [label="mse = 0.0\nsamples = 1\nvalue = 900.0"] ;
1124 -> 1125 ;
1126 [label="mse = 0.0\nsamples = 1\nvalue = 889.0"] ;
1124 -> 1126 ;
1127 [label="postdateint <= -0.6\nmse = 226.0\nsamples = 3\nvalue = 837.0"] ;
1123 -> 1127 ;
1128 [label="mse = 0.0\nsamples = 1\nvalue = 825.0"] ;
1127 -> 1128 ;
1129 [label="pThirties <= -0.7\nmse = 25.0\nsamples = 2\nvalue = 855.0"] ;
1127 -> 1129 ;
1130 [label="mse = 0.0\nsamples = 1\nvalue = 850.0"] ;
1129 -> 1130 ;
1131 [label="mse = 0.0\nsamples = 1\nvalue = 860.0"] ;
1129 -> 1131 ;
1132 [label="mse = 0.0\nsamples = 1\nvalue = 650.0"] ;
1122 -> 1132 ;
1133 [label="pYouths <= 0.7\nmse = 1947.9\nsamples = 7\nvalue = 935.4"] ;
1121 -> 1133 ;
1134 [label="medianIncome <= 0.2\nmse = 195.9\nsamples = 4\nvalue = 965.7"] ;
1133 -> 1134 ;
1135 [label="medianIncome <= -0.8\nmse = 18.8\nsamples = 3\nvalue = 977.5"] ;
1134 -> 1135 ;
1136 [label="mse = 0.0\nsamples = 2\nvalue = 975.0"] ;
1135 -> 1136 ;
1137 [label="mse = 0.0\nsamples = 1\nvalue = 985.0"] ;
1135 -> 1137 ;
1138 [label="mse = 0.0\nsamples = 1\nvalue = 950.0"] ;
1134 -> 1138 ;
1139 [label="pk_4.0 <= 0.4\nmse = 1666.7\nsamples = 3\nvalue = 900.0"] ;
1133 -> 1139 ;
1140 [label="postdateint <= 0.4\nmse = 625.0\nsamples = 2\nvalue = 925.0"] ;
1139 -> 1140 ;
1141 [label="mse = 0.0\nsamples = 1\nvalue = 900.0"] ;
1140 -> 1141 ;
1142 [label="mse = 0.0\nsamples = 1\nvalue = 950.0"] ;
1140 -> 1142 ;
1143 [label="mse = 0.0\nsamples = 1\nvalue = 850.0"] ;
1139 -> 1143 ;
1144 [label="pFifties <= 0.3\nmse = 67860.2\nsamples = 2\nvalue = 1289.5"] ;
1120 -> 1144 ;
1145 [label="mse = 0.0\nsamples = 1\nvalue = 1550.0"] ;
1144 -> 1145 ;
1146 [label="mse = 0.0\nsamples = 1\nvalue = 1029.0"] ;
1144 -> 1146 ;
1147 [label="postdateint <= 0.0\nmse = 5388.9\nsamples = 14\nvalue = 1043.3"] ;
1119 -> 1147 ;
1148 [label="pk_2.0 <= 0.0\nmse = 2091.7\nsamples = 9\nvalue = 995.0"] ;
1147 -> 1148 ;
1149 [label="pForties <= 0.4\nmse = 1188.4\nsamples = 8\nvalue = 1004.5"] ;
1148 -> 1149 ;
1150 [label="sqft <= -0.2\nmse = 425.0\nsamples = 4\nvalue = 979.0"] ;
1149 -> 1150 ;
1151 [label="postdateint <= -1.3\nmse = 6.8\nsamples = 3\nvalue = 993.5"] ;
1150 -> 1151 ;
1152 [label="mse = 0.0\nsamples = 1\nvalue = 989.0"] ;
1151 -> 1152 ;
1153 [label="mse = 0.0\nsamples = 2\nvalue = 995.0"] ;
1151 -> 1153 ;
1154 [label="mse = 0.0\nsamples = 1\nvalue = 950.0"] ;
1150 -> 1154 ;
1155 [label="postdateint <= -0.1\nmse = 381.8\nsamples = 4\nvalue = 1035.2"] ;
1149 -> 1155 ;
1156 [label="mse = 625.0\nsamples = 2\nvalue = 1024.0"] ;
1155 -> 1156 ;
1157 [label="postdateint <= -0.0\nmse = 80.2\nsamples = 2\nvalue = 1042.7"] ;
1155 -> 1157 ;
1158 [label="mse = 0.0\nsamples = 1\nvalue = 1049.0"] ;
1157 -> 1158 ;
1159 [label="mse = 0.0\nsamples = 1\nvalue = 1030.0"] ;
1157 -> 1159 ;
1160 [label="mse = 0.0\nsamples = 1\nvalue = 890.0"] ;
1148 -> 1160 ;
1161 [label="pk_4.0 <= 0.4\nmse = 2517.3\nsamples = 5\nvalue = 1107.8"] ;
1147 -> 1161 ;
1162 [label="mse = 0.0\nsamples = 1\nvalue = 1175.0"] ;
1161 -> 1162 ;
1163 [label="medianIncome <= -0.5\nmse = 386.8\nsamples = 4\nvalue = 1074.2"] ;
1161 -> 1163 ;
1164 [label="mse = 0.0\nsamples = 1\nvalue = 1100.0"] ;
1163 -> 1164 ;
1165 [label="pForties <= 0.5\nmse = 79.7\nsamples = 3\nvalue = 1061.2"] ;
1163 -> 1165 ;
1166 [label="mse = 0.0\nsamples = 1\nvalue = 1075.0"] ;
1165 -> 1166 ;
1167 [label="postdateint <= 1.6\nmse = 22.2\nsamples = 2\nvalue = 1056.7"] ;
1165 -> 1167 ;
1168 [label="mse = 0.0\nsamples = 1\nvalue = 1060.0"] ;
1167 -> 1168 ;
1169 [label="mse = 0.0\nsamples = 1\nvalue = 1050.0"] ;
1167 -> 1169 ;
1170 [label="pThirties <= -0.4\nmse = 14969.6\nsamples = 19\nvalue = 1206.5"] ;
1086 -> 1170 ;
1171 [label="sqft <= -0.3\nmse = 8014.2\nsamples = 13\nvalue = 1148.6"] ;
1170 -> 1171 ;
1172 [label="pThirties <= -1.1\nmse = 3438.8\nsamples = 5\nvalue = 1200.7"] ;
1171 -> 1172 ;
1173 [label="pFifties <= 1.0\nmse = 1016.7\nsamples = 3\nvalue = 1250.0"] ;
1172 -> 1173 ;
1174 [label="mse = 0.0\nsamples = 1\nvalue = 1295.0"] ;
1173 -> 1174 ;
1175 [label="pk_2.0 <= 0.0\nmse = 6.2\nsamples = 2\nvalue = 1227.5"] ;
1173 -> 1175 ;
1176 [label="mse = 0.0\nsamples = 1\nvalue = 1230.0"] ;
1175 -> 1176 ;
1177 [label="mse = 0.0\nsamples = 1\nvalue = 1225.0"] ;
1175 -> 1177 ;
1178 [label="pk_2.0 <= 0.0\nmse = 2067.2\nsamples = 2\nvalue = 1163.8"] ;
1172 -> 1178 ;
1179 [label="mse = 0.0\nsamples = 1\nvalue = 1190.0"] ;
1178 -> 1179 ;
1180 [label="mse = 0.0\nsamples = 1\nvalue = 1085.0"] ;
1178 -> 1180 ;
1181 [label="pSixtyPlus <= 2.1\nmse = 7983.7\nsamples = 8\nvalue = 1112.1"] ;
1171 -> 1181 ;
1182 [label="sqft <= -0.3\nmse = 5635.7\nsamples = 7\nvalue = 1082.6"] ;
1181 -> 1182 ;
1183 [label="pYouths <= 0.3\nmse = 2096.9\nsamples = 3\nvalue = 1030.3"] ;
1182 -> 1183 ;
1184 [label="mse = 0.0\nsamples = 1\nvalue = 1095.0"] ;
1183 -> 1184 ;
1185 [label="pSixtyPlus <= 0.9\nmse = 9.0\nsamples = 2\nvalue = 998.0"] ;
1183 -> 1185 ;
1186 [label="mse = 0.0\nsamples = 1\nvalue = 1001.0"] ;
1185 -> 1186 ;
1187 [label="mse = 0.0\nsamples = 1\nvalue = 995.0"] ;
1185 -> 1187 ;
1188 [label="postdateint <= -0.8\nmse = 5134.0\nsamples = 4\nvalue = 1114.0"] ;
1182 -> 1188 ;
1189 [label="mse = 0.0\nsamples = 1\nvalue = 995.0"] ;
1188 -> 1189 ;
1190 [label="pTwenties <= -0.6\nmse = 1992.2\nsamples = 3\nvalue = 1143.8"] ;
1188 -> 1190 ;
1191 [label="pForties <= 0.4\nmse = 555.6\nsamples = 2\nvalue = 1166.7"] ;
1190 -> 1191 ;
1192 [label="mse = 0.0\nsamples = 1\nvalue = 1200.0"] ;
1191 -> 1192 ;
1193 [label="mse = 0.0\nsamples = 1\nvalue = 1150.0"] ;
1191 -> 1193 ;
1194 [label="mse = 0.0\nsamples = 1\nvalue = 1075.0"] ;
1190 -> 1194 ;
1195 [label="mse = 0.0\nsamples = 1\nvalue = 1230.0"] ;
1181 -> 1195 ;
1196 [label="postdateint <= 0.5\nmse = 11390.0\nsamples = 6\nvalue = 1305.0"] ;
1170 -> 1196 ;
1197 [label="pSixtyPlus <= 0.3\nmse = 2009.0\nsamples = 4\nvalue = 1354.4"] ;
1196 -> 1197 ;
1198 [label="mse = 0.0\nsamples = 1\nvalue = 1250.0"] ;
1197 -> 1198 ;
1199 [label="pYouths <= 0.5\nmse = 517.3\nsamples = 3\nvalue = 1369.3"] ;
1197 -> 1199 ;
1200 [label="postdateint <= -0.2\nmse = 50.0\nsamples = 2\nvalue = 1395.0"] ;
1199 -> 1200 ;
1201 [label="mse = 0.0\nsamples = 1\nvalue = 1405.0"] ;
1200 -> 1201 ;
1202 [label="mse = 0.0\nsamples = 1\nvalue = 1390.0"] ;
1200 -> 1202 ;
1203 [label="mse = 0.0\nsamples = 1\nvalue = 1350.0"] ;
1199 -> 1203 ;
1204 [label="postdateint <= 1.5\nmse = 156.2\nsamples = 2\nvalue = 1107.5"] ;
1196 -> 1204 ;
1205 [label="mse = 0.0\nsamples = 1\nvalue = 1120.0"] ;
1204 -> 1205 ;
1206 [label="mse = 0.0\nsamples = 1\nvalue = 1095.0"] ;
1204 -> 1206 ;
1207 [label="pTwenties <= -0.6\nmse = 17958.5\nsamples = 102\nvalue = 1247.2"] ;
1067 -> 1207 ;
1208 [label="pYouths <= 0.2\nmse = 13648.3\nsamples = 39\nvalue = 1175.0"] ;
1207 -> 1208 ;
1209 [label="pk_4.0 <= 0.4\nmse = 3306.2\nsamples = 2\nvalue = 1492.5"] ;
1208 -> 1209 ;
1210 [label="mse = 0.0\nsamples = 1\nvalue = 1550.0"] ;
1209 -> 1210 ;
1211 [label="mse = 0.0\nsamples = 1\nvalue = 1435.0"] ;
1209 -> 1211 ;
1212 [label="pFifties <= 1.0\nmse = 10350.8\nsamples = 37\nvalue = 1163.9"] ;
1208 -> 1212 ;
1213 [label="ty_1.0 <= -0.8\nmse = 8741.2\nsamples = 29\nvalue = 1135.0"] ;
1212 -> 1213 ;
1214 [label="pk_4.0 <= 0.4\nmse = 2400.0\nsamples = 3\nvalue = 1240.0"] ;
1213 -> 1214 ;
1215 [label="mse = 0.0\nsamples = 2\nvalue = 1200.0"] ;
1214 -> 1215 ;
1216 [label="mse = 0.0\nsamples = 1\nvalue = 1300.0"] ;
1214 -> 1216 ;
1217 [label="pFifties <= 0.5\nmse = 7879.6\nsamples = 26\nvalue = 1120.5"] ;
1213 -> 1217 ;
1218 [label="medianIncome <= -0.2\nmse = 3509.7\nsamples = 16\nvalue = 1148.1"] ;
1217 -> 1218 ;
1219 [label="postdateint <= 1.1\nmse = 2761.5\nsamples = 14\nvalue = 1138.4"] ;
1218 -> 1219 ;
1220 [label="postdateint <= -0.1\nmse = 1819.5\nsamples = 13\nvalue = 1145.6"] ;
1219 -> 1220 ;
1221 [label="sqft <= -0.3\nmse = 1238.7\nsamples = 6\nvalue = 1174.1"] ;
1220 -> 1221 ;
1222 [label="postdateint <= -1.4\nmse = 2150.0\nsamples = 3\nvalue = 1155.0"] ;
1221 -> 1222 ;
1223 [label="mse = 0.0\nsamples = 1\nvalue = 1195.0"] ;
1222 -> 1223 ;
1224 [label="postdateint <= -0.7\nmse = 2025.0\nsamples = 2\nvalue = 1135.0"] ;
1222 -> 1224 ;
1225 [label="mse = 0.0\nsamples = 1\nvalue = 1090.0"] ;
1224 -> 1225 ;
1226 [label="mse = 0.0\nsamples = 1\nvalue = 1180.0"] ;
1224 -> 1226 ;
1227 [label="pTwenties <= -0.9\nmse = 74.2\nsamples = 3\nvalue = 1188.5"] ;
1221 -> 1227 ;
1228 [label="mse = 0.0\nsamples = 1\nvalue = 1175.0"] ;
1227 -> 1228 ;
1229 [label="ld_3.0 <= 0.3\nmse = 18.0\nsamples = 2\nvalue = 1193.0"] ;
1227 -> 1229 ;
1230 [label="mse = 0.0\nsamples = 1\nvalue = 1199.0"] ;
1229 -> 1230 ;
1231 [label="mse = 0.0\nsamples = 1\nvalue = 1190.0"] ;
1229 -> 1231 ;
1232 [label="ld_4.0 <= 1.5\nmse = 1457.4\nsamples = 7\nvalue = 1130.2"] ;
1220 -> 1232 ;
1233 [label="pForties <= 0.2\nmse = 580.2\nsamples = 5\nvalue = 1110.6"] ;
1232 -> 1233 ;
1234 [label="sqft <= -0.2\nmse = 174.5\nsamples = 4\nvalue = 1099.3"] ;
1233 -> 1234 ;
1235 [label="postdateint <= 0.5\nmse = 50.0\nsamples = 2\nvalue = 1085.0"] ;
1234 -> 1235 ;
1236 [label="mse = 0.0\nsamples = 1\nvalue = 1080.0"] ;
1235 -> 1236 ;
1237 [label="mse = 0.0\nsamples = 1\nvalue = 1095.0"] ;
1235 -> 1237 ;
1238 [label="mse = 0.0\nsamples = 2\nvalue = 1110.0"] ;
1234 -> 1238 ;
1239 [label="mse = 0.0\nsamples = 1\nvalue = 1150.0"] ;
1233 -> 1239 ;
1240 [label="pYouths <= 1.0\nmse = 600.2\nsamples = 2\nvalue = 1174.5"] ;
1232 -> 1240 ;
1241 [label="mse = 0.0\nsamples = 1\nvalue = 1199.0"] ;
1240 -> 1241 ;
1242 [label="mse = 0.0\nsamples = 1\nvalue = 1150.0"] ;
1240 -> 1242 ;
1243 [label="mse = 0.0\nsamples = 1\nvalue = 995.0"] ;
1219 -> 1243 ;
1244 [label="mse = 0.0\nsamples = 2\nvalue = 1250.0"] ;
1218 -> 1244 ;
1245 [label="pk_2.0 <= 0.0\nmse = 11863.0\nsamples = 10\nvalue = 1071.5"] ;
1217 -> 1245 ;
1246 [label="pThirties <= -0.7\nmse = 11492.1\nsamples = 9\nvalue = 1051.8"] ;
1245 -> 1246 ;
1247 [label="pk_3.0 <= 1.3\nmse = 1406.2\nsamples = 2\nvalue = 912.5"] ;
1246 -> 1247 ;
1248 [label="mse = 0.0\nsamples = 1\nvalue = 875.0"] ;
1247 -> 1248 ;
1249 [label="mse = 0.0\nsamples = 1\nvalue = 950.0"] ;
1247 -> 1249 ;
1250 [label="postdateint <= 0.3\nmse = 8461.7\nsamples = 7\nvalue = 1082.8"] ;
1246 -> 1250 ;
1251 [label="pYouths <= 0.6\nmse = 5587.1\nsamples = 6\nvalue = 1061.9"] ;
1250 -> 1251 ;
1252 [label="pTwenties <= -0.8\nmse = 254.7\nsamples = 3\nvalue = 1101.2"] ;
1251 -> 1252 ;
1253 [label="postdateint <= -1.4\nmse = 88.9\nsamples = 2\nvalue = 1093.3"] ;
1252 -> 1253 ;
1254 [label="mse = 0.0\nsamples = 1\nvalue = 1100.0"] ;
1253 -> 1254 ;
1255 [label="mse = 0.0\nsamples = 1\nvalue = 1080.0"] ;
1253 -> 1255 ;
1256 [label="mse = 0.0\nsamples = 1\nvalue = 1125.0"] ;
1252 -> 1256 ;
1257 [label="postdateint <= -1.3\nmse = 7818.8\nsamples = 3\nvalue = 1022.5"] ;
1251 -> 1257 ;
1258 [label="mse = 0.0\nsamples = 1\nvalue = 900.0"] ;
1257 -> 1258 ;
1259 [label="pFifties <= 0.9\nmse = 3755.6\nsamples = 2\nvalue = 1063.3"] ;
1257 -> 1259 ;
1260 [label="mse = 0.0\nsamples = 1\nvalue = 1150.0"] ;
1259 -> 1260 ;
1261 [label="mse = 0.0\nsamples = 1\nvalue = 1020.0"] ;
1259 -> 1261 ;
1262 [label="mse = 0.0\nsamples = 1\nvalue = 1250.0"] ;
1250 -> 1262 ;
1263 [label="mse = 0.0\nsamples = 1\nvalue = 1180.0"] ;
1245 -> 1263 ;
1264 [label="pSixtyPlus <= 1.2\nmse = 6879.4\nsamples = 8\nvalue = 1237.8"] ;
1212 -> 1264 ;
1265 [label="pFifties <= 1.1\nmse = 1089.6\nsamples = 5\nvalue = 1274.2"] ;
1264 -> 1265 ;
1266 [label="postdateint <= 1.6\nmse = 17.9\nsamples = 4\nvalue = 1296.1"] ;
1265 -> 1266 ;
1267 [label="postdateint <= 0.5\nmse = 5.7\nsamples = 3\nvalue = 1297.4"] ;
1266 -> 1267 ;
1268 [label="mse = 0.0\nsamples = 1\nvalue = 1295.0"] ;
1267 -> 1268 ;
1269 [label="postdateint <= 1.0\nmse = 0.2\nsamples = 2\nvalue = 1299.8"] ;
1267 -> 1269 ;
1270 [label="mse = 0.0\nsamples = 1\nvalue = 1299.0"] ;
1269 -> 1270 ;
1271 [label="mse = 0.0\nsamples = 1\nvalue = 1300.0"] ;
1269 -> 1271 ;
1272 [label="mse = 0.0\nsamples = 1\nvalue = 1286.0"] ;
